{"learner":{"attributes":{"scikit_learn":"{\"_estimator_type\": \"regressor\"}"},"feature_names":[],"feature_types":[],"gradient_booster":{"model":{"gbtree_model_param":{"num_parallel_tree":"1","num_trees":"300"},"iteration_indptr":[0,1,2,3,4,5,6,7,8,9,10,11,12,13,14,15,16,17,18,19,20,21,22,23,24,25,26,27,28,29,30,31,32,33,34,35,36,37,38,39,40,41,42,43,44,45,46,47,48,49,50,51,52,53,54,55,56,57,58,59,60,61,62,63,64,65,66,67,68,69,70,71,72,73,74,75,76,77,78,79,80,81,82,83,84,85,86,87,88,89,90,91,92,93,94,95,96,97,98,99,100,101,102,103,104,105,106,107,108,109,110,111,112,113,114,115,116,117,118,119,120,121,122,123,124,125,126,127,128,129,130,131,132,133,134,135,136,137,138,139,140,141,142,143,144,145,146,147,148,149,150,151,152,153,154,155,156,157,158,159,160,161,162,163,164,165,166,167,168,169,170,171,172,173,174,175,176,177,178,179,180,181,182,183,184,185,186,187,188,189,190,191,192,193,194,195,196,197,198,199,200,201,202,203,204,205,206,207,208,209,210,211,212,213,214,215,216,217,218,219,220,221,222,223,224,225,226,227,228,229,230,231,232,233,234,235,236,237,238,239,240,241,242,243,244,245,246,247,248,249,250,251,252,253,254,255,256,257,258,259,260,261,262,263,264,265,266,267,268,269,270,271,272,273,274,275,276,277,278,279,280,281,282,283,284,285,286,287,288,289,290,291,292,293,294,295,296,297,298,299,300],"tree_info":[0,0,0,0,0,0,0,0,0,0,0,0,0,0,0,0,0,0,0,0,0,0,0,0,0,0,0,0,0,0,0,0,0,0,0,0,0,0,0,0,0,0,0,0,0,0,0,0,0,0,0,0,0,0,0,0,0,0,0,0,0,0,0,0,0,0,0,0,0,0,0,0,0,0,0,0,0,0,0,0,0,0,0,0,0,0,0,0,0,0,0,0,0,0,0,0,0,0,0,0,0,0,0,0,0,0,0,0,0,0,0,0,0,0,0,0,0,0,0,0,0,0,0,0,0,0,0,0,0,0,0,0,0,0,0,0,0,0,0,0,0,0,0,0,0,0,0,0,0,0,0,0,0,0,0,0,0,0,0,0,0,0,0,0,0,0,0,0,0,0,0,0,0,0,0,0,0,0,0,0,0,0,0,0,0,0,0,0,0,0,0,0,0,0,0,0,0,0,0,0,0,0,0,0,0,0,0,0,0,0,0,0,0,0,0,0,0,0,0,0,0,0,0,0,0,0,0,0,0,0,0,0,0,0,0,0,0,0,0,0,0,0,0,0,0,0,0,0,0,0,0,0,0,0,0,0,0,0,0,0,0,0,0,0,0,0,0,0,0,0,0,0,0,0,0,0,0,0,0,0,0,0,0,0,0,0,0,0,0,0,0,0,0,0,0,0,0,0,0,0],"trees":[{"base_weights":[-1.7003885E-6,2.0580417E-2,-8.430279E-5,6.9590114E-2,-8.0320094E-4,2.3229637E-3,-2.5487304E-4,5.376553E-2,1.1662527E-2,-8.6023286E-2,5.542641E-3,1.3972404E-3,2.2171086E-3,-6.526841E-2,-2.448484E-4,7.8102816E-3,9.897404E-2,-2.0165204E-3,-2.4328391E-1,4.3106735E-2,2.0841586E-3,1.9615784E-3,2.7854167E-2,-4.017837E-2,-1.0457044E-3,-1.9530916E-4,-1.1012823E-2,-6.252505E-2,1.286714E-2,1.4500684E-1,-1.2237177E-2,-7.001625E-3,1.46892E-2,-3.0624543E-3,-3.6266204E-2,-9.993542E-3,7.6919004E-2,-5.7922207E-2,7.845986E-3,2.0753683E-3,-3.467994E-2,9.681082E-3,8.688366E-2,-5.871942E-4,1.1583598E-2,2.0253398E-3,-2.8316927E-4,-1.1309709E-3,-3.6266215E-2,1.3336979E-4,-1.1754539E-3,7.607767E-5,5.761199E-4,3.3287428E-4,2.9076028E-3,-9.019222E-4,3.015466E-4,1.8240647E-5,-1.7602273E-4,1.9861554E-4,-4.1393423E-6,-4.1393423E-6,-5.398537E-4,7.0550115E-5,-4.159226E-4,1.8432683E-4,1.3310123E-3,6.2824342E-6,-1.620817E-3,1.2930351E-3,5.9250666E-5,1.7748509E-5,3.7398154E-4,1.3676366E-4,-4.2239245E-4,3.0116673E-4,-6.831919E-5,2.706123E-3,3.2097107E-4,1.904109E-5,1.4175392E-4,3.8868144E-5,-3.8853073E-6,2.0999777E-4,-2.8981979E-6,-1.17546966E-4,1.4453351E-4,-8.2115066E-4,-1.93279E-4],"categories":[],"categories_nodes":[],"categories_segments":[],"categories_sizes":[],"default_left":[0,0,0,0,0,0,0,0,0,0,0,0,0,0,0,0,0,0,0,0,0,0,0,0,0,0,0,0,0,0,0,0,0,0,0,0,0,0,0,0,0,0,0,0,0,0,0,0,0,0,0,0,0,0,0,0,0,0,0,0,0,0,0,0,0,0,0,0,0,0,0,0,0,0,0,0,0,0,0,0,0,0,0,0,0,0,0,0,0],"id":0,"left_children":[1,3,5,7,9,11,13,15,-1,17,19,-1,21,23,25,27,29,31,33,35,37,39,41,43,-1,45,47,49,51,53,55,57,59,-1,61,63,65,67,69,71,73,75,77,-1,79,81,83,85,87,-1,-1,-1,-1,-1,-1,-1,-1,-1,-1,-1,-1,-1,-1,-1,-1,-1,-1,-1,-1,-1,-1,-1,-1,-1,-1,-1,-1,-1,-1,-1,-1,-1,-1,-1,-1,-1,-1,-1,-1],"loss_changes":[2.0160341E-1,4.9681014E-1,4.8496272E-2,2.4363046E0,1.7947936E-1,1.1335646E-1,7.1865946E-2,2.9631928E-1,0E0,3.0336142E-1,4.0053822E-2,0E0,5.1109005E-2,1.2562051E-2,5.8823723E-2,2.6413176E-2,3.703686E-1,1.4353244E-3,9.316683E-2,4.7450155E-2,9.86464E-2,3.231842E-2,8.176046E-2,1.2196843E-2,0E0,2.1417998E-2,1.2598188E-1,2.2437476E-2,1.5564133E-2,8.2077944E-1,7.542218E-2,1.248362E-3,3.2069656E-4,0E0,1.8834709E-3,6.2192716E-3,5.0120845E-2,1.5256645E-1,5.989448E-2,8.178675E-2,9.350635E-3,2.045293E-2,1.7249961E-1,0E0,7.3357485E-5,1.8774765E-2,1.4952394E-2,6.043503E-2,1.08690426E-1,0E0,0E0,0E0,0E0,0E0,0E0,0E0,0E0,0E0,0E0,0E0,0E0,0E0,0E0,0E0,0E0,0E0,0E0,0E0,0E0,0E0,0E0,0E0,0E0,0E0,0E0,0E0,0E0,0E0,0E0,0E0,0E0,0E0,0E0,0E0,0E0,0E0,0E0,0E0,0E0],"parents":[2147483647,0,0,1,1,2,2,3,3,4,4,5,5,6,6,7,7,9,9,10,10,12,12,13,13,14,14,15,15,16,16,17,17,18,18,19,19,20,20,21,21,22,22,23,23,25,25,26,26,27,27,28,28,29,29,30,30,31,31,32,32,34,34,35,35,36,36,37,37,38,38,39,39,40,40,41,41,42,42,44,44,45,45,46,46,47,47,48,48],"right_children":[2,4,6,8,10,12,14,16,-1,18,20,-1,22,24,26,28,30,32,34,36,38,40,42,44,-1,46,48,50,52,54,56,58,60,-1,62,64,66,68,70,72,74,76,78,-1,80,82,84,86,88,-1,-1,-1,-1,-1,-1,-1,-1,-1,-1,-1,-1,-1,-1,-1,-1,-1,-1,-1,-1,-1,-1,-1,-1,-1,-1,-1,-1,-1,-1,-1,-1,-1,-1,-1,-1,-1,-1,-1,-1],"split_conditions":[1.8334401E0,4.791517E1,1.9952621E1,4.773164E1,-3.4699172E-3,-3.579481E0,1.8244225E1,8.603141E-2,1.1662527E-2,4.187581E-2,5.0645023E1,1.3972404E-3,2.2772911E2,6.474466E1,8.603141E-2,2.2573822E1,4.3710217E1,5.49147E1,5.2263374E1,4.959301E1,5.3498924E1,5.1962585E0,6.5548345E-2,2.149887E0,-1.0457044E-3,2.3296858E1,6.2661526E1,6.235798E-2,4.8358846E-2,3.5815247E1,4.5445827E1,5.0824345E1,6.2661526E1,-3.0624543E-3,5.24616E1,2.657748E-2,1.06526285E-1,1.06526285E-1,5.369607E1,3.4584808E0,4.1451436E-1,-3.4699172E-3,4.789E0,-5.871942E-4,2.1842495E1,-1.576224E0,1.9474865E1,9.5982E6,4.59055E5,1.3336979E-4,-1.1754539E-3,7.607767E-5,5.761199E-4,3.3287428E-4,2.9076028E-3,-9.019222E-4,3.015466E-4,1.8240647E-5,-1.7602273E-4,1.9861554E-4,-4.1393423E-6,-4.1393423E-6,-5.398537E-4,7.0550115E-5,-4.159226E-4,1.8432683E-4,1.3310123E-3,6.2824342E-6,-1.620817E-3,1.2930351E-3,5.9250666E-5,1.7748509E-5,3.7398154E-4,1.3676366E-4,-4.2239245E-4,3.0116673E-4,-6.831919E-5,2.706123E-3,3.2097107E-4,1.904109E-5,1.4175392E-4,3.8868144E-5,-3.8853073E-6,2.0999777E-4,-2.8981979E-6,-1.17546966E-4,1.4453351E-4,-8.2115066E-4,-1.93279E-4],"split_indices":[8,11,3,11,12,12,0,10,0,10,11,0,8,11,10,11,11,11,11,11,11,14,10,14,0,11,11,10,10,11,11,11,11,0,11,10,10,10,11,14,12,12,3,0,1,12,0,4,4,0,0,0,0,0,0,0,0,0,0,0,0,0,0,0,0,0,0,0,0,0,0,0,0,0,0,0,0,0,0,0,0,0,0,0,0,0,0,0,0],"split_type":[0,0,0,0,0,0,0,0,0,0,0,0,0,0,0,0,0,0,0,0,0,0,0,0,0,0,0,0,0,0,0,0,0,0,0,0,0,0,0,0,0,0,0,0,0,0,0,0,0,0,0,0,0,0,0,0,0,0,0,0,0,0,0,0,0,0,0,0,0,0,0,0,0,0,0,0,0,0,0,0,0,0,0,0,0,0,0,0,0],"sum_hessian":[1.18579E5,4.73E2,1.18106E5,1.43E2,3.3E2,7.814E3,1.10292E5,1.42E2,1E0,2.2E1,3.08E2,5E0,7.809E3,1.6E1,1.10276E5,7.1E1,7.1E1,1.5E1,7E0,2.5E1,2.83E2,7.733E3,7.6E1,1.1E1,5E0,1.09772E5,5.04E2,4E0,6.7E1,5E1,2.1E1,1.2E1,3E0,5E0,2E0,1E1,1.5E1,2.4E1,2.59E2,7.71E3,2.3E1,5.9E1,1.7E1,8E0,3E0,4.177E3,1.05595E5,3.63E2,1.41E2,2E0,2E0,6.1E1,6E0,2.9E1,2.1E1,7E0,1.4E1,7E0,5E0,2E0,1E0,1E0,1E0,7E0,3E0,8E0,7E0,1.6E1,8E0,3E0,2.56E2,7.646E3,6.4E1,3E0,2E1,2.6E1,3.3E1,3E0,1.4E1,1E0,2E0,2.358E3,1.819E3,3.2E1,1.05563E5,2.16E2,1.47E2,3.7E1,1.04E2],"tree_param":{"num_deleted":"0","num_feature":"16","num_nodes":"89","size_leaf_vector":"1"}},{"base_weights":[1.8850566E-5,2.3631267E-2,-7.271688E-5,7.332788E-2,1.8831154E-3,2.8057278E-3,-1.9165543E-4,5.773105E-2,7.663394E-1,-3.376407E-2,9.872853E-3,7.4345054E-4,7.838769E-3,1.7015758E-3,-3.40747E-4,-5.4849307E-3,1.3531007E-1,-1.09122746E-4,1.1604213E-2,7.881195E-3,-1.2906058E-1,1.12870885E-2,-6.5359175E-2,1.5578296E-3,-1.1448356E-3,1.3199614E-2,2.8080503E-3,4.6305684E-4,5.564127E-3,-1.977614E-2,-3.190019E-4,-6.498625E-2,2.3556033E-3,2.085571E-1,7.284645E-2,-5.104928E-2,3.043876E-2,-2.6355239E-2,-2.5414783E-1,4.508312E-3,2.2749927E-2,-1.4212915E-4,-7.4592506E-4,9.71232E-3,1.1922785E-3,-9.882267E-4,-2.7107708E-2,-1.4262309E-4,1.603449E-2,2.3708525E-3,1.5573477E-3,5.6168763E-4,-1.7202266E-2,6.1743734E-3,-2.0744363E-2,-1.7452019E-3,-7.03228E-2,-2.986691E-4,-4.9302992E-3,-2.712816E-4,-1.3165971E-3,5.9536582E-5,-4.489023E-4,9.0698875E-4,8.930316E-3,-1.2749032E-3,8.885141E-4,-2.143904E-5,-1.4832405E-3,4.8202568E-5,7.657965E-4,-9.862078E-6,-4.071094E-4,-3.1579477E-3,-4.613803E-4,-7.893704E-5,6.5873195E-5,3.300782E-4,-2.0875577E-5,1.2910593E-5,1.6578968E-4,-8.1494734E-5,1.3102026E-5,4.605472E-6,-3.282061E-5,-5.986254E-4,4.235346E-5,1.3121068E-4,-1.1719771E-4,1.6956317E-4,-2.020611E-4,3.5824865E-5,-3.0777362E-4,3.4389236E-6,1.829028E-4,-2.349457E-4,8.779591E-6,5.361917E-5,3.4424235E-4,-9.570532E-5,-6.561783E-4,-1.8949536E-4,1.5115597E-4,-3.921757E-4,-1.4200029E-3,-4.4718763E-6,8.5362615E-7,-2.5590309E-5,-4.1678248E-4],"categories":[],"categories_nodes":[],"categories_segments":[],"categories_sizes":[],"default_left":[0,0,0,0,0,0,0,0,0,0,0,0,0,0,0,0,0,0,0,0,0,0,0,0,0,0,0,0,0,0,0,0,0,0,0,0,0,0,0,0,0,0,0,0,0,0,0,0,0,0,0,0,0,0,0,0,0,0,0,0,0,0,0,0,0,0,0,0,0,0,0,0,0,0,0,0,0,0,0,0,0,0,0,0,0,0,0,0,0,0,0,0,0,0,0,0,0,0,0,0,0,0,0,0,0,0,0,0,0],"id":1,"left_children":[1,3,5,7,9,11,13,15,17,19,21,23,25,27,29,31,33,-1,-1,35,37,39,41,43,45,47,49,51,53,55,57,59,61,63,65,67,69,71,73,75,77,-1,-1,79,81,83,85,87,89,91,-1,93,95,97,99,101,103,105,107,-1,-1,-1,-1,-1,-1,-1,-1,-1,-1,-1,-1,-1,-1,-1,-1,-1,-1,-1,-1,-1,-1,-1,-1,-1,-1,-1,-1,-1,-1,-1,-1,-1,-1,-1,-1,-1,-1,-1,-1,-1,-1,-1,-1,-1,-1,-1,-1,-1,-1],"loss_changes":[2.5746584E-1,4.9703425E-1,4.061105E-2,1.4689882E0,9.1757886E-2,4.8850607E-2,3.215449E-2,6.775265E-1,9.315654E-1,2.3516738E-1,2.8719831E-2,5.1379707E-3,3.6856398E-2,3.9779864E-2,4.462243E-2,3.6075283E-2,2.6847434E-1,0E0,0E0,5.7385657E-2,2.2455022E-1,2.0022776E-2,1.3010744E-3,6.9458024E-3,4.067689E-3,2.5041498E-2,4.690023E-2,1.0982947E-2,3.2542437E-2,1.07422896E-1,9.888576E-3,1.9145485E-2,1.1996787E-2,2.1777897E0,1.23551115E-1,5.6769125E-2,3.6274746E-2,3.9659436E-3,8.80152E-2,4.280555E-3,2.4527822E-2,0E0,0E0,5.761179E-3,2.4727967E-3,3.3314056E-3,6.4133587E-3,1.8119793E-2,1.8583149E-2,2.84657E-2,0E0,2.4180287E-2,4.002449E-3,4.5122243E-2,2.2436792E-2,2.5813373E-2,6.3546985E-2,5.989942E-3,4.0238816E-2,0E0,0E0,0E0,0E0,0E0,0E0,0E0,0E0,0E0,0E0,0E0,0E0,0E0,0E0,0E0,0E0,0E0,0E0,0E0,0E0,0E0,0E0,0E0,0E0,0E0,0E0,0E0,0E0,0E0,0E0,0E0,0E0,0E0,0E0,0E0,0E0,0E0,0E0,0E0,0E0,0E0,0E0,0E0,0E0,0E0,0E0,0E0,0E0,0E0,0E0],"parents":[2147483647,0,0,1,1,2,2,3,3,4,4,5,5,6,6,7,7,8,8,9,9,10,10,11,11,12,12,13,13,14,14,15,15,16,16,19,19,20,20,21,21,22,22,23,23,24,24,25,25,26,26,27,27,28,28,29,29,30,30,31,31,32,32,33,33,34,34,35,35,36,36,37,37,38,38,39,39,40,40,43,43,44,44,45,45,46,46,47,47,48,48,49,49,51,51,52,52,53,53,54,54,55,55,56,56,57,57,58,58],"right_children":[2,4,6,8,10,12,14,16,18,20,22,24,26,28,30,32,34,-1,-1,36,38,40,42,44,46,48,50,52,54,56,58,60,62,64,66,68,70,72,74,76,78,-1,-1,80,82,84,86,88,90,92,-1,94,96,98,100,102,104,106,108,-1,-1,-1,-1,-1,-1,-1,-1,-1,-1,-1,-1,-1,-1,-1,-1,-1,-1,-1,-1,-1,-1,-1,-1,-1,-1,-1,-1,-1,-1,-1,-1,-1,-1,-1,-1,-1,-1,-1,-1,-1,-1,-1,-1,-1,-1,-1,-1,-1,-1],"split_conditions":[1.8334401E0,4.791517E1,2.3296858E1,4.773164E1,5.3498924E1,2.2424908E-2,2.101703E1,7.924958E-2,1.5738923E-2,5.2093014E1,8.961806E1,-7.107436E-1,-5.132558E-2,4.0813576E-2,1.9054905E1,2.9632072E1,3.7121914E1,-1.09122746E-4,1.1604213E-2,-3.4699172E-3,1.1064956E-1,7.924958E-2,6.254084E-2,2.831E1,3.4897845E-2,1.4353932E1,1.06526285E-1,2.2698E1,8.167284E1,8.603141E-2,8.603141E-2,5.1783256E-2,7.2044656E-2,3.4776905E1,3.804175E1,3.2714214E-2,7.2044656E-2,3.2186665E-2,5.31674E1,7.0817163E-3,7.562751E1,-1.4212915E-4,-7.4592506E-4,1.7724339E-2,2.9492685E1,1.2179104E-1,1.8952152E1,3.7470225E-2,8.941491E-2,7.2044656E-2,1.5573477E-3,6.99855E1,4.4879973E-2,1.2327354E0,8.603141E-2,2.1906E1,6.831142E1,7.631E6,6.127916E2,-2.712816E-4,-1.3165971E-3,5.9536582E-5,-4.489023E-4,9.0698875E-4,8.930316E-3,-1.2749032E-3,8.885141E-4,-2.143904E-5,-1.4832405E-3,4.8202568E-5,7.657965E-4,-9.862078E-6,-4.071094E-4,-3.1579477E-3,-4.613803E-4,-7.893704E-5,6.5873195E-5,3.300782E-4,-2.0875577E-5,1.2910593E-5,1.6578968E-4,-8.1494734E-5,1.3102026E-5,4.605472E-6,-3.282061E-5,-5.986254E-4,4.235346E-5,1.3121068E-4,-1.1719771E-4,1.6956317E-4,-2.020611E-4,3.5824865E-5,-3.0777362E-4,3.4389236E-6,1.829028E-4,-2.349457E-4,8.779591E-6,5.361917E-5,3.4424235E-4,-9.570532E-5,-6.561783E-4,-1.8949536E-4,1.5115597E-4,-3.921757E-4,-1.4200029E-3,-4.4718763E-6,8.5362615E-7,-2.5590309E-5,-4.1678248E-4],"split_indices":[8,11,11,11,11,9,0,9,9,11,11,12,15,10,7,11,11,0,0,12,9,9,9,1,10,11,10,5,11,10,10,9,9,11,11,9,9,9,11,12,11,0,0,10,0,15,11,10,9,9,0,7,15,12,10,5,11,4,6,0,0,0,0,0,0,0,0,0,0,0,0,0,0,0,0,0,0,0,0,0,0,0,0,0,0,0,0,0,0,0,0,0,0,0,0,0,0,0,0,0,0,0,0,0,0,0,0,0,0],"split_type":[0,0,0,0,0,0,0,0,0,0,0,0,0,0,0,0,0,0,0,0,0,0,0,0,0,0,0,0,0,0,0,0,0,0,0,0,0,0,0,0,0,0,0,0,0,0,0,0,0,0,0,0,0,0,0,0,0,0,0,0,0,0,0,0,0,0,0,0,0,0,0,0,0,0,0,0,0,0,0,0,0,0,0,0,0,0,0,0,0,0,0,0,0,0,0,0,0,0,0,0,0,0,0,0,0,0,0,0,0],"sum_hessian":[1.19078E5,4.59E2,1.18619E5,1.39E2,3.2E2,4.706E3,1.13913E5,1.37E2,2E0,5.8E1,2.62E2,3.339E3,1.367E3,8.315E3,1.05598E5,7.6E1,6.1E1,1E0,1E0,4.1E1,1.7E1,2.58E2,4E0,2.333E3,1.006E3,6.61E2,7.06E2,6.297E3,2.018E3,1.17E2,1.05481E5,8E0,6.8E1,2.7E1,3.4E1,1.1E1,3E1,1E1,7E0,1.63E2,9.5E1,1E0,3E0,9.9E1,2.234E3,1.001E3,5E0,1.16E2,5.45E2,7.05E2,1E0,6.263E3,3.4E1,1.973E3,4.5E1,8.7E1,3E1,1.05019E5,4.62E2,6E0,2E0,6.4E1,4E0,2.4E1,3E0,2E0,3.2E1,8E0,3E0,2E1,1E1,4E0,6E0,5E0,2E0,2.3E1,1.4E2,6.7E1,2.8E1,4.5E1,5.4E1,2.7E1,2.207E3,6.14E2,3.87E2,2E0,3E0,5.4E1,6.2E1,5.32E2,1.3E1,6.81E2,2.4E1,6.188E3,7.5E1,2.5E1,9E0,1.919E3,5.4E1,3.7E1,8E0,4.3E1,4.4E1,2.2E1,8E0,7.5731E4,2.9288E4,4.35E2,2.7E1],"tree_param":{"num_deleted":"0","num_feature":"16","num_nodes":"109","size_leaf_vector":"1"}},{"base_weights":[4.6952187E-5,2.0331014E-2,-3.233299E-5,6.663766E-2,8.681973E-4,2.054282E-3,-2.3895947E-4,5.0147943E-2,1.1546193E-2,-3.3425905E-2,9.017859E-3,7.652242E-4,6.056512E-3,-2.0210537E-4,-9.396481E-3,2.640244E-3,1.0049489E-1,6.6587776E-3,-1.1391235E-1,1.2821828E-1,7.1635856E-3,1.9681145E-2,5.662876E-4,6.4457646E-3,-5.721065E-2,2.6332706E-3,-2.7834452E-4,9.5059024E-4,-1.8488042E-2,-7.635173E-2,9.781329E-3,1.4125694E-1,-1.6051514E-2,-5.066418E-2,2.79468E-2,-2.204675E-2,-2.1275984E-1,1.9633875E-3,2.5349145E-3,3.983668E-2,5.4359306E-3,2.1486871E-2,-6.5097085E-4,4.9187365E-4,2.7498703E-2,5.937743E-3,6.040849E-2,-1.2004351E-1,2.0627653E-2,2.9594009E-3,-1.6201258E-2,2.4801604E-2,-2.8290087E-4,8.527456E-2,-1.6094827E-3,-3.414505E-2,-8.363086E-3,7.1177637E-6,-9.190678E-4,4.0484103E-4,6.036316E-5,3.10846E-4,2.7505548E-3,-7.612442E-4,2.90971E-4,-2.1248476E-5,-1.4721162E-3,-1.3513543E-4,4.4757957E-4,-9.579884E-5,-3.7584387E-4,-2.6824637E-3,-6.246845E-4,1.1391389E-4,-8.446308E-5,1.6022085E-3,3.3831166E-5,-4.60019E-4,9.86589E-5,4.9565965E-4,1.6961434E-4,1.7043218E-4,3.852309E-6,-1.5465266E-4,3.5096452E-4,5.702803E-5,9.0875966E-4,1.4107357E-4,9.850119E-4,-2.3200411E-4,-1.2924884E-3,-5.267458E-4,5.384083E-4,8.923369E-6,7.156013E-5,-7.0440135E-4,-5.2229087E-5,8.1865967E-4,8.985415E-5,1.633553E-5,-3.1864636E-6,9.535639E-4,1.7432719E-4,-6.260653E-5,3.4052058E-4,2.7297103E-5,-5.6582043E-4,1.3161361E-3,-1.341068E-4],"categories":[],"categories_nodes":[],"categories_segments":[],"categories_sizes":[],"default_left":[0,0,0,0,0,0,0,0,0,0,0,0,0,0,0,0,0,0,0,0,0,0,0,0,0,0,0,0,0,0,0,0,0,0,0,0,0,0,0,0,0,0,0,0,0,0,0,0,0,0,0,0,0,0,0,0,0,0,0,0,0,0,0,0,0,0,0,0,0,0,0,0,0,0,0,0,0,0,0,0,0,0,0,0,0,0,0,0,0,0,0,0,0,0,0,0,0,0,0,0,0,0,0,0,0,0,0,0,0],"id":2,"left_children":[1,3,5,7,9,11,13,15,-1,17,19,21,23,25,27,29,31,33,35,37,39,41,43,45,47,49,51,53,55,57,59,61,63,65,67,69,71,73,-1,75,77,79,-1,81,83,85,87,89,91,93,95,97,99,101,103,105,107,-1,-1,-1,-1,-1,-1,-1,-1,-1,-1,-1,-1,-1,-1,-1,-1,-1,-1,-1,-1,-1,-1,-1,-1,-1,-1,-1,-1,-1,-1,-1,-1,-1,-1,-1,-1,-1,-1,-1,-1,-1,-1,-1,-1,-1,-1,-1,-1,-1,-1,-1,-1],"loss_changes":[1.9124278E-1,4.172244E-1,5.107149E-2,2.3999476E0,9.1693126E-2,5.50585E-2,3.637336E-2,3.250287E-1,0E0,2.040138E-1,5.7654478E-2,3.0371875E-2,6.439873E-2,2.320622E-2,4.065626E-2,4.0797096E-2,3.1581163E-1,5.388847E-2,1.8600371E-1,6.27677E-2,1.45727815E-2,1.4257982E-2,1.6001623E-2,7.050709E-2,8.072907E-2,1.7314544E-2,1.1953166E-2,4.3959975E-2,3.617554E-2,7.257782E-3,7.344457E-3,7.137542E-1,5.1034756E-2,5.592338E-2,2.2908723E-2,1.964414E-3,6.6634476E-2,3.9064305E-4,0E0,5.650757E-2,5.7420734E-2,9.7061135E-3,0E0,1.4061126E-2,7.72422E-3,5.060734E-2,4.0940054E-2,5.0246418E-3,2.2312844E-2,2.3970392E-2,2.8213859E-2,1.6412672E-2,7.1607595E-3,2.4414957E-3,3.3055034E-2,7.461675E-2,1.0138795E-1,0E0,0E0,0E0,0E0,0E0,0E0,0E0,0E0,0E0,0E0,0E0,0E0,0E0,0E0,0E0,0E0,0E0,0E0,0E0,0E0,0E0,0E0,0E0,0E0,0E0,0E0,0E0,0E0,0E0,0E0,0E0,0E0,0E0,0E0,0E0,0E0,0E0,0E0,0E0,0E0,0E0,0E0,0E0,0E0,0E0,0E0,0E0,0E0,0E0,0E0,0E0,0E0],"parents":[2147483647,0,0,1,1,2,2,3,3,4,4,5,5,6,6,7,7,9,9,10,10,11,11,12,12,13,13,14,14,15,15,16,16,17,17,18,18,19,19,20,20,21,21,22,22,23,23,24,24,25,25,26,26,27,27,28,28,29,29,30,30,31,31,32,32,33,33,34,34,35,35,36,36,37,37,39,39,40,40,41,41,43,43,44,44,45,45,46,46,47,47,48,48,49,49,50,50,51,51,52,52,53,53,54,54,55,55,56,56],"right_children":[2,4,6,8,10,12,14,16,-1,18,20,22,24,26,28,30,32,34,36,38,40,42,44,46,48,50,52,54,56,58,60,62,64,66,68,70,72,74,-1,76,78,80,-1,82,84,86,88,90,92,94,96,98,100,102,104,106,108,-1,-1,-1,-1,-1,-1,-1,-1,-1,-1,-1,-1,-1,-1,-1,-1,-1,-1,-1,-1,-1,-1,-1,-1,-1,-1,-1,-1,-1,-1,-1,-1,-1,-1,-1,-1,-1,-1,-1,-1,-1,-1,-1,-1,-1,-1,-1,-1,-1,-1,-1,-1],"split_conditions":[1.8334401E0,4.791517E1,2.2698E1,4.773164E1,5.3498924E1,3.993278E-2,8.603141E-2,8.603141E-2,1.1546193E-2,5.2093014E1,5.369607E1,-3.3238525E0,8.6562195E0,2.0953331E1,1.7361383E0,2.9632072E1,4.3710217E1,-3.4699172E-3,1.06526285E-1,1.824358E-2,5.4736374E1,-3.4699172E-3,2.213625E2,1.2405483E2,1.960246E0,5.913375E-2,2.1499039E1,-4.8219147E1,4.560947E1,1.9827724E-2,-1.800003E-1,3.5815247E1,4.5445827E1,4.0813576E-2,4.959301E1,3.3399694E-2,7.038858E-4,1.6096417E-2,2.5349145E-3,-3.4699172E-3,7.038858E-4,1.7729258E1,-6.5097085E-4,-1.1196424E0,3.4776905E1,3.0678772E1,6.8793945E1,2.7317563E-1,1.9996315E1,1.9466037E-2,2.623E1,-2.4437815E-1,-2.6849998E1,2.8595572E2,6.071432E1,3.269538E1,3.41072E1,7.1177637E-6,-9.190678E-4,4.0484103E-4,6.036316E-5,3.10846E-4,2.7505548E-3,-7.612442E-4,2.90971E-4,-2.1248476E-5,-1.4721162E-3,-1.3513543E-4,4.4757957E-4,-9.579884E-5,-3.7584387E-4,-2.6824637E-3,-6.246845E-4,1.1391389E-4,-8.446308E-5,1.6022085E-3,3.3831166E-5,-4.60019E-4,9.86589E-5,4.9565965E-4,1.6961434E-4,1.7043218E-4,3.852309E-6,-1.5465266E-4,3.5096452E-4,5.702803E-5,9.0875966E-4,1.4107357E-4,9.850119E-4,-2.3200411E-4,-1.2924884E-3,-5.267458E-4,5.384083E-4,8.923369E-6,7.156013E-5,-7.0440135E-4,-5.2229087E-5,8.1865967E-4,8.985415E-5,1.633553E-5,-3.1864636E-6,9.535639E-4,1.7432719E-4,-6.260653E-5,3.4052058E-4,2.7297103E-5,-5.6582043E-4,1.3161361E-3,-1.341068E-4],"split_indices":[8,11,5,11,11,10,10,10,0,11,11,14,14,11,12,11,11,12,10,10,11,12,7,8,12,10,6,14,0,10,14,11,11,10,11,10,12,10,0,12,12,11,0,12,11,7,11,12,5,10,0,15,14,0,11,1,8,0,0,0,0,0,0,0,0,0,0,0,0,0,0,0,0,0,0,0,0,0,0,0,0,0,0,0,0,0,0,0,0,0,0,0,0,0,0,0,0,0,0,0,0,0,0,0,0,0,0,0,0],"split_type":[0,0,0,0,0,0,0,0,0,0,0,0,0,0,0,0,0,0,0,0,0,0,0,0,0,0,0,0,0,0,0,0,0,0,0,0,0,0,0,0,0,0,0,0,0,0,0,0,0,0,0,0,0,0,0,0,0,0,0,0,0,0,0,0,0,0,0,0,0,0,0,0,0,0,0,0,0,0,0,0,0,0,0,0,0,0,0,0,0,0,0,0,0,0,0,0,0,0,0,0,0,0,0,0,0,0,0,0,0],"sum_hessian":[1.18914E5,4.62E2,1.18452E5,1.36E2,3.26E2,1.0672E4,1.0778E5,1.35E2,1E0,6.2E1,2.64E2,8.073E3,2.599E3,1.07349E5,4.31E2,7E1,6.5E1,4.2E1,2E1,3E0,2.61E2,8.3E1,7.99E3,2.584E3,1.5E1,2.81E3,1.04539E5,2.02E2,2.29E2,5E0,6.5E1,4.8E1,1.7E1,1.1E1,3.1E1,1.1E1,9E0,2E0,1E0,1.2E1,2.49E2,8.2E1,1E0,7.969E3,2.1E1,2.561E3,2.3E1,8E0,7E0,2.763E3,4.7E1,1.8E1,1.04521E5,5E0,1.97E2,8.9E1,1.4E2,1E0,4E0,6E0,5.9E1,2.7E1,2.1E1,7E0,1E1,8E0,3E0,9E0,2.2E1,7E0,4E0,6E0,3E0,1E0,1E0,2E0,1E1,1.9E1,2.3E2,1E1,7.2E1,5E1,7.919E3,3E0,1.8E1,2.555E3,6E0,1.1E1,1.2E1,1E0,7E0,2E0,5E0,1.852E3,9.11E2,7E0,4E1,3E0,1.5E1,1.913E3,1.02608E5,4E0,1E0,1.75E2,2.2E1,3.4E1,5.5E1,4E0,1.36E2],"tree_param":{"num_deleted":"0","num_feature":"16","num_nodes":"109","size_leaf_vector":"1"}},{"base_weights":[-1.12881835E-5,2.050799E-2,-9.482262E-5,6.842033E-2,1.0318282E-3,2.0415063E-3,-2.4727418E-4,5.2890476E-2,7.5481033E-1,-4.169168E-2,1.0981635E-2,3.5096765E-2,1.7745337E-3,-5.85765E-2,-2.398664E-4,2.2833743E-3,1.2387792E-1,-1.6630809E-4,1.1488463E-2,7.4203024E-3,-1.3802056E-1,1.2757719E-1,9.252056E-3,6.906367E-2,2.2064121E-2,1.1910604E-3,1.3082883E-2,-3.977046E-2,-9.5648965E-4,-2.12882E-4,-1.2357188E-2,-6.454197E-2,6.5930285E-3,1.957452E-1,2.4057996E-2,1.587799E-2,-1.3969415E-2,-1.6004437E-1,5.48117E-2,1.9535702E-3,2.5222402E-3,-2.8418578E-2,1.062829E-2,8.125297E-2,-6.298255E-4,3.5835527E-2,-3.2473627E-2,1.4296478E-3,-1.3725737E-2,2.3135853E-3,1.1905831E-2,-6.0396874E-4,1.1424976E-2,2.0795239E-3,-3.025991E-4,3.244536E-2,-2.1520669E-2,2.0947892E-4,-9.1151416E-4,1.0258309E-4,-2.2240018E-4,2.918196E-3,-5.4407865E-4,-6.980365E-4,1.4986406E-3,1.6926939E-5,5.8222294E-4,-2.059306E-5,-5.298334E-4,-9.2361204E-4,-2.5002398E-3,7.970921E-4,2.5083411E-5,1.1334432E-4,-8.404077E-5,5.777992E-5,-8.115793E-4,1.3501458E-3,8.70339E-5,4.0353907E-4,1.0857957E-3,1.1592751E-3,2.8165762E-4,-4.547537E-4,1.3022235E-4,5.072239E-6,4.7212307E-5,-2.7075873E-4,-1.8529876E-5,1.3816204E-4,-4.8148705E-4,1.8392648E-5,1.4007125E-4,1.9796707E-5,8.434193E-4,2.4762598E-4,-3.1183185E-6,6.934782E-4,9.3755545E-5,-1.9241926E-4,-1.6778229E-3],"categories":[],"categories_nodes":[],"categories_segments":[],"categories_sizes":[],"default_left":[0,0,0,0,0,0,0,0,0,0,0,0,0,0,0,0,0,0,0,0,0,0,0,0,0,0,0,0,0,0,0,0,0,0,0,0,0,0,0,0,0,0,0,0,0,0,0,0,0,0,0,0,0,0,0,0,0,0,0,0,0,0,0,0,0,0,0,0,0,0,0,0,0,0,0,0,0,0,0,0,0,0,0,0,0,0,0,0,0,0,0,0,0,0,0,0,0,0,0,0,0],"id":3,"left_children":[1,3,5,7,9,11,13,15,17,19,21,23,25,27,29,31,33,-1,-1,35,37,39,41,43,45,47,49,51,-1,53,55,57,59,61,63,65,67,69,71,73,-1,75,77,79,-1,81,83,85,87,-1,89,-1,91,93,95,97,99,-1,-1,-1,-1,-1,-1,-1,-1,-1,-1,-1,-1,-1,-1,-1,-1,-1,-1,-1,-1,-1,-1,-1,-1,-1,-1,-1,-1,-1,-1,-1,-1,-1,-1,-1,-1,-1,-1,-1,-1,-1,-1,-1,-1],"loss_changes":[2.0334508E-1,4.487739E-1,3.848103E-2,1.4417534E0,1.4626393E-1,6.93893E-2,4.7638167E-2,4.918854E-1,9.310328E-1,3.085328E-1,5.5083137E-2,2.6364923E-2,5.150254E-2,5.9566014E-3,3.6053285E-2,2.3753053E-2,4.041965E-1,0E0,0E0,8.181738E-3,1.02204114E-1,6.2141605E-2,1.461087E-2,3.2479875E-2,3.646359E-2,2.6448466E-2,9.56466E-2,1.2305792E-2,0E0,2.2629462E-2,1.0128233E-1,1.3283618E-2,8.3655985E-3,8.089762E-1,3.056702E-1,1.9122776E-2,5.9314724E-3,9.870958E-2,3.7067318E-3,3.8674645E-4,0E0,1.850398E-2,6.275302E-2,1.3500512E-2,0E0,2.0077702E-2,6.507445E-3,2.2192482E-2,1.8494654E-2,0E0,4.4490796E-2,0E0,7.32441E-5,3.3872463E-2,2.4511233E-2,3.5105802E-2,6.476316E-2,0E0,0E0,0E0,0E0,0E0,0E0,0E0,0E0,0E0,0E0,0E0,0E0,0E0,0E0,0E0,0E0,0E0,0E0,0E0,0E0,0E0,0E0,0E0,0E0,0E0,0E0,0E0,0E0,0E0,0E0,0E0,0E0,0E0,0E0,0E0,0E0,0E0,0E0,0E0,0E0,0E0,0E0,0E0,0E0],"parents":[2147483647,0,0,1,1,2,2,3,3,4,4,5,5,6,6,7,7,8,8,9,9,10,10,11,11,12,12,13,13,14,14,15,15,16,16,19,19,20,20,21,21,22,22,23,23,24,24,25,25,26,26,27,27,29,29,30,30,31,31,32,32,33,33,34,34,35,35,36,36,37,37,38,38,39,39,41,41,42,42,43,43,45,45,46,46,47,47,48,48,50,50,52,52,53,53,54,54,55,55,56,56],"right_children":[2,4,6,8,10,12,14,16,18,20,22,24,26,28,30,32,34,-1,-1,36,38,40,42,44,46,48,50,52,-1,54,56,58,60,62,64,66,68,70,72,74,-1,76,78,80,-1,82,84,86,88,-1,90,-1,92,94,96,98,100,-1,-1,-1,-1,-1,-1,-1,-1,-1,-1,-1,-1,-1,-1,-1,-1,-1,-1,-1,-1,-1,-1,-1,-1,-1,-1,-1,-1,-1,-1,-1,-1,-1,-1,-1,-1,-1,-1,-1,-1,-1,-1,-1,-1],"split_conditions":[1.8334401E0,4.791517E1,1.9952621E1,4.773164E1,5.3498924E1,-7.114258E0,1.8244225E1,8.941491E-2,1.5738923E-2,1.1064956E-1,5.369607E1,-5.1690216E0,1.8551674E0,6.474466E1,1.1064956E-1,2.2573822E1,0E0,-1.6630809E-4,1.1488463E-2,5.2093014E1,9.922028E-3,2.2053692E-2,5.4572273E1,-7.411804E0,2.1058992E1,1.7220268E0,4.842E0,2.149887E0,-9.5648965E-4,2.3296858E1,-9.409996E0,5.913375E-2,8.603141E-2,4.2910885E1,0E0,7.2044656E-2,7.0132546E-2,5.2093014E1,5.0112614E1,1.900445E-2,2.5222402E-3,2.8318616E-2,5.4736374E1,2.71035E1,-6.298255E-4,-3.5883906E-1,-1.980198E-1,4.0813576E-2,1.755E1,2.3135853E-3,1.9996315E1,-6.0396874E-4,2.1842495E1,1.06526285E-1,1.9474865E1,-7.114258E0,8.795012E1,2.0947892E-4,-9.1151416E-4,1.0258309E-4,-2.2240018E-4,2.918196E-3,-5.4407865E-4,-6.980365E-4,1.4986406E-3,1.6926939E-5,5.8222294E-4,-2.059306E-5,-5.298334E-4,-9.2361204E-4,-2.5002398E-3,7.970921E-4,2.5083411E-5,1.1334432E-4,-8.404077E-5,5.777992E-5,-8.115793E-4,1.3501458E-3,8.70339E-5,4.0353907E-4,1.0857957E-3,1.1592751E-3,2.8165762E-4,-4.547537E-4,1.3022235E-4,5.072239E-6,4.7212307E-5,-2.7075873E-4,-1.8529876E-5,1.3816204E-4,-4.8148705E-4,1.8392648E-5,1.4007125E-4,1.9796707E-5,8.434193E-4,2.4762598E-4,-3.1183185E-6,6.934782E-4,9.3755545E-5,-1.9241926E-4,-1.6778229E-3],"split_indices":[8,11,3,11,11,14,0,9,9,9,11,13,14,11,9,11,13,0,0,11,13,9,11,14,5,13,1,14,0,11,13,10,10,11,14,9,10,11,11,9,0,9,11,8,0,15,15,10,0,0,5,0,1,10,0,14,11,0,0,0,0,0,0,0,0,0,0,0,0,0,0,0,0,0,0,0,0,0,0,0,0,0,0,0,0,0,0,0,0,0,0,0,0,0,0,0,0,0,0,0,0],"split_type":[0,0,0,0,0,0,0,0,0,0,0,0,0,0,0,0,0,0,0,0,0,0,0,0,0,0,0,0,0,0,0,0,0,0,0,0,0,0,0,0,0,0,0,0,0,0,0,0,0,0,0,0,0,0,0,0,0,0,0,0,0,0,0,0,0,0,0,0,0,0,0,0,0,0,0,0,0,0,0,0,0,0,0,0,0,0,0,0,0,0,0,0,0,0,0,0,0,0,0,0,0],"sum_hessian":[1.18631E5,4.8E2,1.18151E5,1.38E2,3.42E2,7.869E3,1.10282E5,1.36E2,2E0,6.4E1,2.78E2,6.2E1,7.807E3,1.3E1,1.10269E5,8E1,5.6E1,1E0,1E0,4.3E1,2.1E1,3E0,2.75E2,1.6E1,4.6E1,7.425E3,3.82E2,1E1,3E0,1.10025E5,2.44E2,4E0,7.6E1,3.2E1,2.4E1,3.1E1,1.2E1,1.9E1,2E0,2E0,1E0,9E0,2.66E2,1.5E1,1E0,3.7E1,9E0,7.309E3,1.16E2,1E0,3.81E2,7E0,3E0,4.143E3,1.05882E5,4.1E1,2.03E2,1E0,3E0,6.8E1,8E0,2.3E1,9E0,1.4E1,1E1,2.4E1,7E0,1E1,2E0,1.2E1,7E0,1E0,1E0,1E0,1E0,6E0,3E0,3E0,2.63E2,7E0,8E0,2E0,3.5E1,7E0,2E0,5.71E3,1.599E3,5.4E1,6.2E1,3.7E2,1.1E1,1E0,2E0,4.139E3,4E0,3.8E1,1.05844E5,1.5E1,2.6E1,2.01E2,2E0],"tree_param":{"num_deleted":"0","num_feature":"16","num_nodes":"101","size_leaf_vector":"1"}},{"base_weights":[3.2321892E-5,2.58842E-2,-6.675782E-5,5.964086E-3,7.884931E-2,2.2582447E-3,-2.332735E-4,3.1077364E-3,2.6091736E-2,1.4134867E-1,4.017854E-2,1.2740904E-1,2.163052E-3,-2.0132033E-4,-1.5041517E-2,4.7791496E-2,1.999336E-3,3.2235163E-3,1.0626448E-2,2.0166151E-1,1.1888725E-2,-1.9852538E-2,6.1221197E-2,1.473434E-3,1.386859E-4,1.4846561E-3,1.575589E-2,-3.5258472E-2,-1.9400718E-4,-3.3917684E-2,6.861104E-3,5.437475E-4,4.1459756E-5,-7.5705107E-3,5.3303232E-3,-1.2387447E-3,2.0965299E-2,6.923277E-2,2.6773214E-1,5.8571626E-2,-4.211563E-2,-1.7226884E-3,-3.6182785E-3,1.0175062E-1,3.88671E-2,9.717486E-4,9.194753E-3,2.3020173E-3,1.4570164E-2,-7.814645E-2,-2.1057404E-3,6.283447E-4,-3.341606E-4,-3.9214715E-3,-5.1866394E-2,-3.7457533E-3,3.0992685E-2,2.023719E-5,-5.730934E-4,6.251489E-5,-4.4133145E-4,1.0569196E-3,7.888869E-5,-6.5473473E-4,2.1485125E-3,1.3746938E-5,3.1204866E-3,1.0604728E-3,3.9381254E-4,2.580035E-4,-5.550367E-4,1.7303145E-3,-4.497008E-4,8.0688775E-4,2.509629E-3,4.5333678E-4,-1.417239E-4,-2.2238847E-4,1.0904191E-5,1.1454794E-4,-1.4108875E-4,6.305365E-4,1.16610834E-4,-9.280588E-4,-1.3005802E-4,-1.6158474E-4,5.4807105E-4,1.7139251E-5,-5.4187117E-6,1.160453E-4,-3.4417496E-6,4.8907683E-4,-2.6450498E-4,-1.0600003E-3,-4.3511426E-4,3.5681378E-4,-1.7956512E-4,9.854505E-4,1.2997712E-4],"categories":[],"categories_nodes":[],"categories_segments":[],"categories_sizes":[],"default_left":[0,0,0,0,0,0,0,0,0,0,0,0,0,0,0,0,0,0,0,0,0,0,0,0,0,0,0,0,0,0,0,0,0,0,0,0,0,0,0,0,0,0,0,0,0,0,0,0,0,0,0,0,0,0,0,0,0,0,0,0,0,0,0,0,0,0,0,0,0,0,0,0,0,0,0,0,0,0,0,0,0,0,0,0,0,0,0,0,0,0,0,0,0,0,0,0,0,0,0],"id":4,"left_children":[1,3,5,7,9,11,13,15,17,19,21,23,25,27,29,31,33,-1,35,37,39,41,43,-1,-1,45,47,49,51,53,55,-1,-1,57,59,-1,61,63,65,67,69,-1,71,73,75,77,79,-1,81,83,85,87,89,91,93,95,97,-1,-1,-1,-1,-1,-1,-1,-1,-1,-1,-1,-1,-1,-1,-1,-1,-1,-1,-1,-1,-1,-1,-1,-1,-1,-1,-1,-1,-1,-1,-1,-1,-1,-1,-1,-1,-1,-1,-1,-1,-1,-1],"loss_changes":[3.0457997E-1,4.7853196E-1,4.5861468E-2,1.8948637E-2,2.9401624E-1,9.404292E-2,5.2302178E-2,1.4316948E-2,1.8442607E-1,3.6458302E-1,9.974603E-2,1.15367025E-2,7.293574E-2,2.8272944E-2,9.863085E-2,1.7858725E-3,9.12531E-3,0E0,5.822047E-2,2.6145303E-1,4.280406E-2,5.1338367E-2,4.859318E-2,0E0,0E0,2.9796634E-2,9.2253014E-2,3.253808E-2,1.2710923E-2,6.871094E-2,2.852768E-2,0E0,0E0,3.5429206E-2,9.935472E-3,0E0,4.1267253E-2,2.4945569E-1,2.4745584E-1,4.0234067E-3,8.706112E-3,0E0,1.5387692E-1,4.260382E-2,1.4018871E-2,1.9492444E-2,2.4915185E-2,0E0,5.2155614E-2,8.342233E-3,1.2082535E-2,2.0401694E-2,1.1269388E-2,5.961292E-2,3.1570584E-2,4.434329E-2,4.0049642E-2,0E0,0E0,0E0,0E0,0E0,0E0,0E0,0E0,0E0,0E0,0E0,0E0,0E0,0E0,0E0,0E0,0E0,0E0,0E0,0E0,0E0,0E0,0E0,0E0,0E0,0E0,0E0,0E0,0E0,0E0,0E0,0E0,0E0,0E0,0E0,0E0,0E0,0E0,0E0,0E0,0E0,0E0],"parents":[2147483647,0,0,1,1,2,2,3,3,4,4,5,5,6,6,7,7,8,8,9,9,10,10,11,11,12,12,13,13,14,14,15,15,16,16,18,18,19,19,20,20,21,21,22,22,25,25,26,26,27,27,28,28,29,29,30,30,33,33,34,34,36,36,37,37,38,38,39,39,40,40,42,42,43,43,44,44,45,45,46,46,48,48,49,49,50,50,51,51,52,52,53,53,54,54,55,55,56,56],"right_children":[2,4,6,8,10,12,14,16,18,20,22,24,26,28,30,32,34,-1,36,38,40,42,44,-1,-1,46,48,50,52,54,56,-1,-1,58,60,-1,62,64,66,68,70,-1,72,74,76,78,80,-1,82,84,86,88,90,92,94,96,98,-1,-1,-1,-1,-1,-1,-1,-1,-1,-1,-1,-1,-1,-1,-1,-1,-1,-1,-1,-1,-1,-1,-1,-1,-1,-1,-1,-1,-1,-1,-1,-1,-1,-1,-1,-1,-1,-1,-1,-1,-1,-1],"split_conditions":[1.8334401E0,1.1064956E-1,1.9952621E1,8.941491E-2,0E0,-3.579481E0,1.1064956E-1,-1.800003E-1,-2.5000095E-2,0E0,0E0,7.753E7,1.8551674E0,1.8322E1,1.4433E7,4.0813576E-2,7.038858E-4,3.2235163E-3,-2.999878E-2,-9.999752E-3,7.038858E-4,-1.03290845E-2,7.038858E-4,1.473434E-3,1.386859E-4,2.2053022E1,4.393E0,-2.4437815E-1,-1.576224E0,-1.7330627E0,1.0735001E1,5.437475E-4,4.1459756E-5,5.913375E-2,4.2000008E-1,-1.2387447E-3,-1.0000229E-2,-3.4699172E-3,1.06526285E-1,-1.03290845E-2,-8.7631226E-2,-1.7226884E-3,-1.0000229E-2,1.8886566E-2,1.500001E-1,-1.9020581E0,2.1058992E1,2.3020173E-3,-5.809909E-1,2.9E2,3.1399994E0,-5.669945E0,1.4706959E1,6.526829E-1,1.957214E1,-7.114258E0,1.2899994E1,2.023719E-5,-5.730934E-4,6.251489E-5,-4.4133145E-4,1.0569196E-3,7.888869E-5,-6.5473473E-4,2.1485125E-3,1.3746938E-5,3.1204866E-3,1.0604728E-3,3.9381254E-4,2.580035E-4,-5.550367E-4,1.7303145E-3,-4.497008E-4,8.0688775E-4,2.509629E-3,4.5333678E-4,-1.417239E-4,-2.2238847E-4,1.0904191E-5,1.1454794E-4,-1.4108875E-4,6.305365E-4,1.16610834E-4,-9.280588E-4,-1.3005802E-4,-1.6158474E-4,5.4807105E-4,1.7139251E-5,-5.4187117E-6,1.160453E-4,-3.4417496E-6,4.8907683E-4,-2.6450498E-4,-1.0600003E-3,-4.3511426E-4,3.5681378E-4,-1.7956512E-4,9.854505E-4,1.2997712E-4],"split_indices":[8,9,3,9,13,12,9,14,13,14,14,4,14,5,4,10,12,0,14,13,12,12,12,0,0,8,3,15,12,13,13,0,0,10,13,0,14,12,10,12,13,0,14,14,14,12,5,0,12,4,14,14,8,12,6,14,13,0,0,0,0,0,0,0,0,0,0,0,0,0,0,0,0,0,0,0,0,0,0,0,0,0,0,0,0,0,0,0,0,0,0,0,0,0,0,0,0,0,0],"split_type":[0,0,0,0,0,0,0,0,0,0,0,0,0,0,0,0,0,0,0,0,0,0,0,0,0,0,0,0,0,0,0,0,0,0,0,0,0,0,0,0,0,0,0,0,0,0,0,0,0,0,0,0,0,0,0,0,0,0,0,0,0,0,0,0,0,0,0,0,0,0,0,0,0,0,0,0,0,0,0,0,0,0,0,0,0,0,0,0,0,0,0,0,0,0,0,0,0,0,0],"sum_hessian":[1.1891E5,4.53E2,1.18457E5,3.3E2,1.23E2,7.916E3,1.10541E5,2.9E2,4E1,4.6E1,7.7E1,5E0,7.911E3,1.10304E5,2.37E2,6E0,2.84E2,1E0,3.9E1,3.1E1,1.5E1,2E1,5.7E1,4E0,1E0,7.536E3,3.75E2,2.2E1,1.10282E5,1.27E2,1.1E2,5E0,1E0,7.3E1,2.11E2,2E0,3.7E1,1.1E1,2E1,8E0,7E0,1E0,1.9E1,1.9E1,3.8E1,7.067E3,4.69E2,1E0,3.74E2,9E0,1.3E1,1.6058E4,9.4224E4,4.8E1,7.9E1,7.7E1,3.3E1,6.2E1,1.1E1,2.08E2,3E0,4E0,3.3E1,6E0,5E0,3E0,1.7E1,1E0,7E0,1E0,6E0,3E0,1.6E1,1.8E1,1E0,3.4E1,4E0,3.5E1,7.032E3,4.28E2,4.1E1,2E1,3.54E2,7E0,2E0,1.1E1,2E0,8.33E3,7.728E3,7.8E1,9.4146E4,1.4E1,3.4E1,9E0,7E1,2E1,5.7E1,6E0,2.7E1],"tree_param":{"num_deleted":"0","num_feature":"16","num_nodes":"99","size_leaf_vector":"1"}},{"base_weights":[-5.4087574E-5,1.9242642E-2,-1.307391E-4,6.826645E-2,-1.3403476E-3,2.3829704E-3,-2.332684E-4,5.2217055E-2,1.1415417E-2,-5.8632817E-2,9.999315E-3,4.701669E-4,6.5036365E-3,1.4164839E-3,-3.498405E-4,2.327376E-3,1.151544E-1,-1.2415972E-3,-1.384275E-1,-9.192664E-3,1.3550157E-2,-1.7467197E-3,9.71873E-4,9.4072055E-3,2.529948E-3,1.2477591E-3,1.8812967E-2,-6.0490128E-2,-3.407737E-4,-5.1833272E-2,1.01430155E-2,1.6363387E-1,7.5898073E-3,1.5497441E-2,-7.2179874E-3,-2.133788E-1,-1.9652907E-2,1.1617706E-2,-2.1499222E-2,2.413285E-2,6.815155E-3,-1.3571667E-3,-9.747217E-3,-7.951718E-3,1.111744E-3,1.0605865E-2,-1.5100823E-2,1.1659392E-2,-1.9534633E-3,1.1662949E-3,7.670075E-2,-4.264185E-2,2.8269082E-2,-3.772416E-2,-1.0303044E-3,2.4226334E-2,-3.5095625E-4,-1.6109388E-4,-1.2981921E-3,1.4163225E-4,-1.4992544E-4,5.177914E-4,3.2508026E-3,7.914522E-4,-9.693219E-5,-1.2216953E-4,2.516112E-4,-1.7588545E-4,5.482494E-5,-1.1215928E-3,-3.7314205E-3,1.863448E-3,-1.3455831E-3,2.7554643E-5,5.205635E-4,-5.113296E-6,-5.388857E-4,-2.8026225E-5,4.1814297E-4,8.6619635E-5,-2.2054614E-4,-1.123689E-5,-8.312038E-5,2.3075883E-5,-1.1350218E-4,-2.7111656E-4,5.9512262E-5,1.7392618E-5,-3.290077E-6,3.173159E-4,9.174263E-5,2.712748E-5,-3.702367E-4,1.02059304E-4,1.5408271E-3,-2.6648722E-5,5.7341886E-4,8.553355E-4,1.1320407E-5,2.2962072E-3,-1.2542713E-4,-5.8309676E-4,1.3352981E-4,8.452588E-5,9.1118354E-4,1.1128467E-4,-4.860753E-4,-1.9689825E-4,3.3066954E-4,-1.443582E-4,-3.2529138E-6],"categories":[],"categories_nodes":[],"categories_segments":[],"categories_sizes":[],"default_left":[0,0,0,0,0,0,0,0,0,0,0,0,0,0,0,0,0,0,0,0,0,0,0,0,0,0,0,0,0,0,0,0,0,0,0,0,0,0,0,0,0,0,0,0,0,0,0,0,0,0,0,0,0,0,0,0,0,0,0,0,0,0,0,0,0,0,0,0,0,0,0,0,0,0,0,0,0,0,0,0,0,0,0,0,0,0,0,0,0,0,0,0,0,0,0,0,0,0,0,0,0,0,0,0,0,0,0,0,0,0,0],"id":5,"left_children":[1,3,5,7,9,11,13,15,-1,17,19,21,23,25,27,29,31,33,35,37,39,41,43,45,47,49,51,53,55,57,59,61,63,65,67,69,71,73,75,77,79,81,83,85,87,89,91,93,95,97,99,101,103,105,-1,107,109,-1,-1,-1,-1,-1,-1,-1,-1,-1,-1,-1,-1,-1,-1,-1,-1,-1,-1,-1,-1,-1,-1,-1,-1,-1,-1,-1,-1,-1,-1,-1,-1,-1,-1,-1,-1,-1,-1,-1,-1,-1,-1,-1,-1,-1,-1,-1,-1,-1,-1,-1,-1,-1,-1],"loss_changes":[1.7570616E-1,4.7434813E-1,3.0495038E-2,2.3347259E0,2.1627915E-1,3.6545888E-2,2.1863645E-2,4.3304145E-1,0E0,2.5170138E-1,1.9069618E-2,3.525228E-3,1.693688E-2,2.199948E-2,5.787828E-2,3.3543155E-2,3.1685323E-1,3.413148E-3,2.0055968E-1,1.1518349E-2,1.658503E-2,1.8099931E-3,3.234064E-3,2.5101036E-2,2.548189E-2,4.559294E-2,4.304636E-2,1.16088055E-2,2.656677E-2,2.5768302E-2,7.184808E-3,7.416264E-1,2.5501054E-2,2.7177988E-3,3.3892053E-3,1.8454486E-1,2.6177675E-1,5.94897E-3,1.9006401E-2,4.345668E-2,7.921991E-3,8.9836796E-4,5.479357E-4,1.08165275E-2,2.3015006E-3,2.4206236E-2,1.5721407E-2,4.0863823E-2,1.7785402E-2,2.1360852E-2,1.1205694E-1,9.551784E-3,7.769331E-2,6.921103E-3,0E0,1.7733907E-2,3.835765E-2,0E0,0E0,0E0,0E0,0E0,0E0,0E0,0E0,0E0,0E0,0E0,0E0,0E0,0E0,0E0,0E0,0E0,0E0,0E0,0E0,0E0,0E0,0E0,0E0,0E0,0E0,0E0,0E0,0E0,0E0,0E0,0E0,0E0,0E0,0E0,0E0,0E0,0E0,0E0,0E0,0E0,0E0,0E0,0E0,0E0,0E0,0E0,0E0,0E0,0E0,0E0,0E0,0E0,0E0],"parents":[2147483647,0,0,1,1,2,2,3,3,4,4,5,5,6,6,7,7,9,9,10,10,11,11,12,12,13,13,14,14,15,15,16,16,17,17,18,18,19,19,20,20,21,21,22,22,23,23,24,24,25,25,26,26,27,27,28,28,29,29,30,30,31,31,32,32,33,33,34,34,35,35,36,36,37,37,38,38,39,39,40,40,41,41,42,42,43,43,44,44,45,45,46,46,47,47,48,48,49,49,50,50,51,51,52,52,53,53,55,55,56,56],"right_children":[2,4,6,8,10,12,14,16,-1,18,20,22,24,26,28,30,32,34,36,38,40,42,44,46,48,50,52,54,56,58,60,62,64,66,68,70,72,74,76,78,80,82,84,86,88,90,92,94,96,98,100,102,104,106,-1,108,110,-1,-1,-1,-1,-1,-1,-1,-1,-1,-1,-1,-1,-1,-1,-1,-1,-1,-1,-1,-1,-1,-1,-1,-1,-1,-1,-1,-1,-1,-1,-1,-1,-1,-1,-1,-1,-1,-1,-1,-1,-1,-1,-1,-1,-1,-1,-1,-1,-1,-1,-1,-1,-1,-1],"split_conditions":[1.8334401E0,4.791517E1,2.3296858E1,4.773164E1,7.038858E-4,2.1232532E-2,1.9952621E1,7.924958E-2,1.1415417E-2,1.1064956E-1,5.5842255E1,7.858774E-3,-3.7112427E0,2.2772911E2,1.8244225E1,2.9632072E1,4.3710217E1,2.4680583E-2,5.31674E1,5.1004166E1,4.173708E-2,2.0326413E-1,-2.3376587E1,7.2044656E-2,2.0494534E1,4.970787E0,-6.675606E-1,6.474466E1,1.9474865E1,5.1783256E-2,3.878784E-2,3.5815247E1,-9.999752E-3,4.9405163E1,3.2186665E-2,5.2093014E1,5.4736374E1,1.1064956E-1,7.2044656E-2,6.431623E1,1.1064956E-1,7.7872337E-3,-8.365997E0,1.4353932E1,2.0953331E1,3.70508E1,-5.2177234E0,2.1842495E1,9.020355E0,-3.9953198E0,7.801193E1,1.2843385E1,7.924958E-2,1.7585442E1,-1.0303044E-3,1.7792349E1,1.9054905E1,-1.6109388E-4,-1.2981921E-3,1.4163225E-4,-1.4992544E-4,5.177914E-4,3.2508026E-3,7.914522E-4,-9.693219E-5,-1.2216953E-4,2.516112E-4,-1.7588545E-4,5.482494E-5,-1.1215928E-3,-3.7314205E-3,1.863448E-3,-1.3455831E-3,2.7554643E-5,5.205635E-4,-5.113296E-6,-5.388857E-4,-2.8026225E-5,4.1814297E-4,8.6619635E-5,-2.2054614E-4,-1.123689E-5,-8.312038E-5,2.3075883E-5,-1.1350218E-4,-2.7111656E-4,5.9512262E-5,1.7392618E-5,-3.290077E-6,3.173159E-4,9.174263E-5,2.712748E-5,-3.702367E-4,1.02059304E-4,1.5408271E-3,-2.6648722E-5,5.7341886E-4,8.553355E-4,1.1320407E-5,2.2962072E-3,-1.2542713E-4,-5.8309676E-4,1.3352981E-4,8.452588E-5,9.1118354E-4,1.1128467E-4,-4.860753E-4,-1.9689825E-4,3.3066954E-4,-1.443582E-4,-3.2529138E-6],"split_indices":[8,11,11,11,12,9,3,9,0,9,11,9,13,8,0,11,11,9,11,11,12,12,12,9,5,13,13,11,0,9,13,11,13,11,9,11,11,9,9,11,9,9,13,11,11,8,12,1,13,12,11,0,9,5,0,7,7,0,0,0,0,0,0,0,0,0,0,0,0,0,0,0,0,0,0,0,0,0,0,0,0,0,0,0,0,0,0,0,0,0,0,0,0,0,0,0,0,0,0,0,0,0,0,0,0,0,0,0,0,0,0],"split_type":[0,0,0,0,0,0,0,0,0,0,0,0,0,0,0,0,0,0,0,0,0,0,0,0,0,0,0,0,0,0,0,0,0,0,0,0,0,0,0,0,0,0,0,0,0,0,0,0,0,0,0,0,0,0,0,0,0,0,0,0,0,0,0,0,0,0,0,0,0,0,0,0,0,0,0,0,0,0,0,0,0,0,0,0,0,0,0,0,0,0,0,0,0,0,0,0,0,0,0,0,0,0,0,0,0,0,0,0,0,0,0],"sum_hessian":[1.18788E5,4.69E2,1.18319E5,1.38E2,3.31E2,4.636E3,1.13683E5,1.37E2,1E0,5.4E1,2.77E2,3.167E3,1.469E3,7.502E3,1.06181E5,7.7E1,6E1,3.2E1,2.2E1,4.3E1,2.34E2,5.84E2,2.583E3,8.48E2,6.21E2,7.431E3,7.1E1,1.5E1,1.06166E5,9E0,6.8E1,4.1E1,1.9E1,8E0,2.4E1,1.3E1,9E0,1.6E1,2.7E1,9E1,1.44E2,5.58E2,2.6E1,3.9E1,2.544E3,8.09E2,3.9E1,2.04E2,4.17E2,7.424E3,7E0,9E0,6.2E1,1.1E1,4E0,4.3E1,1.06123E5,7E0,2E0,5.9E1,9E0,2.5E1,1.6E1,3E0,1.6E1,2E0,6E0,1.3E1,1.1E1,9E0,4E0,3E0,6E0,1.4E1,2E0,1.7E1,1E1,3.6E1,5.4E1,1.36E2,8E0,5.41E2,1.7E1,3E0,2.3E1,1.6E1,2.3E1,1.772E3,7.72E2,5E1,7.59E2,2.2E1,1.7E1,2.03E2,1E0,4.13E2,4E0,2E0,7.422E3,2E0,5E0,7E0,2E0,4.8E1,1.4E1,2E0,9E0,7E0,3.6E1,1.92E2,1.05931E5],"tree_param":{"num_deleted":"0","num_feature":"16","num_nodes":"111","size_leaf_vector":"1"}},{"base_weights":[1.2449994E-5,2.0377638E-2,-7.051315E-5,4.8940415E-3,4.6328485E-2,1.9245284E-3,-2.3316128E-4,4.376434E-2,3.8269588E-3,9.5522135E-2,2.0935642E-2,2.056274E-3,-8.2022056E-2,-2.2972845E-2,-2.1651847E-4,5.0740433E-4,1.5224036E-4,-5.29699E-3,8.0989795E-3,1.3196853E-1,1.42086E-2,-2.2116218E-2,3.1928983E-2,1.8608792E-3,2.7424494E-2,-1.698963E-2,-1.2867267E-1,1.3944705E-2,-6.625391E-2,1.0650888E-1,-2.2042163E-4,7.513271E-4,-3.7604768E-2,5.07012E-3,1.8260542E-2,6.8461604E-2,1.7674616E-1,-8.41372E-4,2.3812968E-4,2.8665386E-2,-4.345714E-2,4.1685514E-2,4.0581105E-3,2.1484263E-2,1.6361425E-3,5.9861494E-3,7.51205E-2,-3.9366063E-2,5.8634486E-4,-1.51934E-3,1.7078334E-4,9.193796E-3,7.5809204E-4,-2.0131098E-2,-8.758762E-2,1.04244304E-4,1.973811E-3,2.849687E-3,-2.727172E-4,-1.2684273E-4,3.0438394E-5,-1.6037122E-3,-6.381372E-5,6.123674E-5,-5.105353E-4,5.1939925E-5,4.2435701E-4,1.6840433E-3,2.073889E-4,-3.07106E-4,2.1977304E-3,-2.9251538E-4,5.284629E-4,-1.950404E-4,-1.5672129E-3,2.2797841E-4,1.2419992E-3,-4.0958665E-4,1.6726802E-4,2.9349697E-4,-2.5043183E-4,1.3146011E-5,1.437952E-4,1.953508E-4,-3.1994443E-4,3.0095738E-3,3.5508335E-4,4.7252335E-5,-6.259302E-4,-1.3050804E-5,1.507484E-4,-6.393271E-5,-6.379276E-4,2.8838484E-5,-1.049576E-3,1.6777554E-4,9.960437E-6,-1.3595862E-4,-2.6204655E-6],"categories":[],"categories_nodes":[],"categories_segments":[],"categories_sizes":[],"default_left":[0,0,0,0,0,0,0,0,0,0,0,0,0,0,0,0,0,0,0,0,0,0,0,0,0,0,0,0,0,0,0,0,0,0,0,0,0,0,0,0,0,0,0,0,0,0,0,0,0,0,0,0,0,0,0,0,0,0,0,0,0,0,0,0,0,0,0,0,0,0,0,0,0,0,0,0,0,0,0,0,0,0,0,0,0,0,0,0,0,0,0,0,0,0,0,0,0,0,0],"id":6,"left_children":[1,3,5,7,9,11,13,15,17,19,21,23,25,27,29,-1,-1,31,33,35,37,39,41,43,45,47,49,51,53,55,57,59,61,63,65,67,69,-1,-1,71,73,75,77,79,81,83,85,87,-1,-1,-1,89,-1,91,93,-1,-1,95,97,-1,-1,-1,-1,-1,-1,-1,-1,-1,-1,-1,-1,-1,-1,-1,-1,-1,-1,-1,-1,-1,-1,-1,-1,-1,-1,-1,-1,-1,-1,-1,-1,-1,-1,-1,-1,-1,-1,-1,-1],"loss_changes":[2.0071946E-1,1.9344684E-1,3.8393427E-2,1.2400294E-2,2.2285023E-1,9.880929E-2,4.1397683E-2,8.203238E-4,1.15803E-2,1.7890358E-1,5.75002E-2,4.4094402E-2,4.0287137E-2,1.2875035E-1,4.5562863E-2,0E0,0E0,1.8591983E-2,6.1245617E-3,1.0733467E-1,2.0894542E-2,2.8338876E-2,2.5935449E-2,3.8945686E-2,6.908191E-2,1.4153594E-2,2.9717684E-2,1.2235182E-2,3.464368E-2,3.2868046E-2,1.7552126E-2,2.5335124E-3,5.6474395E-2,9.595934E-3,1.431034E-2,8.712871E-2,2.2097856E-1,0E0,0E0,1.2749704E-2,4.5777805E-2,1.0782238E-1,1.5513004E-2,3.733087E-2,3.5793453E-2,2.5325643E-2,1.7717713E-1,6.4404067E-3,0E0,0E0,0E0,2.6129377E-3,0E0,7.3897685E-3,3.9589882E-2,0E0,0E0,4.725476E-2,1.5277686E-2,0E0,0E0,0E0,0E0,0E0,0E0,0E0,0E0,0E0,0E0,0E0,0E0,0E0,0E0,0E0,0E0,0E0,0E0,0E0,0E0,0E0,0E0,0E0,0E0,0E0,0E0,0E0,0E0,0E0,0E0,0E0,0E0,0E0,0E0,0E0,0E0,0E0,0E0,0E0,0E0],"parents":[2147483647,0,0,1,1,2,2,3,3,4,4,5,5,6,6,7,7,8,8,9,9,10,10,11,11,12,12,13,13,14,14,17,17,18,18,19,19,20,20,21,21,22,22,23,23,24,24,25,25,26,26,27,27,28,28,29,29,30,30,31,31,32,32,33,33,34,34,35,35,36,36,39,39,40,40,41,41,42,42,43,43,44,44,45,45,46,46,47,47,51,51,53,53,54,54,57,57,58,58],"right_children":[2,4,6,8,10,12,14,16,18,20,22,24,26,28,30,-1,-1,32,34,36,38,40,42,44,46,48,50,52,54,56,58,60,62,64,66,68,70,-1,-1,72,74,76,78,80,82,84,86,88,-1,-1,-1,90,-1,92,94,-1,-1,96,98,-1,-1,-1,-1,-1,-1,-1,-1,-1,-1,-1,-1,-1,-1,-1,-1,-1,-1,-1,-1,-1,-1,-1,-1,-1,-1,-1,-1,-1,-1,-1,-1,-1,-1,-1,-1,-1,-1,-1,-1],"split_conditions":[1.8334401E0,8.603141E-2,2.1058992E1,-1.800003E-1,0E0,6.350006E0,1.9054905E1,-1.05854034E-1,0E0,0E0,0E0,2.2772911E2,1.70182E1,6.5548345E-2,2.0061E1,5.0740433E-4,1.5224036E-4,5.913375E-2,5.6296606E-2,-9.999752E-3,-5.431366E-2,-1.0000229E-2,5.9999943E-2,-5.8900146E0,8.6999893E-1,1.9996315E1,2.0061E1,6.235798E-2,1.9008942E0,2.303E1,-2.2E1,-1.2730408E-1,-9.999752E-3,4.2000008E-1,6.9999695E-2,1.06526285E-1,1.06526285E-1,-8.41372E-4,2.3812968E-4,-2.999878E-2,9.922028E-3,1.8886566E-2,3.878784E-2,3.272727E-1,2.9863281E0,8.500004E-2,4.39E0,6.8960266E0,5.8634486E-4,-1.51934E-3,1.7078334E-4,2.0519001E1,7.5809204E-4,4.0148575E1,1.6943735E1,1.04244304E-4,1.973811E-3,1.8390665E2,1.9597372E1,-1.2684273E-4,3.0438394E-5,-1.6037122E-3,-6.381372E-5,6.123674E-5,-5.105353E-4,5.1939925E-5,4.2435701E-4,1.6840433E-3,2.073889E-4,-3.07106E-4,2.1977304E-3,-2.9251538E-4,5.284629E-4,-1.950404E-4,-1.5672129E-3,2.2797841E-4,1.2419992E-3,-4.0958665E-4,1.6726802E-4,2.9349697E-4,-2.5043183E-4,1.3146011E-5,1.437952E-4,1.953508E-4,-3.1994443E-4,3.0095738E-3,3.5508335E-4,4.7252335E-5,-6.259302E-4,-1.3050804E-5,1.507484E-4,-6.393271E-5,-6.379276E-4,2.8838484E-5,-1.049576E-3,1.6777554E-4,9.960437E-6,-1.3595862E-4,-2.6204655E-6],"split_indices":[8,10,5,14,13,13,7,13,14,14,14,8,8,10,6,0,0,10,10,13,13,14,14,14,13,5,6,10,14,1,13,14,13,13,13,10,10,0,0,14,13,14,13,15,14,13,0,14,0,0,0,6,0,5,7,0,0,5,2,0,0,0,0,0,0,0,0,0,0,0,0,0,0,0,0,0,0,0,0,0,0,0,0,0,0,0,0,0,0,0,0,0,0,0,0,0,0,0,0],"split_type":[0,0,0,0,0,0,0,0,0,0,0,0,0,0,0,0,0,0,0,0,0,0,0,0,0,0,0,0,0,0,0,0,0,0,0,0,0,0,0,0,0,0,0,0,0,0,0,0,0,0,0,0,0,0,0,0,0,0,0,0,0,0,0,0,0,0,0,0,0,0,0,0,0,0,0,0,0,0,0,0,0,0,0,0,0,0,0,0,0,0,0,0,0,0,0,0,0,0,0],"sum_hessian":[1.18798E5,4.81E2,1.18317E5,3.02E2,1.79E2,8.918E3,1.09399E5,7E0,2.95E2,6E1,1.19E2,8.905E3,1.3E1,7.9E1,1.0932E5,5E0,2E0,9.4E1,2.01E2,4.1E1,1.9E1,2.4E1,9.5E1,8.838E3,6.7E1,6E0,7E0,4.3E1,3.6E1,3E0,1.09317E5,8E1,1.4E1,1.56E2,4.5E1,1.8E1,2.3E1,1E0,1.8E1,7E0,1.7E1,7E1,2.5E1,9.9E1,8.739E3,4.7E1,2E1,5E0,1E0,6E0,1E0,4.1E1,2E0,1.2E1,2.4E1,2E0,1E0,1.83E3,1.07487E5,1.1E1,6.9E1,2E0,1.2E1,1.54E2,2E0,3E1,1.5E1,5E0,1.3E1,4E0,1.9E1,2E0,5E0,1.5E1,2E0,5.8E1,1.2E1,5E0,2E1,8.5E1,1.4E1,8.525E3,2.14E2,3.5E1,1.2E1,2E0,1.8E1,2E0,3E0,1.5E1,2.6E1,1E1,2E0,4E0,2E1,2.14E2,1.616E3,8.5E1,1.07402E5],"tree_param":{"num_deleted":"0","num_feature":"16","num_nodes":"99","size_leaf_vector":"1"}},{"base_weights":[-5.2083633E-5,2.0325124E-2,-1.3323022E-4,6.272051E-2,3.2814995E-3,1.6923929E-3,-2.4714906E-4,4.693558E-2,7.41612E-1,-3.1897333E-2,1.1328718E-2,1.6080837E-3,4.65379E-2,1.2681839E-3,-3.516434E-4,2.343221E-3,1.04557715E-1,-2.2317239E-4,1.1347352E-2,6.849443E-4,-1.0738708E-1,6.383841E-2,8.0537805E-3,3.499694E-3,3.381534E-5,1.2039986E-2,1.211482E-3,4.5164116E-2,1.1700114E-3,-6.395147E-2,-3.437004E-4,-5.477706E-2,9.868799E-3,2.0482832E-1,-1.8154027E-2,1.1658374E-2,-2.7223375E-2,-4.545208E-2,-2.7171464E-3,-1.2858584E-5,1.4593473E-1,-5.269955E-2,1.1205955E-2,4.6905567E-4,7.0299087E-3,3.55529E-4,-1.5889317E-2,5.1267666E-4,-1.20958295E-2,-1.962876E-2,6.839747E-2,2.5044996E-4,3.8088982E-3,-7.047673E-2,7.175862E-5,-2.9941997E-4,-9.747962E-3,8.445692E-6,-9.944327E-4,3.47E-5,3.667372E-4,7.0312835E-4,3.525917E-3,1.6484625E-3,-3.93879E-4,4.1447336E-5,3.8974074E-4,9.0519214E-5,-4.4351496E-4,-1.1926667E-3,3.3818837E-5,1.2420413E-4,-5.595615E-4,-3.723162E-6,1.7038129E-3,1.0826939E-4,-1.9834088E-3,4.183185E-5,2.1912408E-4,-1.237371E-5,2.5924399E-5,1.4667286E-4,5.165107E-5,1.9773848E-5,-1.503717E-5,-4.988066E-6,-3.443379E-4,1.5215247E-4,-2.606331E-4,4.4836788E-4,-4.6954345E-4,-1.6019862E-5,9.190862E-4,4.5352936E-6,-8.186659E-5,3.9325365E-5,-1.1252288E-3,-3.382261E-4,-7.8936707E-4,-3.3249626E-6,2.0369971E-5,-8.720605E-7,-2.8659095E-4],"categories":[],"categories_nodes":[],"categories_segments":[],"categories_sizes":[],"default_left":[0,0,0,0,0,0,0,0,0,0,0,0,0,0,0,0,0,0,0,0,0,0,0,0,0,0,0,0,0,0,0,0,0,0,0,0,0,0,0,0,0,0,0,0,0,0,0,0,0,0,0,0,0,0,0,0,0,0,0,0,0,0,0,0,0,0,0,0,0,0,0,0,0,0,0,0,0,0,0,0,0,0,0,0,0,0,0,0,0,0,0,0,0,0,0,0,0,0,0,0,0,0,0],"id":7,"left_children":[1,3,5,7,9,11,13,15,17,19,21,23,25,27,29,31,33,-1,-1,35,37,39,41,43,45,47,-1,49,51,53,55,57,59,61,63,65,67,69,-1,71,73,75,77,79,81,83,85,-1,87,89,91,93,95,97,-1,99,101,-1,-1,-1,-1,-1,-1,-1,-1,-1,-1,-1,-1,-1,-1,-1,-1,-1,-1,-1,-1,-1,-1,-1,-1,-1,-1,-1,-1,-1,-1,-1,-1,-1,-1,-1,-1,-1,-1,-1,-1,-1,-1,-1,-1,-1,-1],"loss_changes":[1.9635242E-1,3.4012514E-1,2.459841E-2,1.4118857E0,9.576328E-2,2.6190978E-2,1.7628692E-2,3.4149948E-1,9.262792E-1,1.550301E-1,4.67765E-2,2.0651631E-2,3.200207E-2,3.089711E-2,5.2590642E-2,3.321018E-2,7.173726E-1,0E0,0E0,1.409863E-2,1.8102492E-1,8.387313E-2,5.038189E-2,3.3697937E-2,1.9400148E-2,1.0088045E-2,0E0,2.5428254E-2,1.739062E-2,6.5393522E-3,4.33619E-2,2.2443654E-2,1.1536056E-2,6.1125493E-1,1.1140969E-1,6.6113956E-3,8.478726E-3,5.4473236E-2,0E0,7.65058E-3,2.510038E-2,1.224245E-1,1.85552E-2,6.1484934E-3,2.0646632E-2,1.1196246E-2,2.1388492E-2,0E0,3.0668282E-3,1.0913076E-2,1.9896451E-2,9.112162E-3,2.7079953E-2,1.0512732E-3,0E0,8.0106715E-3,8.915305E-2,0E0,0E0,0E0,0E0,0E0,0E0,0E0,0E0,0E0,0E0,0E0,0E0,0E0,0E0,0E0,0E0,0E0,0E0,0E0,0E0,0E0,0E0,0E0,0E0,0E0,0E0,0E0,0E0,0E0,0E0,0E0,0E0,0E0,0E0,0E0,0E0,0E0,0E0,0E0,0E0,0E0,0E0,0E0,0E0,0E0,0E0],"parents":[2147483647,0,0,1,1,2,2,3,3,4,4,5,5,6,6,7,7,8,8,9,9,10,10,11,11,12,12,13,13,14,14,15,15,16,16,19,19,20,20,21,21,22,22,23,23,24,24,25,25,27,27,28,28,29,29,30,30,31,31,32,32,33,33,34,34,35,35,36,36,37,37,39,39,40,40,41,41,42,42,43,43,44,44,45,45,46,46,48,48,49,49,50,50,51,51,52,52,53,53,55,55,56,56],"right_children":[2,4,6,8,10,12,14,16,18,20,22,24,26,28,30,32,34,-1,-1,36,38,40,42,44,46,48,-1,50,52,54,56,58,60,62,64,66,68,70,-1,72,74,76,78,80,82,84,86,-1,88,90,92,94,96,98,-1,100,102,-1,-1,-1,-1,-1,-1,-1,-1,-1,-1,-1,-1,-1,-1,-1,-1,-1,-1,-1,-1,-1,-1,-1,-1,-1,-1,-1,-1,-1,-1,-1,-1,-1,-1,-1,-1,-1,-1,-1,-1,-1,-1,-1,-1,-1,-1],"split_conditions":[1.8334401E0,4.791517E1,2.6272972E1,4.773164E1,5.3333347E1,1.06526285E-1,1.9952621E1,7.924958E-2,1.5738923E-2,1.1064956E-1,5.4736374E1,-5.132558E-2,-1.525E-1,-6.731018E0,1.8244225E1,2.9632072E1,0E0,-2.2317239E-4,1.1347352E-2,5.2093014E1,5.2093014E1,1.1064956E-1,5.620786E1,1.746366E-2,6.235798E-2,5.1783256E-2,1.211482E-3,1.70182E1,3.993278E-2,2.9560343E1,8.603141E-2,5.913375E-2,4.8355844E-2,3.4776905E1,2.6769474E1,7.2044656E-2,3.2186665E-2,0E0,-2.7171464E-3,8.603141E-2,5.3498924E1,1.1064956E-1,6.5548345E-2,1.1847707E-2,-1.366333E1,2.1821123E1,3.4401876E-1,5.1267666E-4,-2.1499996E0,1.569E1,1.566E1,1.3500004E0,5.4906006E0,2.0459715E1,7.175862E-5,5.913375E-2,6.2073685E1,8.445692E-6,-9.944327E-4,3.47E-5,3.667372E-4,7.0312835E-4,3.525917E-3,1.6484625E-3,-3.93879E-4,4.1447336E-5,3.8974074E-4,9.0519214E-5,-4.4351496E-4,-1.1926667E-3,3.3818837E-5,1.2420413E-4,-5.595615E-4,-3.723162E-6,1.7038129E-3,1.0826939E-4,-1.9834088E-3,4.183185E-5,2.1912408E-4,-1.237371E-5,2.5924399E-5,1.4667286E-4,5.165107E-5,1.9773848E-5,-1.503717E-5,-4.988066E-6,-3.443379E-4,1.5215247E-4,-2.606331E-4,4.4836788E-4,-4.6954345E-4,-1.6019862E-5,9.190862E-4,4.5352936E-6,-8.186659E-5,3.9325365E-5,-1.1252288E-3,-3.382261E-4,-7.8936707E-4,-3.3249626E-6,2.0369971E-5,-8.720605E-7,-2.8659095E-4],"split_indices":[8,11,11,11,11,10,3,9,9,9,11,15,15,13,0,11,13,0,0,11,11,9,11,9,10,9,0,8,10,8,10,10,9,11,11,9,9,13,0,10,11,9,10,9,13,11,15,0,13,0,3,13,13,3,0,10,11,0,0,0,0,0,0,0,0,0,0,0,0,0,0,0,0,0,0,0,0,0,0,0,0,0,0,0,0,0,0,0,0,0,0,0,0,0,0,0,0,0,0,0,0,0,0],"split_type":[0,0,0,0,0,0,0,0,0,0,0,0,0,0,0,0,0,0,0,0,0,0,0,0,0,0,0,0,0,0,0,0,0,0,0,0,0,0,0,0,0,0,0,0,0,0,0,0,0,0,0,0,0,0,0,0,0,0,0,0,0,0,0,0,0,0,0,0,0,0,0,0,0,0,0,0,0,0,0,0,0,0,0,0,0,0,0,0,0,0,0,0,0,0,0,0,0,0,0,0,0,0,0],"sum_hessian":[1.18744E5,4.7E2,1.18274E5,1.34E2,3.36E2,6.946E3,1.11328E5,1.32E2,2E0,6.2E1,2.74E2,6.934E3,1.2E1,7.181E3,1.04147E5,7.5E1,5.7E1,1E0,1E0,4.4E1,1.8E1,1.5E1,2.59E2,3.149E3,3.785E3,9E0,3E0,1.5E1,7.166E3,1.2E1,1.04135E5,8E0,6.7E1,3.1E1,2.6E1,3.2E1,1.2E1,1.4E1,4E0,9E0,6E0,1.2E1,2.47E2,1.695E3,1.454E3,3.711E3,7.4E1,3E0,6E0,4E0,1.1E1,5.315E3,1.851E3,1.1E1,1E0,1.03648E5,4.87E2,4E0,4E0,5.5E1,1.2E1,1.7E1,1.4E1,2E0,2.4E1,2.6E1,6E0,4E0,8E0,5E0,9E0,8E0,1E0,1E0,5E0,9E0,3E0,1.5E2,9.7E1,9.4E2,7.55E2,2.84E2,1.17E3,1.982E3,1.729E3,4.1E1,3.3E1,2E0,4E0,1E0,3E0,3E0,8E0,5.191E3,1.24E2,1.85E3,1E0,3E0,8E0,1.02202E5,1.446E3,3.23E2,1.64E2],"tree_param":{"num_deleted":"0","num_feature":"16","num_nodes":"103","size_leaf_vector":"1"}},{"base_weights":[-2.7489259E-5,1.643657E-2,-9.1476446E-5,5.7108823E-2,2.9003873E-4,2.1181742E-3,-2.594058E-4,4.0833678E-2,7.379039E-1,-2.1607475E-2,1.5672958E-2,5.0792913E-4,6.9165397E-3,2.1706107E-3,-3.5655632E-4,-7.1331235E-3,9.119783E-2,-2.2205654E-4,1.12906145E-2,1.6269308E-4,-4.954857E-2,3.7912946E-2,4.7711986E-3,3.8367253E-2,4.2319213E-4,6.5974332E-3,7.310966E-2,5.0731716E-3,-1.3908024E-4,-3.2408143E-4,-7.153605E-3,-2.8186578E-2,2.9364143E-2,1.6712758E-1,-2.328402E-2,9.037158E-3,-3.2212574E-2,-6.926745E-2,9.007577E-3,6.6916835E-3,6.89251E-2,-1.2174809E-3,2.4321977E-2,5.8816727E-2,-1.0205148E-2,7.5927004E-3,1.546812E-4,6.901757E-3,-8.5207365E-2,1.3610086E-1,8.432042E-3,6.4866606E-4,9.515873E-3,-2.6703227E-4,4.292751E-2,-2.4533534E-2,-3.1673297E-4,2.9322533E-3,-3.052962E-2,5.892764E-5,-8.065456E-4,-1.9036384E-5,7.645618E-4,3.6105543E-5,2.4245812E-3,-8.9436973E-4,1.6999133E-4,3.984883E-5,4.816434E-4,-7.173897E-4,-4.1309977E-5,1.0255418E-4,-9.849563E-4,1.7100228E-4,-5.619109E-4,1.0521861E-4,-3.5117386E-4,9.930953E-4,-1.9758429E-4,1.5408185E-4,-9.756905E-5,1.7764868E-4,4.8682446E-4,6.375995E-4,7.163859E-5,9.332451E-5,-2.634103E-4,9.438213E-5,-1.7219542E-4,2.576852E-6,-1.701981E-4,6.2222425E-5,5.183393E-4,-1.0095071E-3,4.6263463E-5,3.0735394E-4,1.5475837E-3,-1.327244E-4,3.4560668E-4,2.2235652E-5,-1.2723845E-5,1.0235019E-4,-2.7769143E-4,6.0612383E-6,-6.137774E-5,6.20537E-5,1.3163018E-3,-6.1500364E-4,-1.8588676E-4,6.638271E-5,-3.2928183E-6,-8.205795E-5,2.1196718E-4,-4.8580926E-4,-8.1116574E-5],"categories":[],"categories_nodes":[],"categories_segments":[],"categories_sizes":[],"default_left":[0,0,0,0,0,0,0,0,0,0,0,0,0,0,0,0,0,0,0,0,0,0,0,0,0,0,0,0,0,0,0,0,0,0,0,0,0,0,0,0,0,0,0,0,0,0,0,0,0,0,0,0,0,0,0,0,0,0,0,0,0,0,0,0,0,0,0,0,0,0,0,0,0,0,0,0,0,0,0,0,0,0,0,0,0,0,0,0,0,0,0,0,0,0,0,0,0,0,0,0,0,0,0,0,0,0,0,0,0,0,0,0,0,0,0],"id":8,"left_children":[1,3,5,7,9,11,13,15,17,19,21,23,25,27,29,31,33,-1,-1,35,37,39,41,43,45,47,49,51,53,55,57,59,61,63,65,67,69,71,73,75,77,79,81,83,85,87,89,91,93,95,97,99,101,103,105,107,109,111,113,-1,-1,-1,-1,-1,-1,-1,-1,-1,-1,-1,-1,-1,-1,-1,-1,-1,-1,-1,-1,-1,-1,-1,-1,-1,-1,-1,-1,-1,-1,-1,-1,-1,-1,-1,-1,-1,-1,-1,-1,-1,-1,-1,-1,-1,-1,-1,-1,-1,-1,-1,-1,-1,-1,-1,-1],"loss_changes":[1.2544674E-1,3.0272943E-1,4.401482E-2,1.4213538E0,1.1183524E-1,6.472948E-2,2.6025707E-2,3.122897E-1,9.170394E-1,8.3342746E-2,4.709784E-2,2.0111296E-2,4.398088E-2,2.8412336E-2,2.339587E-2,5.2310042E-2,5.5152375E-1,0E0,0E0,2.2701541E-2,6.990364E-2,6.1506033E-2,1.5484613E-2,1.4506152E-2,1.2051823E-2,5.914689E-2,3.9593607E-2,3.6909223E-2,1.3021656E-2,1.8760715E-2,1.18916176E-1,7.736247E-2,3.695713E-2,4.6720195E-1,7.0806436E-2,1.20643135E-2,1.857303E-2,1.0560402E-1,9.402962E-3,5.6539956E-3,8.818939E-2,1.4631645E-2,4.086923E-3,2.0965524E-3,1.8221082E-3,1.0511357E-2,1.0682319E-2,6.3489445E-2,1.03670135E-2,5.0727203E-3,3.8613537E-3,2.8528136E-3,2.5408342E-2,1.20756235E-2,2.1984648E-2,5.8891904E-3,9.207173E-3,7.19849E-2,6.1116308E-2,0E0,0E0,0E0,0E0,0E0,0E0,0E0,0E0,0E0,0E0,0E0,0E0,0E0,0E0,0E0,0E0,0E0,0E0,0E0,0E0,0E0,0E0,0E0,0E0,0E0,0E0,0E0,0E0,0E0,0E0,0E0,0E0,0E0,0E0,0E0,0E0,0E0,0E0,0E0,0E0,0E0,0E0,0E0,0E0,0E0,0E0,0E0,0E0,0E0,0E0,0E0,0E0,0E0,0E0,0E0,0E0],"parents":[2147483647,0,0,1,1,2,2,3,3,4,4,5,5,6,6,7,7,8,8,9,9,10,10,11,11,12,12,13,13,14,14,15,15,16,16,19,19,20,20,21,21,22,22,23,23,24,24,25,25,26,26,27,27,28,28,29,29,30,30,31,31,32,32,33,33,34,34,35,35,36,36,37,37,38,38,39,39,40,40,41,41,42,42,43,43,44,44,45,45,46,46,47,47,48,48,49,49,50,50,51,51,52,52,53,53,54,54,55,55,56,56,57,57,58,58],"right_children":[2,4,6,8,10,12,14,16,18,20,22,24,26,28,30,32,34,-1,-1,36,38,40,42,44,46,48,50,52,54,56,58,60,62,64,66,68,70,72,74,76,78,80,82,84,86,88,90,92,94,96,98,100,102,104,106,108,110,112,114,-1,-1,-1,-1,-1,-1,-1,-1,-1,-1,-1,-1,-1,-1,-1,-1,-1,-1,-1,-1,-1,-1,-1,-1,-1,-1,-1,-1,-1,-1,-1,-1,-1,-1,-1,-1,-1,-1,-1,-1,-1,-1,-1,-1,-1,-1,-1,-1,-1,-1,-1,-1,-1,-1,-1,-1],"split_conditions":[1.8334401E0,4.791517E1,2.0494534E1,4.773164E1,1.8886566E-2,4.0813576E-2,2.3296858E1,-1.0000229E-2,2.3670308E-2,1.06526285E-1,4.173708E-2,-1.412912E0,2.1201212E0,-4.1192703E0,8.603141E-2,-3.4699172E-3,4.3710217E1,-2.2205654E-4,1.12906145E-2,6.3266335E1,6.3678383E1,4.5327283E-2,2.2999954E-1,3.7149068E-2,-1.9564056E0,6.1099777E0,1.8322E1,1.8573882E-2,9.529999E0,1.89E1,6.2073685E1,5.913375E-2,-2.999878E-2,3.5815247E1,0E0,6.1093708E1,6.558074E1,5.154854E1,8.961806E1,1.662E0,7.674414E1,6.694253E1,6.5548345E-2,1.8864723E1,1.8244225E1,-3.4699172E-3,2.1523895E0,1.2405483E2,5.61167E7,8.603141E-2,1.1317378E1,1.8375E2,2.2478552E0,2.657748E-2,-8.640513E0,3.1060762E1,1.86488E1,9.5982E6,2.39167E7,5.892764E-5,-8.065456E-4,-1.9036384E-5,7.645618E-4,3.6105543E-5,2.4245812E-3,-8.9436973E-4,1.6999133E-4,3.984883E-5,4.816434E-4,-7.173897E-4,-4.1309977E-5,1.0255418E-4,-9.849563E-4,1.7100228E-4,-5.619109E-4,1.0521861E-4,-3.5117386E-4,9.930953E-4,-1.9758429E-4,1.5408185E-4,-9.756905E-5,1.7764868E-4,4.8682446E-4,6.375995E-4,7.163859E-5,9.332451E-5,-2.634103E-4,9.438213E-5,-1.7219542E-4,2.576852E-6,-1.701981E-4,6.2222425E-5,5.183393E-4,-1.0095071E-3,4.6263463E-5,3.0735394E-4,1.5475837E-3,-1.327244E-4,3.4560668E-4,2.2235652E-5,-1.2723845E-5,1.0235019E-4,-2.7769143E-4,6.0612383E-6,-6.137774E-5,6.20537E-5,1.3163018E-3,-6.1500364E-4,-1.8588676E-4,6.638271E-5,-3.2928183E-6,-8.205795E-5,2.1196718E-4,-4.8580926E-4,-8.1116574E-5],"split_indices":[8,11,5,11,14,10,11,14,10,10,12,12,12,13,10,12,11,0,0,11,11,10,14,15,14,13,5,10,13,0,11,10,14,11,14,11,11,11,11,0,11,11,10,3,0,12,13,8,4,10,8,3,15,10,12,11,8,4,4,0,0,0,0,0,0,0,0,0,0,0,0,0,0,0,0,0,0,0,0,0,0,0,0,0,0,0,0,0,0,0,0,0,0,0,0,0,0,0,0,0,0,0,0,0,0,0,0,0,0,0,0,0,0,0,0],"split_type":[0,0,0,0,0,0,0,0,0,0,0,0,0,0,0,0,0,0,0,0,0,0,0,0,0,0,0,0,0,0,0,0,0,0,0,0,0,0,0,0,0,0,0,0,0,0,0,0,0,0,0,0,0,0,0,0,0,0,0,0,0,0,0,0,0,0,0,0,0,0,0,0,0,0,0,0,0,0,0,0,0,0,0,0,0,0,0,0,0,0,0,0,0,0,0,0,0,0,0,0,0,0,0,0,0,0,0,0,0,0,0,0,0,0,0],"sum_hessian":[1.19075E5,4.6E2,1.18615E5,1.3E2,3.3E2,8.377E3,1.10238E5,1.28E2,2E0,1.36E2,1.94E2,6.273E3,2.104E3,4.237E3,1.06001E5,6.6E1,6.2E1,1E0,1E0,7.7E1,5.9E1,6.3E1,1.31E2,1.3E1,6.26E3,2.095E3,9E0,1.877E3,2.36E3,1.05498E5,5.03E2,4.2E1,2.4E1,3.7E1,2.5E1,6.1E1,1.6E1,4.4E1,1.5E1,3.2E1,3.1E1,1.01E2,3E1,9E0,4E0,2.25E2,6.035E3,2.089E3,6E0,4E0,5E0,9.41E2,9.36E2,2.354E3,6E0,3.1E1,1.05467E5,3.52E2,1.51E2,2.6E1,1.6E1,1.5E1,9E0,1.2E1,2.5E1,9E0,1.6E1,5.5E1,6E0,6E0,1E1,1.2E1,3.2E1,1.4E1,1E0,3E1,2E0,2.3E1,8E0,3.4E1,6.7E1,2.5E1,5E0,8E0,1E0,2E0,2E0,2.1E2,1.5E1,6E3,3.5E1,2.059E3,3E1,5E0,1E0,1E0,3E0,3E0,2E0,5.17E2,4.24E2,9.19E2,1.7E1,2.05E3,3.04E2,5E0,1E0,3E0,2.8E1,1.89E2,1.05278E5,2.19E2,1.33E2,8.3E1,6.8E1],"tree_param":{"num_deleted":"0","num_feature":"16","num_nodes":"115","size_leaf_vector":"1"}},{"base_weights":[-6.872529E-5,7.504417E-3,-1.2705913E-4,-9.426404E-2,8.1715705E-3,2.8549016E-3,-2.1049203E-4,1.5669618E-2,-1.5314828E-3,6.206303E-2,6.694196E-3,9.531468E-4,7.909278E-3,1.2745184E-3,-3.0805066E-4,2.0864674E-4,2.6397514E-5,-1.6143688E-3,1.8961963E-1,-9.982121E-2,7.784625E-3,1.0947633E-3,-4.0376388E-2,9.916203E-3,-7.982752E-3,8.3721115E-4,1.2277188E-3,-3.0474933E-2,-2.9628148E-4,1.5692428E-2,-2.3046069E-2,-3.6803526E-3,3.063357E-1,2.8337607E-2,-3.655847E-3,1.9724067E-2,2.2902489E-3,-1.6139743E-3,1.7393245E-3,-9.103826E-4,-8.316053E-3,1.4050464E-2,1.9654864E-3,-1.6968701E-2,3.6359396E-2,5.625506E-4,5.951826E-3,-5.4543648E-2,-1.272164E-3,-2.6123147E-4,-7.824274E-3,-2.8928975E-5,2.8564793E-4,-5.8278017E-4,-1.589084E-5,-5.514682E-5,-1.2306823E-5,3.494129E-3,6.701335E-4,-1.8626151E-5,1.0476947E-3,1.1560098E-4,3.838153E-3,-2.6469943E-4,8.741944E-5,-1.2502891E-5,-1.1355334E-4,1.9373512E-5,-4.101775E-5,-1.2184811E-4,5.5138713E-5,4.3231994E-4,1.3265213E-4,2.4186191E-4,-4.15189E-5,-2.2481025E-4,3.0852747E-4,1.0261107E-3,-9.106166E-5,4.8607085E-6,7.9459645E-4,7.9789426E-4,5.1766925E-5,1.0588191E-4,-7.3224056E-4,1.00492696E-4,-6.877671E-4,-2.999537E-6,3.1474447E-5,7.392725E-6,-2.683459E-4],"categories":[],"categories_nodes":[],"categories_segments":[],"categories_sizes":[],"default_left":[0,0,0,0,0,0,0,0,0,0,0,0,0,0,0,0,0,0,0,0,0,0,0,0,0,0,0,0,0,0,0,0,0,0,0,0,0,0,0,0,0,0,0,0,0,0,0,0,0,0,0,0,0,0,0,0,0,0,0,0,0,0,0,0,0,0,0,0,0,0,0,0,0,0,0,0,0,0,0,0,0,0,0,0,0,0,0,0,0,0,0],"id":9,"left_children":[1,3,5,7,9,11,13,15,-1,17,19,21,23,25,27,-1,-1,29,31,33,35,37,39,41,43,-1,45,47,49,51,53,55,57,59,-1,61,63,65,67,-1,69,71,73,75,77,79,81,83,85,87,89,-1,-1,-1,-1,-1,-1,-1,-1,-1,-1,-1,-1,-1,-1,-1,-1,-1,-1,-1,-1,-1,-1,-1,-1,-1,-1,-1,-1,-1,-1,-1,-1,-1,-1,-1,-1,-1,-1,-1,-1],"loss_changes":[5.2534968E-2,6.248696E-2,2.9360488E-2,4.123993E-2,7.155907E-2,3.08668E-2,1.663182E-2,1.4799519E-4,0E0,1.9524547E-1,1.03103E-1,1.3710823E-2,2.80822E-2,2.720364E-2,3.8236532E-2,0E0,0E0,6.667188E-3,1.8161711E-1,3.1689918E-1,5.722343E-2,4.0673725E-3,1.2236815E-2,2.5611244E-2,4.0064145E-2,0E0,2.2225464E-2,2.9451277E-2,2.8410248E-2,2.475006E-3,5.9551615E-3,1.1187181E-5,2.8131425E-2,1.635296E-2,0E0,8.129811E-1,1.11377046E-1,1.5729722E-3,2.1836888E-3,0E0,3.8821343E-4,1.1181809E-2,3.653031E-2,2.2573011E-2,5.2141286E-2,3.7384436E-2,4.9552217E-2,2.8759174E-2,1.5976122E-2,1.41482055E-2,8.12549E-2,0E0,0E0,0E0,0E0,0E0,0E0,0E0,0E0,0E0,0E0,0E0,0E0,0E0,0E0,0E0,0E0,0E0,0E0,0E0,0E0,0E0,0E0,0E0,0E0,0E0,0E0,0E0,0E0,0E0,0E0,0E0,0E0,0E0,0E0,0E0,0E0,0E0,0E0,0E0,0E0],"parents":[2147483647,0,0,1,1,2,2,3,3,4,4,5,5,6,6,7,7,9,9,10,10,11,11,12,12,13,13,14,14,17,17,18,18,19,19,20,20,21,21,22,22,23,23,24,24,26,26,27,27,28,28,29,29,30,30,31,31,32,32,33,33,35,35,36,36,37,37,38,38,40,40,41,41,42,42,43,43,44,44,45,45,46,46,47,47,48,48,49,49,50,50],"right_children":[2,4,6,8,10,12,14,16,-1,18,20,22,24,26,28,-1,-1,30,32,34,36,38,40,42,44,-1,46,48,50,52,54,56,58,60,-1,62,64,66,68,-1,70,72,74,76,78,80,82,84,86,88,90,-1,-1,-1,-1,-1,-1,-1,-1,-1,-1,-1,-1,-1,-1,-1,-1,-1,-1,-1,-1,-1,-1,-1,-1,-1,-1,-1,-1,-1,-1,-1,-1,-1,-1,-1,-1,-1,-1,-1,-1],"split_conditions":[3.109E0,1.1336679E1,2.0953331E1,5.1783256E-2,2.7247978E1,2.2424908E-2,1.9952621E1,5.913375E-2,-1.5314828E-3,7.924958E-2,2.8095015E1,4.6803545E-2,5.913375E-2,-1.0850006E1,1.8932E1,2.0864674E-4,2.6397514E-5,4.2839225E-2,-1.03290845E-2,-1.03290845E-2,4.8295883E1,7.858774E-3,3.84928E2,-3.1312714E0,8.603141E-2,8.3721115E-4,1.51237E7,2.69E4,8.603141E-2,2.2424908E-2,4.3024316E-2,2.3997244E1,-3.4699172E-3,5.643827E-2,-3.655847E-3,4.773164E1,5.3498924E1,1.2708545E-1,-7.13166E-2,-9.103826E-4,8.6146E6,2.0494534E1,1.4097164E1,-6.0247976E-1,-6.1460967E0,4.8218E0,3.7965E0,5.3922307E-2,8.941491E-2,6.235798E-2,6.2073685E1,-2.8928975E-5,2.8564793E-4,-5.8278017E-4,-1.589084E-5,-5.514682E-5,-1.2306823E-5,3.494129E-3,6.701335E-4,-1.8626151E-5,1.0476947E-3,1.1560098E-4,3.838153E-3,-2.6469943E-4,8.741944E-5,-1.2502891E-5,-1.1355334E-4,1.9373512E-5,-4.101775E-5,-1.2184811E-4,5.5138713E-5,4.3231994E-4,1.3265213E-4,2.4186191E-4,-4.15189E-5,-2.2481025E-4,3.0852747E-4,1.0261107E-3,-9.106166E-5,4.8607085E-6,7.9459645E-4,7.9789426E-4,5.1766925E-5,1.0588191E-4,-7.3224056E-4,1.00492696E-4,-6.877671E-4,-2.999537E-6,3.1474447E-5,7.392725E-6,-2.683459E-4],"split_indices":[6,11,11,9,11,9,3,10,0,9,11,10,10,13,5,0,0,10,12,12,11,9,5,13,10,0,4,4,10,9,9,11,12,9,0,11,11,12,12,0,4,5,5,12,12,13,6,9,9,10,11,0,0,0,0,0,0,0,0,0,0,0,0,0,0,0,0,0,0,0,0,0,0,0,0,0,0,0,0,0,0,0,0,0,0,0,0,0,0,0,0],"split_type":[0,0,0,0,0,0,0,0,0,0,0,0,0,0,0,0,0,0,0,0,0,0,0,0,0,0,0,0,0,0,0,0,0,0,0,0,0,0,0,0,0,0,0,0,0,0,0,0,0,0,0,0,0,0,0,0,0,0,0,0,0,0,0,0,0,0,0,0,0,0,0,0,0,0,0,0,0,0,0,0,0,0,0,0,0,0,0,0,0,0,0],"sum_hessian":[1.18916E5,9.08E2,1.18008E5,5E0,9.03E2,3.211E3,1.14797E5,2E0,3E0,2.3E1,8.8E2,2.334E3,8.77E2,7.076E3,1.07721E5,1E0,1E0,1.6E1,7E0,8E0,8.72E2,2.327E3,7E0,7.79E2,9.8E1,3E0,7.073E3,4.1E1,1.0768E5,9E0,7E0,3E0,4E0,6E0,2E0,2.74E2,5.98E2,4.47E2,1.88E3,2E0,5E0,5.12E2,2.67E2,8.2E1,1.6E1,6.201E3,8.72E2,2.2E1,1.9E1,1.07182E5,4.98E2,4E0,5E0,2E0,5E0,1E0,2E0,3E0,1E0,5E0,1E0,2.69E2,5E0,1.09E2,4.89E2,4.32E2,1.5E1,1.819E3,6.1E1,4E0,1E0,1.2E1,5E2,5.7E1,2.1E2,7.4E1,8E0,6E0,1E1,6.196E3,5E0,8E0,8.64E2,5E0,1.7E1,1.7E1,2E0,1.05979E5,1.203E3,3.44E2,1.54E2],"tree_param":{"num_deleted":"0","num_feature":"16","num_nodes":"91","size_leaf_vector":"1"}},{"base_weights":[1.5576417E-5,1.9084245E-2,-6.134472E-5,5.5574745E-2,-1.6762181E-3,1.9544202E-3,-2.2323812E-4,4.367319E-2,5.474971E-1,-3.7940267E-2,9.897988E-3,8.107647E-2,1.8370332E-3,-1.9878605E-2,-2.0274395E-4,4.466208E-3,1.0693884E-1,-1.766865E-2,1.1214972E-2,-2.943074E-4,-1.1635709E-1,9.17595E-2,8.059368E-3,1.3151519E-1,3.1209356E-4,1.7334652E-3,7.735759E-2,-3.6364153E-3,-5.6435652E-2,2.0248173E-3,-2.9099395E-4,-6.156396E-2,7.6591945E-3,1.6966033E-1,1.7997567E-2,-2.4013701E-4,-2.4892739E-5,4.054201E-3,-5.240283E-2,-2.9780124E-3,-5.293487E-2,-8.682222E-3,2.4676318E-3,-2.1129977E-2,1.3642422E-2,1.3461598E-4,1.4645691E-1,4.099487E-2,-5.403564E-4,1.8148391E-3,-1.0037087E-3,1.3845285E-2,1.3856235E-3,-1.9995227E-2,1.3222278E-2,-2.7292628E-2,-1.3759409E-1,5.123752E-4,5.352494E-3,-2.6620048E-4,-6.073517E-3,2.0760352E-4,-8.733513E-4,2.7339207E-5,3.604352E-4,6.7585305E-4,3.607596E-3,-1.1941531E-3,4.5875352E-4,-2.8780425E-5,3.068453E-4,-1.2623676E-5,-6.902886E-4,1.4903863E-4,-2.0240278E-3,1.10600195E-4,-1.8949642E-4,3.531214E-5,-1.2732525E-3,7.639652E-5,3.5563848E-4,4.0380642E-4,1.5740618E-3,5.232673E-4,3.4996454E-5,6.090075E-6,5.509233E-5,6.3275E-4,-1.8581602E-4,1.9331253E-4,-3.330478E-4,7.576052E-4,-2.3391833E-5,-4.206638E-5,-6.611815E-4,-1.4454369E-3,-4.099863E-4,6.3206908E-6,-3.755401E-4,8.17854E-5,3.821523E-6,-4.229361E-6,1.4760118E-6,2.3871624E-4,-1.03142644E-4],"categories":[],"categories_nodes":[],"categories_segments":[],"categories_sizes":[],"default_left":[0,0,0,0,0,0,0,0,0,0,0,0,0,0,0,0,0,0,0,0,0,0,0,0,0,0,0,0,0,0,0,0,0,0,0,0,0,0,0,0,0,0,0,0,0,0,0,0,0,0,0,0,0,0,0,0,0,0,0,0,0,0,0,0,0,0,0,0,0,0,0,0,0,0,0,0,0,0,0,0,0,0,0,0,0,0,0,0,0,0,0,0,0,0,0,0,0,0,0,0,0,0,0,0,0],"id":10,"left_children":[1,3,5,7,9,11,13,15,17,19,21,23,25,27,29,31,33,35,-1,37,39,41,43,45,47,49,51,53,55,57,59,61,63,65,67,-1,-1,69,71,-1,73,75,-1,77,79,-1,81,83,-1,85,-1,87,-1,89,91,93,95,97,99,101,103,-1,-1,-1,-1,-1,-1,-1,-1,-1,-1,-1,-1,-1,-1,-1,-1,-1,-1,-1,-1,-1,-1,-1,-1,-1,-1,-1,-1,-1,-1,-1,-1,-1,-1,-1,-1,-1,-1,-1,-1,-1,-1,-1,-1],"loss_changes":[1.7414358E-1,3.6144912E-1,3.8589377E-2,9.8894185E-1,1.2839244E-1,8.150104E-2,4.408789E-2,4.211997E-1,1.317436E0,2.1841943E-1,3.417933E-2,5.2916437E-2,6.8530925E-2,6.7484155E-2,2.1495875E-2,2.2819877E-2,3.59551E-1,2.2916513E-4,0E0,1.1768763E-2,2.6041815E-1,7.998665E-2,3.7444443E-2,1.2139842E-2,1.5481285E-2,7.303208E-2,4.472863E-2,2.2327438E-2,7.902677E-2,2.0969424E-2,1.5077764E-2,1.2421075E-2,1.4161121E-2,7.1686363E-1,1.1273968E-1,0E0,0E0,8.949493E-3,3.313912E-3,0E0,1.9567113E-1,1.020391E-3,0E0,9.734899E-2,2.4993446E-2,0E0,1.774028E-3,1.5164372E-3,0E0,3.902975E-2,0E0,1.2395715E-2,0E0,2.2103954E-2,3.9104674E-2,2.3922654E-2,1.1560321E-4,1.3082132E-2,1.8285312E-2,6.792648E-3,5.7264626E-2,0E0,0E0,0E0,0E0,0E0,0E0,0E0,0E0,0E0,0E0,0E0,0E0,0E0,0E0,0E0,0E0,0E0,0E0,0E0,0E0,0E0,0E0,0E0,0E0,0E0,0E0,0E0,0E0,0E0,0E0,0E0,0E0,0E0,0E0,0E0,0E0,0E0,0E0,0E0,0E0,0E0,0E0,0E0,0E0],"parents":[2147483647,0,0,1,1,2,2,3,3,4,4,5,5,6,6,7,7,8,8,9,9,10,10,11,11,12,12,13,13,14,14,15,15,16,16,17,17,19,19,20,20,21,21,22,22,23,23,24,24,25,25,26,26,27,27,28,28,29,29,30,30,31,31,32,32,33,33,34,34,37,37,38,38,40,40,41,41,43,43,44,44,46,46,47,47,49,49,51,51,53,53,54,54,55,55,56,56,57,57,58,58,59,59,60,60],"right_children":[2,4,6,8,10,12,14,16,18,20,22,24,26,28,30,32,34,36,-1,38,40,42,44,46,48,50,52,54,56,58,60,62,64,66,68,-1,-1,70,72,-1,74,76,-1,78,80,-1,82,84,-1,86,-1,88,-1,90,92,94,96,98,100,102,104,-1,-1,-1,-1,-1,-1,-1,-1,-1,-1,-1,-1,-1,-1,-1,-1,-1,-1,-1,-1,-1,-1,-1,-1,-1,-1,-1,-1,-1,-1,-1,-1,-1,-1,-1,-1,-1,-1,-1,-1,-1,-1,-1,-1],"split_conditions":[1.641E0,4.791517E1,2.101703E1,4.773164E1,5.3498924E1,-3.579481E0,1.9054905E1,8.941491E-2,7.924958E-2,1.06526285E-1,5.369607E1,2.5212095E1,2.1201212E0,8.603141E-2,2.3296858E1,2.2573822E1,4.1709076E1,1.5738923E-2,1.1214972E-2,5.3000404E1,-3.4699172E-3,7.924958E-2,7.038858E-4,-6.774827E0,1.9597372E1,2.484E1,5.15363E7,2.356E1,6.831142E1,2.063714E-2,8.603141E-2,5.913375E-2,7.2044656E-2,-3.4699172E-3,4.351633E1,-2.4013701E-4,-2.4892739E-5,7.2044656E-2,2.6992815E-2,-2.9780124E-3,5.24616E1,1.900445E-2,2.4676318E-3,1.1064956E-1,1.1064956E-1,1.3461598E-4,2.47E4,1.4087E7,-5.403564E-4,4.0813576E-2,-1.0037087E-3,1.8932E1,1.3856235E-3,2.148E1,2.721025E1,1.3175026E0,2.1906E1,4.6803545E-2,1.3150372E-1,7.7598E6,2.399612E1,2.0760352E-4,-8.733513E-4,2.7339207E-5,3.604352E-4,6.7585305E-4,3.607596E-3,-1.1941531E-3,4.5875352E-4,-2.8780425E-5,3.068453E-4,-1.2623676E-5,-6.902886E-4,1.4903863E-4,-2.0240278E-3,1.10600195E-4,-1.8949642E-4,3.531214E-5,-1.2732525E-3,7.639652E-5,3.5563848E-4,4.0380642E-4,1.5740618E-3,5.232673E-4,3.4996454E-5,6.090075E-6,5.509233E-5,6.3275E-4,-1.8581602E-4,1.9331253E-4,-3.330478E-4,7.576052E-4,-2.3391833E-5,-4.206638E-5,-6.611815E-4,-1.4454369E-3,-4.099863E-4,6.3206908E-6,-3.755401E-4,8.17854E-5,3.821523E-6,-4.229361E-6,1.4760118E-6,2.3871624E-4,-1.03142644E-4],"split_indices":[2,11,0,11,11,12,7,9,9,10,11,11,12,10,11,11,11,9,0,11,12,9,12,12,2,1,4,0,11,9,10,10,9,12,11,0,0,9,9,0,11,9,0,9,9,0,4,4,0,10,0,5,0,0,1,12,5,10,15,4,6,0,0,0,0,0,0,0,0,0,0,0,0,0,0,0,0,0,0,0,0,0,0,0,0,0,0,0,0,0,0,0,0,0,0,0,0,0,0,0,0,0,0,0,0],"split_type":[0,0,0,0,0,0,0,0,0,0,0,0,0,0,0,0,0,0,0,0,0,0,0,0,0,0,0,0,0,0,0,0,0,0,0,0,0,0,0,0,0,0,0,0,0,0,0,0,0,0,0,0,0,0,0,0,0,0,0,0,0,0,0,0,0,0,0,0,0,0,0,0,0,0,0,0,0,0,0,0,0,0,0,0,0,0,0,0,0,0,0,0,0,0,0,0,0,0,0,0,0,0,0,0,0],"sum_hessian":[1.18723E5,4.76E2,1.18247E5,1.72E2,3.04E2,8.79E3,1.09457E5,1.69E2,3E0,7.3E1,2.31E2,1.2E1,8.778E3,1.13E2,1.09344E5,1.05E2,6.4E1,2E0,1E0,5E1,2.3E1,4E0,2.27E2,7E0,5E0,8.767E3,1.1E1,7.9E1,3.4E1,4.166E3,1.05178E5,4E0,1.01E2,3.7E1,2.7E1,1E0,1E0,4.7E1,3E0,5E0,1.8E1,3E0,1E0,3.6E1,1.91E2,1E0,6E0,3E0,2E0,8.761E3,6E0,6E0,5E0,4E1,3.9E1,2.6E1,8E0,2.865E3,1.301E3,1.0473E5,4.48E2,1E0,3E0,8.7E1,1.4E1,2.5E1,1.2E1,4E0,2.3E1,3.8E1,9E0,1E0,2E0,1.3E1,5E0,1E0,2E0,3E1,6E0,1.51E2,4E1,1E0,5E0,2E0,1E0,6.606E3,2.155E3,2E0,4E0,1E1,3E1,7E0,3.2E1,1.7E1,9E0,7E0,1E0,2.857E3,8E0,8.29E2,4.72E2,7.5959E4,2.8771E4,5.5E1,3.93E2],"tree_param":{"num_deleted":"0","num_feature":"16","num_nodes":"105","size_leaf_vector":"1"}},{"base_weights":[-2.1285994E-5,9.504474E-3,-9.7818775E-5,3.790858E-3,3.1012384E-2,1.9471153E-3,-2.351064E-4,3.244614E-3,8.420453E-2,1.3763879E-1,1.4094212E-2,1.281123E-3,1.8614664E-3,-6.592696E-2,-2.249601E-4,2.4091087E-3,1.2382841E-2,1.550098E-1,-1.4668919E-2,2.1443225E-2,1.6981642E-1,1.1528856E-2,2.2638503E-3,5.1320496E-4,5.7308283E-3,-9.2352537E-4,-5.0691973E-2,-1.914591E-4,-7.408484E-3,1.4169721E-2,1.8083252E-3,2.2507276E-2,-7.149465E-4,2.157765E-3,1.6738208E-4,1.1004701E-4,-3.300808E-4,1.6816711E-3,-7.087975E-4,2.0019922E-1,-9.360284E-3,-1.3153729E-2,2.1268025E-2,6.632207E-4,-2.4268582E-2,5.850718E-3,-1.1150895E-3,1.189461E-2,-6.3152675E-4,1.5855393E-3,-2.766832E-4,-4.8226297E-2,-4.12054E-3,4.0673147E-4,5.4698306E-5,-3.8232047E-5,3.3336655E-5,1.5356747E-4,4.8915565E-4,1.3926832E-5,-2.8810475E-4,2.393617E-3,1.213259E-3,-9.08874E-6,-1.7357255E-4,-1.0172835E-3,1.2166132E-4,7.589223E-4,1.5225538E-4,2.7076203E-6,1.3801419E-4,-1.3851724E-4,-3.4470763E-4,5.252316E-5,3.8678708E-4,1.4973209E-4,2.8687044E-5,5.397848E-5,-2.1369149E-6,1.4490676E-4,-2.8247305E-6,-7.1295694E-4,1.4880004E-4,1.9093926E-4,-8.2578124E-5],"categories":[],"categories_nodes":[],"categories_segments":[],"categories_sizes":[],"default_left":[0,0,0,0,0,0,0,0,0,0,0,0,0,0,0,0,0,0,0,0,0,0,0,0,0,0,0,0,0,0,0,0,0,0,0,0,0,0,0,0,0,0,0,0,0,0,0,0,0,0,0,0,0,0,0,0,0,0,0,0,0,0,0,0,0,0,0,0,0,0,0,0,0,0,0,0,0,0,0,0,0,0,0,0,0],"id":11,"left_children":[1,3,5,7,9,11,13,15,17,19,21,-1,23,25,27,29,31,33,35,37,39,41,-1,43,45,-1,47,49,51,53,55,57,59,-1,-1,-1,-1,-1,-1,61,63,65,67,69,71,73,-1,75,-1,77,79,81,83,-1,-1,-1,-1,-1,-1,-1,-1,-1,-1,-1,-1,-1,-1,-1,-1,-1,-1,-1,-1,-1,-1,-1,-1,-1,-1,-1,-1,-1,-1,-1,-1],"loss_changes":[8.634685E-2,1.1588865E-1,3.298677E-2,3.253912E-2,3.55237E-1,7.963868E-2,7.337341E-2,5.6430027E-3,3.727764E-2,9.7308874E-2,9.1061495E-2,0E0,3.8539603E-2,2.1625534E-3,2.649207E-2,4.7931033E-3,8.237768E-3,2.159521E-2,1.775742E-3,1.0674155E-1,1.1619562E-1,4.1386083E-2,0E0,2.0388862E-2,2.7484909E-2,0E0,1.0889523E-2,1.6595418E-2,6.83809E-2,7.3865624E-3,5.596246E-3,5.857978E-3,1.6981431E-3,0E0,0E0,0E0,0E0,0E0,0E0,2.6558936E-2,2.5456722E-4,1.11129805E-1,3.944262E-2,2.8087238E-2,3.029583E-3,3.7278198E-2,0E0,4.040776E-5,0E0,3.4400165E-2,8.944498E-3,5.6382187E-2,4.5682807E-2,0E0,0E0,0E0,0E0,0E0,0E0,0E0,0E0,0E0,0E0,0E0,0E0,0E0,0E0,0E0,0E0,0E0,0E0,0E0,0E0,0E0,0E0,0E0,0E0,0E0,0E0,0E0,0E0,0E0,0E0,0E0,0E0],"parents":[2147483647,0,0,1,1,2,2,3,3,4,4,5,5,6,6,7,7,8,8,9,9,10,10,12,12,13,13,14,14,15,15,16,16,17,17,18,18,19,19,20,20,21,21,23,23,24,24,26,26,27,27,28,28,29,29,30,30,31,31,32,32,39,39,40,40,41,41,42,42,43,43,44,44,45,45,47,47,49,49,50,50,51,51,52,52],"right_children":[2,4,6,8,10,12,14,16,18,20,22,-1,24,26,28,30,32,34,36,38,40,42,-1,44,46,-1,48,50,52,54,56,58,60,-1,-1,-1,-1,-1,-1,62,64,66,68,70,72,74,-1,76,-1,78,80,82,84,-1,-1,-1,-1,-1,-1,-1,-1,-1,-1,-1,-1,-1,-1,-1,-1,-1,-1,-1,-1,-1,-1,-1,-1,-1,-1,-1,-1,-1,-1,-1,-1],"split_conditions":[3.151E0,8.603141E-2,1.9952621E1,5.4632E6,-1.0000229E-2,-3.579481E0,1.8244225E1,2.9E2,7.802691E-2,-1.03290845E-2,4.1436E0,1.281123E-3,4.0813576E-2,1.6943735E1,8.603141E-2,-1.800003E-1,5.0782256E-2,5.6423E6,3.07E0,1.06526285E-1,3.2363515E-2,0E0,2.2638503E-3,2.148E1,8.054123E0,-9.2352537E-4,1.7585442E1,-1.4992844E1,1.9054905E1,1.8334401E0,-2.999878E-2,-1.03290845E-2,2.2999954E-1,2.157765E-3,1.6738208E-4,1.1004701E-4,-3.300808E-4,1.6816711E-3,-7.087975E-4,-3.4699172E-3,4.173708E-2,-3.4699172E-3,-3.4699172E-3,2.11595E1,2.6665E6,2.8505209E1,-1.1150895E-3,1.671E1,-6.3152675E-4,1.9018387E2,1.9474865E1,3.169E1,2.399612E1,4.0673147E-4,5.4698306E-5,-3.8232047E-5,3.3336655E-5,1.5356747E-4,4.8915565E-4,1.3926832E-5,-2.8810475E-4,2.393617E-3,1.213259E-3,-9.08874E-6,-1.7357255E-4,-1.0172835E-3,1.2166132E-4,7.589223E-4,1.5225538E-4,2.7076203E-6,1.3801419E-4,-1.3851724E-4,-3.4470763E-4,5.252316E-5,3.8678708E-4,1.4973209E-4,2.8687044E-5,5.397848E-5,-2.1369149E-6,1.4490676E-4,-2.8247305E-6,-7.1295694E-4,1.4880004E-4,1.9093926E-4,-8.2578124E-5],"split_indices":[7,10,3,4,14,12,0,4,12,12,5,0,10,7,10,14,12,4,0,10,12,14,0,5,14,0,5,14,7,8,14,12,14,0,0,0,0,0,0,12,12,12,12,7,4,8,0,0,0,0,0,0,6,0,0,0,0,0,0,0,0,0,0,0,0,0,0,0,0,0,0,0,0,0,0,0,0,0,0,0,0,0,0,0,0],"split_type":[0,0,0,0,0,0,0,0,0,0,0,0,0,0,0,0,0,0,0,0,0,0,0,0,0,0,0,0,0,0,0,0,0,0,0,0,0,0,0,0,0,0,0,0,0,0,0,0,0,0,0,0,0,0,0,0,0,0,0,0,0,0,0,0,0,0,0,0,0,0,0,0,0,0,0,0,0,0,0,0,0,0,0,0,0],"sum_hessian":[1.18438E5,9.43E2,1.17495E5,7.46E2,1.97E2,7.391E3,1.10104E5,7.42E2,4E0,2.6E1,1.71E2,4E0,7.387E3,1.6E1,1.10088E5,6.81E2,6.1E1,2E0,2E0,6E0,2E1,1.7E2,1E0,5.479E3,1.908E3,4E0,1.2E1,1.09578E5,5.1E2,3.2E1,6.49E2,3.4E1,2.7E1,1E0,1E0,1E0,1E0,2E0,4E0,1.7E1,3E0,4.8E1,1.22E2,5.447E3,3.2E1,1.907E3,1E0,2E0,1E1,5.014E3,1.04564E5,3.7E1,4.73E2,7E0,2.5E1,1.38E2,5.11E2,2.8E1,6E0,2.6E1,1E0,1E1,7E0,2E0,1E0,1E1,3.8E1,1.1E1,1.11E2,5.29E3,1.57E2,1.7E1,1.5E1,1.874E3,3.3E1,1E0,1E0,1.607E3,3.407E3,4E1,1.04524E5,2.7E1,1E1,7.1E1,4.02E2],"tree_param":{"num_deleted":"0","num_feature":"16","num_nodes":"85","size_leaf_vector":"1"}},{"base_weights":[1.9126554E-5,2.1769669E-2,-6.5173765E-5,1.980452E-3,5.5715777E-2,1.9542433E-3,-2.1025406E-4,3.457461E-3,-6.875372E-2,1.2971254E-1,1.984154E-2,1.1805211E-1,1.8515404E-3,-1.7146194E-4,-1.7453756E-2,5.0207287E-2,2.104572E-3,-1.1628495E-3,-3.5990484E-2,1.4650144E-1,2.7624616E-2,3.5945814E-2,1.2637947E-2,1.3347622E-3,1.2753729E-4,2.2603393E-2,1.610496E-3,-6.034334E-2,-1.6436413E-4,-3.1149738E-2,8.2497215E-3,9.464148E-5,5.4675713E-4,-1.8067079E-3,8.221309E-3,-5.4704194E-4,-1.7636005E-2,3.2389767E-2,1.6241072E-1,5.0496604E-2,-1.3589522E-2,1.12945475E-2,4.8316278E-2,-1.2221021E-2,2.9983092E-2,1.7739823E-2,7.084544E-2,1.3696471E-3,2.0243317E-2,-9.379707E-4,-3.5053115E-2,2.2044268E-2,-1.7202113E-4,-5.0573596E-3,-4.4149097E-2,1.5234598E-3,1.2897839E-3,8.7146245E-6,-2.3277938E-4,5.0854007E-5,2.753397E-4,-3.2555475E-4,-1.8110224E-5,1.6704599E-3,-5.488192E-4,2.099457E-3,1.2691185E-3,6.750411E-4,-1.7270468E-4,-6.4851035E-4,2.5114662E-4,3.921789E-4,2.6523136E-5,1.6855355E-4,6.102697E-4,-3.530596E-4,-3.760041E-5,7.390626E-4,7.778428E-5,3.363764E-4,9.619145E-5,9.853164E-4,-8.142094E-5,1.4514206E-5,-2.7395092E-4,1.2527963E-3,9.747988E-5,-4.7929338E-4,6.675777E-5,3.3951065E-4,-3.5535998E-4,-1.2744189E-4,-1.6208596E-6,-1.7105757E-4,9.6188864E-4,-5.814398E-4,2.9055533E-4,3.2901458E-4,-6.6321016E-5],"categories":[],"categories_nodes":[],"categories_segments":[],"categories_sizes":[],"default_left":[0,0,0,0,0,0,0,0,0,0,0,0,0,0,0,0,0,0,0,0,0,0,0,0,0,0,0,0,0,0,0,0,0,0,0,0,0,0,0,0,0,0,0,0,0,0,0,0,0,0,0,0,0,0,0,0,0,0,0,0,0,0,0,0,0,0,0,0,0,0,0,0,0,0,0,0,0,0,0,0,0,0,0,0,0,0,0,0,0,0,0,0,0,0,0,0,0,0,0],"id":12,"left_children":[1,3,5,7,9,11,13,15,17,19,21,23,25,27,29,31,33,-1,35,37,39,41,43,-1,-1,45,47,49,51,53,55,-1,-1,57,59,-1,61,63,65,67,69,71,73,75,77,79,81,83,85,-1,87,89,91,93,95,-1,97,-1,-1,-1,-1,-1,-1,-1,-1,-1,-1,-1,-1,-1,-1,-1,-1,-1,-1,-1,-1,-1,-1,-1,-1,-1,-1,-1,-1,-1,-1,-1,-1,-1,-1,-1,-1,-1,-1,-1,-1,-1,-1],"loss_changes":[2.1798812E-1,3.082307E-1,3.4697164E-2,3.0639939E-2,4.460498E-1,9.443085E-2,7.3905766E-2,1.7983072E-2,5.158512E-3,9.0220034E-2,1.2886718E-2,9.666622E-3,3.9640397E-2,4.7074035E-2,8.7561496E-2,9.390041E-4,6.6897245E-3,0E0,7.5263856E-4,8.006489E-2,9.170069E-3,1.0127459E-2,3.52922E-2,0E0,0E0,2.0094406E-2,3.5164762E-2,7.7108033E-3,1.874892E-2,5.472456E-2,8.70559E-2,0E0,0E0,9.853404E-3,6.461316E-3,0E0,8.8544283E-4,9.142954E-2,4.254031E-2,8.081121E-3,9.564852E-3,3.0331425E-3,8.168843E-3,6.508168E-3,4.6239488E-2,1.052092E-2,1.829717E-2,1.8252788E-2,1.0901783E-1,0E0,5.155761E-3,2.7259158E-2,1.3762008E-2,6.87374E-2,1.1233434E-1,0E0,2.1253826E-2,0E0,0E0,0E0,0E0,0E0,0E0,0E0,0E0,0E0,0E0,0E0,0E0,0E0,0E0,0E0,0E0,0E0,0E0,0E0,0E0,0E0,0E0,0E0,0E0,0E0,0E0,0E0,0E0,0E0,0E0,0E0,0E0,0E0,0E0,0E0,0E0,0E0,0E0,0E0,0E0,0E0,0E0],"parents":[2147483647,0,0,1,1,2,2,3,3,4,4,5,5,6,6,7,7,8,8,9,9,10,10,11,11,12,12,13,13,14,14,15,15,16,16,18,18,19,19,20,20,21,21,22,22,25,25,26,26,27,27,28,28,29,29,30,30,33,33,34,34,36,36,37,37,38,38,39,39,40,40,41,41,42,42,43,43,44,44,45,45,46,46,47,47,48,48,50,50,51,51,52,52,53,53,54,54,56,56],"right_children":[2,4,6,8,10,12,14,16,18,20,22,24,26,28,30,32,34,-1,36,38,40,42,44,-1,-1,46,48,50,52,54,56,-1,-1,58,60,-1,62,64,66,68,70,72,74,76,78,80,82,84,86,-1,88,90,92,94,96,-1,98,-1,-1,-1,-1,-1,-1,-1,-1,-1,-1,-1,-1,-1,-1,-1,-1,-1,-1,-1,-1,-1,-1,-1,-1,-1,-1,-1,-1,-1,-1,-1,-1,-1,-1,-1,-1,-1,-1,-1,-1,-1,-1],"split_conditions":[1.8334401E0,8.603141E-2,1.9952621E1,8.941491E-2,0E0,-3.579481E0,1.1064956E-1,-1.800003E-1,-3.4699172E-3,7.038858E-4,7.038858E-4,7.753E7,-5.8900146E0,1.8244225E1,4.6157616E1,-6.1424706E-2,5.9335627E-2,-1.1628495E-3,7.0132546E-2,-1.03290845E-2,1.1064956E-1,-3.4699172E-3,1.8886566E-2,1.3347622E-3,1.2753729E-4,-6.0899963E0,3.4584808E0,1.755E1,1.9474865E1,1.0105816E0,4.0879917E1,9.464148E-5,5.4675713E-4,4.8358846E-2,6.690455E-2,-5.4704194E-4,0E0,1.1064956E-1,-1.0000229E-2,4.173708E-2,1.06526285E-1,-1.03290845E-2,1.1064956E-1,1.06526285E-1,5.9999943E-2,5.6296606E-2,2.31608E1,3.2160797E0,-1.2528232E-1,-9.379707E-4,2.9863281E0,2.1048E1,1.9597372E1,9.678841E-1,-7.9172984E-2,1.5234598E-3,-1.1569992E1,8.7146245E-6,-2.3277938E-4,5.0854007E-5,2.753397E-4,-3.2555475E-4,-1.8110224E-5,1.6704599E-3,-5.488192E-4,2.099457E-3,1.2691185E-3,6.750411E-4,-1.7270468E-4,-6.4851035E-4,2.5114662E-4,3.921789E-4,2.6523136E-5,1.6855355E-4,6.102697E-4,-3.530596E-4,-3.760041E-5,7.390626E-4,7.778428E-5,3.363764E-4,9.619145E-5,9.853164E-4,-8.142094E-5,1.4514206E-5,-2.7395092E-4,1.2527963E-3,9.747988E-5,-4.7929338E-4,6.675777E-5,3.3951065E-4,-3.5535998E-4,-1.2744189E-4,-1.6208596E-6,-1.7105757E-4,9.6188864E-4,-5.814398E-4,2.9055533E-4,3.2901458E-4,-6.6321016E-5],"split_indices":[8,10,3,9,14,12,9,14,12,12,12,4,14,0,0,12,12,0,10,12,9,12,14,0,0,14,14,0,0,12,2,0,0,10,9,0,14,9,14,12,10,12,9,10,14,10,7,14,12,0,14,6,2,12,15,0,14,0,0,0,0,0,0,0,0,0,0,0,0,0,0,0,0,0,0,0,0,0,0,0,0,0,0,0,0,0,0,0,0,0,0,0,0,0,0,0,0,0,0],"split_type":[0,0,0,0,0,0,0,0,0,0,0,0,0,0,0,0,0,0,0,0,0,0,0,0,0,0,0,0,0,0,0,0,0,0,0,0,0,0,0,0,0,0,0,0,0,0,0,0,0,0,0,0,0,0,0,0,0,0,0,0,0,0,0,0,0,0,0,0,0,0,0,0,0,0,0,0,0,0,0,0,0,0,0,0,0,0,0,0,0,0,0,0,0,0,0,0,0,0,0],"sum_hessian":[1.18885E5,4.58E2,1.18427E5,2.9E2,1.68E2,7.937E3,1.1049E5,2.85E2,5E0,5.4E1,1.14E2,6E0,7.931E3,1.10243E5,2.47E2,7E0,2.78E2,1E0,4E0,4.6E1,8E0,3.4E1,8E1,5E0,1E0,9E1,7.841E3,1.2E1,1.10231E5,1.61E2,8.6E1,1E0,6E0,1.7E2,1.08E2,1E0,3E0,6E0,4E1,5E0,3E0,1.2E1,2.2E1,3.3E1,4.7E1,8.3E1,7E0,7.742E3,9.9E1,4E0,8E0,3.7E1,1.10194E5,5.4E1,1.07E2,3E0,8.3E1,1.52E2,1.8E1,9.4E1,1.4E1,1E0,2E0,2E0,4E0,1.5E1,2.5E1,4E0,1E0,1E0,2E0,2E0,1E1,7E0,1.5E1,8E0,2.5E1,1.5E1,3.2E1,2.7E1,5.6E1,5E0,2E0,7.721E3,2.1E1,8E0,9.1E1,6E0,2E0,3.1E1,6E0,8.6E1,1.10108E5,4.9E1,5E0,9E1,1.7E1,1.6E1,6.7E1],"tree_param":{"num_deleted":"0","num_feature":"16","num_nodes":"99","size_leaf_vector":"1"}},{"base_weights":[3.0307172E-5,2.6904985E-2,-7.345544E-5,9.651799E-2,1.3816567E-2,1.7336291E-3,-2.5211202E-4,2.8079895E-2,2.5078276E-1,6.135992E-2,9.18506E-3,1.6175852E-3,4.8981637E-2,-2.0794952E-4,-1.101974E-2,1.6560477E-1,-5.3326916E-3,2.8318316E-2,5.1490825E-1,2.1414794E-1,-3.1712994E-2,-2.5945742E-2,1.1045267E-2,9.041248E-2,1.5671523E-3,1.476696E-3,2.9688878E-2,2.0430067E-3,-2.9764374E-4,-3.7676472E-2,-7.340602E-3,-6.6116564E-2,2.3179968E-1,-1.254431E-1,2.6618082E-2,-1.1571145E-2,9.445568E-2,7.217025E-1,2.5676164E-1,4.638642E-2,1.113643E-2,-1.1219337E-1,3.263445E-2,1.49925975E-2,-7.899274E-2,2.466681E-2,7.922709E-3,1.6233873E-3,1.3864676E-2,1.4107759E-3,2.472842E-2,1.3609067E-1,1.3074866E-2,-5.8099262E-2,2.1747206E-3,-3.337095E-4,3.1526554E-3,5.086016E-2,-4.7958624E-2,6.115303E-2,-8.397202E-3,2.075627E-4,-1.1993111E-3,9.654697E-4,3.4291565E-3,-3.7910875E-5,-2.7656034E-3,9.364627E-4,-9.510455E-5,-5.242239E-4,7.5895536E-5,4.3238307E-4,1.1418783E-3,6.4416154E-4,8.6992E-3,-3.3967057E-4,4.1061775E-3,-3.5378482E-4,1.3404773E-3,-8.040976E-5,-2.6641171E-3,2.2432567E-5,1.0045381E-3,5.634574E-5,5.4286415E-4,-1.79747E-4,-1.355171E-3,9.576773E-5,5.587705E-4,-4.237434E-4,1.1414632E-4,5.598071E-4,-1.883424E-4,1.503691E-5,-3.1147202E-4,7.031735E-5,9.627693E-4,2.1115502E-3,-7.019032E-5,2.2215181E-4,-4.9172086E-4,-2.5471125E-4,-1.1486516E-3,6.966959E-6,6.118145E-5,-1.6976496E-4,-3.2651528E-6,-1.1735135E-4,4.5556575E-5,5.1147863E-6,6.08276E-4,-3.1637945E-4,-1.1516624E-3,-2.234971E-4,1.5210568E-3,-6.373541E-5,-3.9706795E-4],"categories":[],"categories_nodes":[],"categories_segments":[],"categories_sizes":[],"default_left":[0,0,0,0,0,0,0,0,0,0,0,0,0,0,0,0,0,0,0,0,0,0,0,0,0,0,0,0,0,0,0,0,0,0,0,0,0,0,0,0,0,0,0,0,0,0,0,0,0,0,0,0,0,0,0,0,0,0,0,0,0,0,0,0,0,0,0,0,0,0,0,0,0,0,0,0,0,0,0,0,0,0,0,0,0,0,0,0,0,0,0,0,0,0,0,0,0,0,0,0,0,0,0,0,0,0,0,0,0,0,0,0,0,0,0,0,0],"id":13,"left_children":[1,3,5,7,9,11,13,15,17,19,21,23,25,27,29,31,33,35,37,39,41,43,45,47,49,-1,51,53,55,57,59,61,63,65,67,69,71,73,75,77,-1,79,81,83,85,87,89,-1,91,93,95,97,99,101,103,105,107,109,111,113,115,-1,-1,-1,-1,-1,-1,-1,-1,-1,-1,-1,-1,-1,-1,-1,-1,-1,-1,-1,-1,-1,-1,-1,-1,-1,-1,-1,-1,-1,-1,-1,-1,-1,-1,-1,-1,-1,-1,-1,-1,-1,-1,-1,-1,-1,-1,-1,-1,-1,-1,-1,-1,-1,-1,-1,-1],"loss_changes":[3.3061686E-1,4.1413903E-1,3.8130343E-2,7.5310415E-1,8.42124E-2,5.818148E-2,5.1107164E-2,2.3523128E-1,1.2781062E0,4.9028575E-1,2.3289979E-2,4.7331534E-2,4.5118902E-2,2.1612152E-2,4.2777833E-2,1.6871354E-1,1.645191E-1,3.538935E-2,3.4852695E-1,1.9100509E0,1.17592916E-1,4.0274113E-2,1.4053483E-2,3.0784007E-2,3.8342483E-2,0E0,3.8879123E-2,3.2620683E-2,1.2810787E-2,5.0687574E-2,2.8520843E-2,1.651439E-2,8.712238E-2,1.64405E-1,8.3226055E-2,7.442509E-3,1.1586025E-4,4.310701E-1,2.823298E-1,9.075383E-2,0E0,1.5847988E-1,2.6569102E-2,3.7389556E-3,2.515617E-2,2.8664619E-2,4.8607238E-2,0E0,6.562949E-3,3.188929E-2,8.922119E-2,3.370942E-2,1.304046E-2,1.3743747E-2,2.3857532E-2,1.2192383E-2,2.229876E-2,2.9799724E-3,4.9006343E-2,4.8968285E-2,2.3950448E-2,0E0,0E0,0E0,0E0,0E0,0E0,0E0,0E0,0E0,0E0,0E0,0E0,0E0,0E0,0E0,0E0,0E0,0E0,0E0,0E0,0E0,0E0,0E0,0E0,0E0,0E0,0E0,0E0,0E0,0E0,0E0,0E0,0E0,0E0,0E0,0E0,0E0,0E0,0E0,0E0,0E0,0E0,0E0,0E0,0E0,0E0,0E0,0E0,0E0,0E0,0E0,0E0,0E0,0E0,0E0,0E0],"parents":[2147483647,0,0,1,1,2,2,3,3,4,4,5,5,6,6,7,7,8,8,9,9,10,10,11,11,12,12,13,13,14,14,15,15,16,16,17,17,18,18,19,19,20,20,21,21,22,22,23,23,24,24,26,26,27,27,28,28,29,29,30,30,31,31,32,32,33,33,34,34,35,35,36,36,37,37,38,38,39,39,41,41,42,42,43,43,44,44,45,45,46,46,48,48,49,49,50,50,51,51,52,52,53,53,54,54,55,55,56,56,57,57,58,58,59,59,60,60],"right_children":[2,4,6,8,10,12,14,16,18,20,22,24,26,28,30,32,34,36,38,40,42,44,46,48,50,-1,52,54,56,58,60,62,64,66,68,70,72,74,76,78,-1,80,82,84,86,88,90,-1,92,94,96,98,100,102,104,106,108,110,112,114,116,-1,-1,-1,-1,-1,-1,-1,-1,-1,-1,-1,-1,-1,-1,-1,-1,-1,-1,-1,-1,-1,-1,-1,-1,-1,-1,-1,-1,-1,-1,-1,-1,-1,-1,-1,-1,-1,-1,-1,-1,-1,-1,-1,-1,-1,-1,-1,-1,-1,-1,-1,-1,-1,-1,-1,-1],"split_conditions":[1.8334401E0,4.152153E1,2.2698E1,-3.4699172E-3,-3.4699172E-3,2.1201212E0,8.603141E-2,2.6769474E1,1.1064956E-1,4.791517E1,4.466451E1,-6.1460967E0,1.7585442E1,2.3296858E1,2.1339E1,7.924958E-2,2.8898125E1,6.690455E-2,3.7121914E1,4.773164E1,5.2263374E1,1.06526285E-1,5.0645023E1,2.0049032E1,2.2772911E2,1.476696E-3,5.643827E-2,2.112E1,6.235798E-2,-2.6283872E-1,2.19355E1,5.1783256E-2,-1.03290845E-2,-1.03290845E-2,3.365674E1,3.5815247E1,2.6272972E1,1.06526285E-1,4.0059795E1,4.351633E1,1.113643E-2,3.2186665E-2,3.560814E-2,5.643827E-2,1.1064956E-1,4.959301E1,5.31674E1,1.6233873E-3,2.0871737E1,2.6041796E1,1.3150372E-1,2.311439E1,1.9054905E1,2.064E1,2.2053692E-2,2.1933922E1,2.317672E1,2.39E1,1.977857E1,2.157263E1,7.576686E2,2.075627E-4,-1.1993111E-3,9.654697E-4,3.4291565E-3,-3.7910875E-5,-2.7656034E-3,9.364627E-4,-9.510455E-5,-5.242239E-4,7.5895536E-5,4.3238307E-4,1.1418783E-3,6.4416154E-4,8.6992E-3,-3.3967057E-4,4.1061775E-3,-3.5378482E-4,1.3404773E-3,-8.040976E-5,-2.6641171E-3,2.2432567E-5,1.0045381E-3,5.634574E-5,5.4286415E-4,-1.79747E-4,-1.355171E-3,9.576773E-5,5.587705E-4,-4.237434E-4,1.1414632E-4,5.598071E-4,-1.883424E-4,1.503691E-5,-3.1147202E-4,7.031735E-5,9.627693E-4,2.1115502E-3,-7.019032E-5,2.2215181E-4,-4.9172086E-4,-2.5471125E-4,-1.1486516E-3,6.966959E-6,6.118145E-5,-1.6976496E-4,-3.2651528E-6,-1.1735135E-4,4.5556575E-5,5.1147863E-6,6.08276E-4,-3.1637945E-4,-1.1516624E-3,-2.234971E-4,1.5210568E-3,-6.373541E-5,-3.9706795E-4],"split_indices":[8,11,5,12,12,12,10,11,9,11,11,12,5,11,8,9,11,9,11,11,11,10,11,11,8,0,9,2,10,15,7,9,12,12,11,11,11,10,11,11,0,9,9,9,9,11,11,0,1,1,15,0,7,2,9,0,8,1,8,7,5,0,0,0,0,0,0,0,0,0,0,0,0,0,0,0,0,0,0,0,0,0,0,0,0,0,0,0,0,0,0,0,0,0,0,0,0,0,0,0,0,0,0,0,0,0,0,0,0,0,0,0,0,0,0,0,0],"split_type":[0,0,0,0,0,0,0,0,0,0,0,0,0,0,0,0,0,0,0,0,0,0,0,0,0,0,0,0,0,0,0,0,0,0,0,0,0,0,0,0,0,0,0,0,0,0,0,0,0,0,0,0,0,0,0,0,0,0,0,0,0,0,0,0,0,0,0,0,0,0,0,0,0,0,0,0,0,0,0,0,0,0,0,0,0,0,0,0,0,0,0,0,0,0,0,0,0,0,0,0,0,0,0,0,0,0,0,0,0,0,0,0,0,0,0,0,0],"sum_hessian":[1.18559E5,4.55E2,1.18104E5,7.1E1,3.84E2,1.0625E4,1.07479E5,5E1,2.1E1,3.3E1,3.51E2,1.06E4,2.5E1,1.07041E5,4.38E2,9E0,4.1E1,1.2E1,9E0,1.2E1,2.1E1,1.7E1,3.34E2,5E0,1.0595E4,3E0,2.2E1,4.101E3,1.0294E5,5.2E1,3.86E2,2E0,7E0,8E0,3.3E1,8E0,4E0,4E0,5E0,1.1E1,1E0,9E0,1.2E1,1E1,7E0,6.1E1,2.73E2,2E0,3E0,1.0525E4,7E1,2E0,2E1,8E0,4.093E3,1.01876E5,1.064E3,5E0,4.7E1,5E0,3.81E2,1E0,1E0,4E0,3E0,5E0,3E0,1.1E1,2.2E1,2E0,6E0,2E0,2E0,1E0,3E0,2E0,3E0,6E0,5E0,6E0,3E0,9E0,3E0,9E0,1E0,4E0,3E0,4.2E1,1.9E1,1.7E1,2.56E2,1E0,2E0,1.0496E4,2.9E1,5.7E1,1.3E1,1E0,1E0,1.8E1,2E0,6E0,2E0,2.978E3,1.115E3,4.3E1,1.01833E5,9.1E1,9.73E2,1E0,4E0,3.9E1,8E0,3E0,2E0,3.59E2,2.2E1],"tree_param":{"num_deleted":"0","num_feature":"16","num_nodes":"117","size_leaf_vector":"1"}},{"base_weights":[-4.689307E-6,2.6030329E-3,-2.2660788E-4,1.8447378E-3,1.7604385E-2,-1.9154811E-4,-7.6871323E-3,2.934587E-2,1.6670018E-3,5.463573E-2,3.3073914E-3,-1.8921195E-2,-1.7970106E-4,-2.5497682E-3,-3.505493E-2,5.5312417E-2,5.7832035E-3,1.4470643E-3,1.3426075E-2,4.9505886E-3,1.1987082E-1,-6.448801E-3,4.319513E-2,-1.5123008E-2,-9.7440276E-4,1.8209326E-3,-2.5894615E-4,-4.519469E-3,1.1796624E-1,-9.820683E-2,-1.7998971E-2,4.4901427E-2,1.0395024E-1,1.3465331E-2,-4.943749E-4,1.7245611E-3,-7.4288365E-3,-1.6712394E-2,2.126547E-2,6.866926E-2,-2.0877156E-2,3.2276583E-1,6.0461257E-2,-3.5109126E-3,-1.1297032E-1,5.8661554E-2,-7.240256E-2,1.5092242E-2,-1.9475792E-2,1.9914014E-3,-2.3388248E-2,-2.9492212E-4,3.0945134E-3,-1.3537281E-2,8.171387E-3,1.4692049E-2,1.9174887E-1,-8.2352534E-2,-1.7593782E-3,-7.0296E-2,-9.425774E-3,9.81599E-4,3.5597934E-4,1.2162414E-3,2.5464265E-4,4.1227948E-4,-1.855273E-5,1.5386113E-5,1.4662492E-4,-1.0437136E-4,9.114565E-5,2.500192E-4,-4.3726107E-4,1.7399761E-3,1.7490178E-4,7.577729E-5,2.626466E-3,-7.775826E-4,1.4228882E-4,4.6623067E-4,8.633955E-3,-5.0658983E-4,8.730757E-4,-1.8896557E-4,1.7411896E-4,-3.4197196E-4,-1.3764013E-3,2.1250164E-3,4.3041515E-4,2.2916065E-5,-1.1767737E-3,4.0013107E-4,-2.606212E-4,-3.7263366E-4,-1.4623151E-4,5.185729E-6,5.2189305E-5,-8.607214E-5,-8.965956E-4,-4.6121895E-6,1.3870326E-6,6.753499E-5,-4.525129E-5,-2.906307E-5,-4.029838E-4,1.5908392E-4,-2.0752012E-4,-1.3922632E-4,5.026804E-4,2.5050782E-3,7.73602E-5,-1.1732315E-3,-4.2117247E-4,-1.3894913E-6,-1.0535136E-3,5.630345E-4,-2.2922992E-4],"categories":[],"categories_nodes":[],"categories_segments":[],"categories_sizes":[],"default_left":[0,0,0,0,0,0,0,0,0,0,0,0,0,0,0,0,0,0,0,0,0,0,0,0,0,0,0,0,0,0,0,0,0,0,0,0,0,0,0,0,0,0,0,0,0,0,0,0,0,0,0,0,0,0,0,0,0,0,0,0,0,0,0,0,0,0,0,0,0,0,0,0,0,0,0,0,0,0,0,0,0,0,0,0,0,0,0,0,0,0,0,0,0,0,0,0,0,0,0,0,0,0,0,0,0,0,0,0,0,0,0,0,0,0,0,0,0],"id":14,"left_children":[1,3,5,7,9,11,13,15,17,19,21,23,25,27,29,31,33,35,37,39,41,43,45,47,-1,49,51,53,55,57,59,61,63,65,-1,67,69,71,73,75,77,79,81,83,85,87,89,91,93,95,97,99,101,103,105,107,109,111,-1,113,115,-1,-1,-1,-1,-1,-1,-1,-1,-1,-1,-1,-1,-1,-1,-1,-1,-1,-1,-1,-1,-1,-1,-1,-1,-1,-1,-1,-1,-1,-1,-1,-1,-1,-1,-1,-1,-1,-1,-1,-1,-1,-1,-1,-1,-1,-1,-1,-1,-1,-1,-1,-1,-1,-1,-1,-1],"loss_changes":[6.8874806E-2,1.06145985E-1,2.8687427E-2,4.3385334E-2,2.3753649E-1,2.422045E-2,7.203756E-2,3.455506E-2,2.2817237E-2,4.0455833E-1,1.2675309E-1,1.9104287E-2,1.7297544E-2,1.033189E-1,8.547879E-2,9.004414E-3,1.38162775E-2,2.1364849E-2,3.863071E-2,1.1992471E-1,6.31396E-1,8.159584E-2,1.1867175E-1,9.105804E-3,0E0,1.7910777E-2,1.2662021E-2,4.8978098E-2,5.052171E-2,6.461382E-3,2.8480334E-2,8.39746E-3,2.4515465E-3,1.1986012E-2,0E0,2.0203054E-2,1.3183981E-2,3.940643E-2,7.1339205E-2,2.4686758E-1,1.04943655E-1,1.751238E0,1.3269918E-1,8.273822E-2,8.8963285E-3,1.2782393E-1,2.7323779E-2,1.0273248E-2,4.5477785E-3,1.9629652E-2,2.6655916E-2,7.487518E-3,3.1089064E-2,7.100702E-2,4.016306E-2,4.7718473E-3,4.1311666E-2,1.7571524E-2,0E0,2.2119787E-2,5.1858854E-2,0E0,0E0,0E0,0E0,0E0,0E0,0E0,0E0,0E0,0E0,0E0,0E0,0E0,0E0,0E0,0E0,0E0,0E0,0E0,0E0,0E0,0E0,0E0,0E0,0E0,0E0,0E0,0E0,0E0,0E0,0E0,0E0,0E0,0E0,0E0,0E0,0E0,0E0,0E0,0E0,0E0,0E0,0E0,0E0,0E0,0E0,0E0,0E0,0E0,0E0,0E0,0E0,0E0,0E0,0E0,0E0],"parents":[2147483647,0,0,1,1,2,2,3,3,4,4,5,5,6,6,7,7,8,8,9,9,10,10,11,11,12,12,13,13,14,14,15,15,16,16,17,17,18,18,19,19,20,20,21,21,22,22,23,23,25,25,26,26,27,27,28,28,29,29,30,30,31,31,32,32,33,33,35,35,36,36,37,37,38,38,39,39,40,40,41,41,42,42,43,43,44,44,45,45,46,46,47,47,48,48,49,49,50,50,51,51,52,52,53,53,54,54,55,55,56,56,57,57,59,59,60,60],"right_children":[2,4,6,8,10,12,14,16,18,20,22,24,26,28,30,32,34,36,38,40,42,44,46,48,-1,50,52,54,56,58,60,62,64,66,-1,68,70,72,74,76,78,80,82,84,86,88,90,92,94,96,98,100,102,104,106,108,110,112,-1,114,116,-1,-1,-1,-1,-1,-1,-1,-1,-1,-1,-1,-1,-1,-1,-1,-1,-1,-1,-1,-1,-1,-1,-1,-1,-1,-1,-1,-1,-1,-1,-1,-1,-1,-1,-1,-1,-1,-1,-1,-1,-1,-1,-1,-1,-1,-1,-1,-1,-1,-1,-1,-1,-1,-1,-1,-1],"split_conditions":[2.1058992E1,8.603141E-2,8.603141E-2,-5.8900146E0,4.3710217E1,1.9597372E1,6.929717E1,5.6296606E-2,3.0600586E0,3.5815247E1,1.7254E7,4.0024874E-1,2.3296858E1,6.855534E1,4.59055E5,5.3922307E-2,2.1718207E-1,1.7220268E0,6.5157906E1,2.6769474E1,3.7121914E1,4.6654053E0,8.048776E1,-2.1494732E0,-9.7440276E-4,7.924958E-2,6.235798E-2,9.5982E6,1.1064956E-1,8.559723E1,2.7928E1,-3.5883906E-1,2.6665E6,1.8351765E1,-4.943749E-4,1.4552689E0,4.412771E-1,2.100006E0,-3.3619678E-1,-1.03290845E-2,1.662E0,1.1064956E-1,3.804175E1,1.8886566E-2,2.7317563E-1,5.333E0,8.024E0,-6.0899963E0,3.1060762E1,2.0496301E-2,6.1042404E-1,7.631E6,4.6654053E0,1.5139369E0,6.2073685E1,6.2012165E1,5.0956245E1,2.6395E1,-1.7593782E-3,7.104805E1,4.1268227E1,9.81599E-4,3.5597934E-4,1.2162414E-3,2.5464265E-4,4.1227948E-4,-1.855273E-5,1.5386113E-5,1.4662492E-4,-1.0437136E-4,9.114565E-5,2.500192E-4,-4.3726107E-4,1.7399761E-3,1.7490178E-4,7.577729E-5,2.626466E-3,-7.775826E-4,1.4228882E-4,4.6623067E-4,8.633955E-3,-5.0658983E-4,8.730757E-4,-1.8896557E-4,1.7411896E-4,-3.4197196E-4,-1.3764013E-3,2.1250164E-3,4.3041515E-4,2.2916065E-5,-1.1767737E-3,4.0013107E-4,-2.606212E-4,-3.7263366E-4,-1.4623151E-4,5.185729E-6,5.2189305E-5,-8.607214E-5,-8.965956E-4,-4.6121895E-6,1.3870326E-6,6.753499E-5,-4.525129E-5,-2.906307E-5,-4.029838E-4,1.5908392E-4,-2.0752012E-4,-1.3922632E-4,5.026804E-4,2.5050782E-3,7.73602E-5,-1.1732315E-3,-4.2117247E-4,-1.3894913E-6,-1.0535136E-3,5.630345E-4,-2.2922992E-4],"split_indices":[5,10,10,14,11,2,11,10,14,11,4,12,11,11,4,9,15,13,11,11,11,13,11,12,0,9,10,4,9,11,5,15,4,6,0,13,15,13,12,12,0,9,11,14,12,0,0,14,11,9,15,4,13,12,11,6,0,2,0,11,2,0,0,0,0,0,0,0,0,0,0,0,0,0,0,0,0,0,0,0,0,0,0,0,0,0,0,0,0,0,0,0,0,0,0,0,0,0,0,0,0,0,0,0,0,0,0,0,0,0,0,0,0,0,0,0,0],"split_type":[0,0,0,0,0,0,0,0,0,0,0,0,0,0,0,0,0,0,0,0,0,0,0,0,0,0,0,0,0,0,0,0,0,0,0,0,0,0,0,0,0,0,0,0,0,0,0,0,0,0,0,0,0,0,0,0,0,0,0,0,0,0,0,0,0,0,0,0,0,0,0,0,0,0,0,0,0,0,0,0,0,0,0,0,0,0,0,0,0,0,0,0,0,0,0,0,0,0,0,0,0,0,0,0,0,0,0,0,0,0,0,0,0,0,0,0,0],"sum_hessian":[1.19014E5,9.333E3,1.09681E5,8.885E3,4.48E2,1.09169E5,5.12E2,5.6E1,8.829E3,1.24E2,3.24E2,6.8E1,1.09101E5,4.32E2,8E1,2.6E1,3E1,8.668E3,1.61E2,7.1E1,5.3E1,2.61E2,6.3E1,6.6E1,2E0,4.156E3,1.04945E5,4.26E2,6E0,1.6E1,6.4E1,2.3E1,3E0,2.7E1,3E0,8.406E3,2.62E2,3.3E1,1.28E2,2E1,5.1E1,1.1E1,4.2E1,2.55E2,6E0,5.6E1,7E0,8E0,5.8E1,4.129E3,2.7E1,1.03832E5,1.113E3,2.49E2,1.77E2,3E0,3E0,1.5E1,1E0,8E0,5.6E1,2E0,2.1E1,2E0,1E0,9E0,1.8E1,8.288E3,1.18E2,2.22E2,4E1,1.3E1,2E1,2E0,1.26E2,1.6E1,4E0,1.9E1,3.2E1,8E0,3E0,8E0,3.4E1,1.47E2,1.08E2,2E0,4E0,4E0,5.2E1,3E0,4E0,5E0,3E0,1.1E1,4.7E1,2.836E3,1.293E3,2.3E1,4E0,7.505E4,2.8782E4,7.52E2,3.61E2,1.79E2,7E1,1.4E2,3.7E1,2E0,1E0,2E0,1E0,7E0,8E0,3E0,5E0,9E0,4.7E1],"tree_param":{"num_deleted":"0","num_feature":"16","num_nodes":"117","size_leaf_vector":"1"}},{"base_weights":[8.304595E-6,1.5316044E-2,-5.145243E-5,5.0872993E-2,-1.4305492E-4,2.2037055E-3,-2.3236107E-4,3.5897255E-2,7.2279936E-1,-6.452649E-2,4.777085E-3,9.404825E-2,2.1093192E-3,-2.0355525E-4,-1.282672E-2,2.7656232E-4,7.955687E-2,-2.3970235E-4,1.1081693E-2,-1.4445972E-1,2.0783946E-2,-2.1619681E-2,9.260343E-3,2.9942375E-5,1.0505572E-1,1.242227E-3,6.738758E-3,2.1103711E-3,-2.939522E-4,-3.249454E-2,9.808451E-3,-1.1689456E-3,4.9597197E-3,1.3956375E-1,-2.8261933E-2,2.603538E-3,-2.4987683E-3,1.7195794E-1,-2.6646646E-2,-4.049583E-3,-1.13911696E-1,7.022891E-2,6.260816E-3,1.1669261E-3,1.1798726E-4,7.1078017E-3,8.241695E-4,4.1610585E-3,1.8656801E-2,6.185456E-4,6.0536377E-3,-2.182321E-2,-2.8739887E-4,-8.462086E-3,-9.298543E-2,3.7645277E-2,1.8349088E-3,-8.112452E-6,3.2545187E-4,9.118437E-4,2.9607224E-3,-1.8339598E-3,1.4050285E-4,-1.2394664E-4,2.1733294E-4,1.3613176E-4,2.4432372E-3,-7.4314165E-5,-9.979185E-4,7.484012E-5,-2.2233363E-4,-2.8400533E-4,-3.134893E-3,7.389364E-5,1.567264E-3,-7.307209E-4,1.1341214E-4,9.8704906E-5,-1.4149045E-4,9.754514E-6,-6.6022934E-5,5.668192E-5,-1.6431816E-4,1.0662832E-3,1.248277E-4,1.638635E-5,-1.034381E-5,1.3263762E-4,3.7803115E-5,1.2542548E-5,-8.093832E-4,1.2091691E-4,-2.9422663E-6,1.3458641E-4,-2.2808636E-4,-1.1187538E-3,-5.656247E-4,1.87877E-3,1.7297755E-4,-8.981053E-5,2.687786E-4],"categories":[],"categories_nodes":[],"categories_segments":[],"categories_sizes":[],"default_left":[0,0,0,0,0,0,0,0,0,0,0,0,0,0,0,0,0,0,0,0,0,0,0,0,0,0,0,0,0,0,0,0,0,0,0,0,0,0,0,0,0,0,0,0,0,0,0,0,0,0,0,0,0,0,0,0,0,0,0,0,0,0,0,0,0,0,0,0,0,0,0,0,0,0,0,0,0,0,0,0,0,0,0,0,0,0,0,0,0,0,0,0,0,0,0,0,0,0,0,0,0],"id":15,"left_children":[1,3,5,7,9,11,13,15,17,19,21,23,25,27,29,31,33,-1,-1,35,37,39,41,-1,43,45,47,49,51,53,55,-1,57,59,61,63,-1,65,67,69,71,73,75,-1,-1,77,79,81,83,85,87,89,91,93,95,97,99,-1,-1,-1,-1,-1,-1,-1,-1,-1,-1,-1,-1,-1,-1,-1,-1,-1,-1,-1,-1,-1,-1,-1,-1,-1,-1,-1,-1,-1,-1,-1,-1,-1,-1,-1,-1,-1,-1,-1,-1,-1,-1,-1,-1],"loss_changes":[1.08681634E-1,2.539587E-1,4.8284244E-2,1.3828168E0,1.0262674E-1,7.599215E-2,3.9745115E-2,2.145936E-1,8.899108E-1,1.5984264E-1,3.582161E-2,8.705907E-3,3.5239886E-2,2.2865625E-2,1.1161485E-1,4.283204E-2,4.050763E-1,0E0,0E0,1.8668637E-1,9.0625376E-2,7.0888214E-2,4.6742544E-2,0E0,7.3049515E-3,1.8132677E-2,4.2471133E-2,2.4174012E-2,1.4836718E-2,1.9401492E-1,2.5900021E-2,0E0,1.1966011E-2,2.7587426E-1,1.5355028E-1,1.9908487E-3,0E0,3.1050205E-2,1.3313425E-2,8.13592E-3,1.1055952E-1,6.406745E-2,1.0038029E-1,0E0,0E0,2.9032884E-2,7.7652624E-3,3.5474423E-2,1.3228115E-1,5.0314283E-3,1.8438868E-2,4.3756776E-2,8.892847E-3,3.0812193E-2,1.9817144E-2,7.622807E-2,2.5160844E-2,0E0,0E0,0E0,0E0,0E0,0E0,0E0,0E0,0E0,0E0,0E0,0E0,0E0,0E0,0E0,0E0,0E0,0E0,0E0,0E0,0E0,0E0,0E0,0E0,0E0,0E0,0E0,0E0,0E0,0E0,0E0,0E0,0E0,0E0,0E0,0E0,0E0,0E0,0E0,0E0,0E0,0E0,0E0,0E0],"parents":[2147483647,0,0,1,1,2,2,3,3,4,4,5,5,6,6,7,7,8,8,9,9,10,10,11,11,12,12,13,13,14,14,15,15,16,16,19,19,20,20,21,21,22,22,24,24,25,25,26,26,27,27,28,28,29,29,30,30,32,32,33,33,34,34,35,35,37,37,38,38,39,39,40,40,41,41,42,42,45,45,46,46,47,47,48,48,49,49,50,50,51,51,52,52,53,53,54,54,55,55,56,56],"right_children":[2,4,6,8,10,12,14,16,18,20,22,24,26,28,30,32,34,-1,-1,36,38,40,42,-1,44,46,48,50,52,54,56,-1,58,60,62,64,-1,66,68,70,72,74,76,-1,-1,78,80,82,84,86,88,90,92,94,96,98,100,-1,-1,-1,-1,-1,-1,-1,-1,-1,-1,-1,-1,-1,-1,-1,-1,-1,-1,-1,-1,-1,-1,-1,-1,-1,-1,-1,-1,-1,-1,-1,-1,-1,-1,-1,-1,-1,-1,-1,-1,-1,-1,-1,-1],"split_conditions":[1.8334401E0,4.791517E1,2.137E1,4.773164E1,-3.4699172E-3,-3.579481E0,1.1064956E-1,7.924958E-2,1.5738923E-2,5.2263374E1,0E0,4.6804294E-2,4.8355844E-2,2.3296858E1,1.31323E7,2.2573822E1,4.3307594E1,-2.3970235E-4,1.1081693E-2,2.7586455E-2,0E0,1.1064956E-1,5.0112614E1,2.9942375E-5,7.753E7,-7.107436E-1,1.8099976E0,2.2233345E-2,1.7679E1,6.3266335E1,2.13557E7,-1.1689456E-3,2.3152241E-2,4.0059795E1,4.4495743E1,-2.6276875E-2,-2.4987683E-3,2.5144044E-2,6.2661526E1,5.6753574E1,5.3498924E1,1.1064956E-1,5.3498924E1,1.1669261E-3,1.1798726E-4,4.551539E-2,2.149887E0,6.580308E1,-5.809909E-1,-1.0500466E0,-2.4678111E-1,7.924958E-2,1.84275E1,7.046742E-1,2.5357815E1,3.269538E1,2.0554893E-1,-8.112452E-6,3.2545187E-4,9.118437E-4,2.9607224E-3,-1.8339598E-3,1.4050285E-4,-1.2394664E-4,2.1733294E-4,1.3613176E-4,2.4432372E-3,-7.4314165E-5,-9.979185E-4,7.484012E-5,-2.2233363E-4,-2.8400533E-4,-3.134893E-3,7.389364E-5,1.567264E-3,-7.307209E-4,1.1341214E-4,9.8704906E-5,-1.4149045E-4,9.754514E-6,-6.6022934E-5,5.668192E-5,-1.6431816E-4,1.0662832E-3,1.248277E-4,1.638635E-5,-1.034381E-5,1.3263762E-4,3.7803115E-5,1.2542548E-5,-8.093832E-4,1.2091691E-4,-2.9422663E-6,1.3458641E-4,-2.2808636E-4,-1.1187538E-3,-5.656247E-4,1.87877E-3,1.7297755E-4,-8.981053E-5,2.687786E-4],"split_indices":[8,11,1,11,12,12,9,9,9,11,14,9,9,11,4,11,11,0,0,9,14,9,11,0,4,12,14,9,6,11,4,0,12,11,11,12,0,9,11,11,11,9,11,0,0,9,14,11,12,12,15,9,7,12,8,1,15,0,0,0,0,0,0,0,0,0,0,0,0,0,0,0,0,0,0,0,0,0,0,0,0,0,0,0,0,0,0,0,0,0,0,0,0,0,0,0,0,0,0,0,0],"split_type":[0,0,0,0,0,0,0,0,0,0,0,0,0,0,0,0,0,0,0,0,0,0,0,0,0,0,0,0,0,0,0,0,0,0,0,0,0,0,0,0,0,0,0,0,0,0,0,0,0,0,0,0,0,0,0,0,0,0,0,0,0,0,0,0,0,0,0,0,0,0,0,0,0,0,0,0,0,0,0,0,0,0,0,0,0,0,0,0,0,0,0,0,0,0,0,0,0,0,0,0,0],"sum_hessian":[1.18809E5,4.61E2,1.18348E5,1.39E2,3.22E2,8.788E3,1.0956E5,1.37E2,2E0,2.2E1,3E2,8E0,8.78E3,1.09311E5,2.49E2,7.6E1,6.1E1,1E0,1E0,1.1E1,1.1E1,4.3E1,2.57E2,1E0,7E0,7.396E3,1.384E3,4.109E3,1.05202E5,1.33E2,1.16E2,2E0,7.4E1,3.9E1,2.2E1,5E0,6E0,2E0,9E0,3.7E1,6E0,1.1E1,2.46E2,6E0,1E0,4.91E2,6.905E3,1.139E3,2.45E2,2.982E3,1.127E3,3.1E1,1.05171E5,9.6E1,3.7E1,2.5E1,9.1E1,6.2E1,1.2E1,3.1E1,8E0,4E0,1.8E1,3E0,2E0,1E0,1E0,8E0,1E0,2.3E1,1.4E1,5E0,1E0,7E0,4E0,1.4E1,2.32E2,4.35E2,5.6E1,6.768E3,1.37E2,1.062E3,7.7E1,1.5E1,2.3E2,1.844E3,1.138E3,2.69E2,8.58E2,2.3E1,8E0,5.7E1,1.05114E5,3.8E1,5.8E1,2.3E1,1.4E1,2E0,2.3E1,6.4E1,2.7E1],"tree_param":{"num_deleted":"0","num_feature":"16","num_nodes":"101","size_leaf_vector":"1"}},{"base_weights":[-2.6713815E-5,1.2812101E-2,-7.461313E-5,4.009213E-2,1.8940764E-3,1.80905E-3,-2.2647854E-4,2.3355924E-2,5.447075E-1,-7.25356E-2,7.7103637E-3,1.6756034E-3,5.2770805E-2,-1.9982006E-4,-6.031552E-3,-2.5856362E-3,5.882585E-2,-8.809006E-3,1.1026285E-2,3.0618957E-3,-1.7111853E-1,3.1951543E-2,4.8346557E-3,1.7440837E-3,-5.8672424E-2,1.8114468E-2,1.2939751E-1,1.602035E-3,-2.7140923E-4,1.6284715E-2,-1.0512451E-2,-5.4500215E-2,5.695815E-3,1.07123286E-1,-3.8353924E-2,-2.3850382E-4,1.06368745E-4,1.7995965E-2,-7.234361E-3,-2.258631E-1,-7.1201354E-2,-8.443242E-3,6.159462E-2,-7.11761E-2,1.1019882E-2,6.964361E-4,4.954545E-3,2.6998758E-2,-9.9245615E-2,2.6087888E-2,-5.473012E-4,1.825462E-3,4.3899432E-4,1.7911046E-3,-2.5398888E-2,-1.7963432E-2,-2.636323E-4,8.1978016E-2,8.1547553E-4,-4.927077E-2,-8.229024E-3,7.880034E-5,-8.2360324E-4,1.14695446E-4,-2.2640867E-4,5.0731667E-4,3.2544236E-3,5.909678E-4,-6.1783846E-4,2.5723688E-4,-1.0321331E-4,-1.4667604E-4,1.2521328E-4,-2.8782145E-3,-1.2292856E-3,6.553131E-5,-9.227825E-4,2.548951E-5,-4.95976E-4,6.374165E-5,8.867366E-4,6.742107E-6,-1.5906806E-3,1.2359098E-3,9.1136666E-5,3.0817432E-4,6.051654E-6,9.667083E-6,8.2232196E-5,3.2769467E-4,4.843313E-5,-1.0945725E-3,-1.8987898E-4,-2.6319872E-4,3.54547E-4,5.2034826E-5,5.249242E-7,3.496712E-5,-7.3000474E-4,-2.8184135E-4,1.12978005E-5,6.839589E-5,-2.7559229E-6,3.7566535E-4,1.7216996E-3,1.05268955E-4,-4.619101E-4,-1.0117775E-4,-9.915788E-4,4.6262646E-4,-1.09534594E-4],"categories":[],"categories_nodes":[],"categories_segments":[],"categories_sizes":[],"default_left":[0,0,0,0,0,0,0,0,0,0,0,0,0,0,0,0,0,0,0,0,0,0,0,0,0,0,0,0,0,0,0,0,0,0,0,0,0,0,0,0,0,0,0,0,0,0,0,0,0,0,0,0,0,0,0,0,0,0,0,0,0,0,0,0,0,0,0,0,0,0,0,0,0,0,0,0,0,0,0,0,0,0,0,0,0,0,0,0,0,0,0,0,0,0,0,0,0,0,0,0,0,0,0,0,0,0,0,0,0,0,0],"id":16,"left_children":[1,3,5,7,9,11,13,15,17,19,21,23,25,27,29,31,33,35,-1,37,39,41,43,45,47,49,51,53,55,57,59,61,63,65,67,-1,-1,69,71,73,75,77,79,81,83,85,87,89,91,93,-1,-1,-1,95,97,99,101,103,105,107,109,-1,-1,-1,-1,