{"learner":{"attributes":{"scikit_learn":"{\"_estimator_type\": \"regressor\"}"},"feature_names":[],"feature_types":[],"gradient_booster":{"model":{"gbtree_model_param":{"num_parallel_tree":"1","num_trees":"300"},"iteration_indptr":[0,1,2,3,4,5,6,7,8,9,10,11,12,13,14,15,16,17,18,19,20,21,22,23,24,25,26,27,28,29,30,31,32,33,34,35,36,37,38,39,40,41,42,43,44,45,46,47,48,49,50,51,52,53,54,55,56,57,58,59,60,61,62,63,64,65,66,67,68,69,70,71,72,73,74,75,76,77,78,79,80,81,82,83,84,85,86,87,88,89,90,91,92,93,94,95,96,97,98,99,100,101,102,103,104,105,106,107,108,109,110,111,112,113,114,115,116,117,118,119,120,121,122,123,124,125,126,127,128,129,130,131,132,133,134,135,136,137,138,139,140,141,142,143,144,145,146,147,148,149,150,151,152,153,154,155,156,157,158,159,160,161,162,163,164,165,166,167,168,169,170,171,172,173,174,175,176,177,178,179,180,181,182,183,184,185,186,187,188,189,190,191,192,193,194,195,196,197,198,199,200,201,202,203,204,205,206,207,208,209,210,211,212,213,214,215,216,217,218,219,220,221,222,223,224,225,226,227,228,229,230,231,232,233,234,235,236,237,238,239,240,241,242,243,244,245,246,247,248,249,250,251,252,253,254,255,256,257,258,259,260,261,262,263,264,265,266,267,268,269,270,271,272,273,274,275,276,277,278,279,280,281,282,283,284,285,286,287,288,289,290,291,292,293,294,295,296,297,298,299,300],"tree_info":[0,0,0,0,0,0,0,0,0,0,0,0,0,0,0,0,0,0,0,0,0,0,0,0,0,0,0,0,0,0,0,0,0,0,0,0,0,0,0,0,0,0,0,0,0,0,0,0,0,0,0,0,0,0,0,0,0,0,0,0,0,0,0,0,0,0,0,0,0,0,0,0,0,0,0,0,0,0,0,0,0,0,0,0,0,0,0,0,0,0,0,0,0,0,0,0,0,0,0,0,0,0,0,0,0,0,0,0,0,0,0,0,0,0,0,0,0,0,0,0,0,0,0,0,0,0,0,0,0,0,0,0,0,0,0,0,0,0,0,0,0,0,0,0,0,0,0,0,0,0,0,0,0,0,0,0,0,0,0,0,0,0,0,0,0,0,0,0,0,0,0,0,0,0,0,0,0,0,0,0,0,0,0,0,0,0,0,0,0,0,0,0,0,0,0,0,0,0,0,0,0,0,0,0,0,0,0,0,0,0,0,0,0,0,0,0,0,0,0,0,0,0,0,0,0,0,0,0,0,0,0,0,0,0,0,0,0,0,0,0,0,0,0,0,0,0,0,0,0,0,0,0,0,0,0,0,0,0,0,0,0,0,0,0,0,0,0,0,0,0,0,0,0,0,0,0,0,0,0,0,0,0,0,0,0,0,0,0,0,0,0,0,0,0,0,0,0,0,0,0],"trees":[{"base_weights":[-2.1972726E-5,8.064041E-4,-2.4516374E-4,1.4657251E-3,-3.1984813E-4,6.064553E-3,-2.7739073E-4,2.0036414E-2,1.235448E-3,-1.2929495E-4,-8.702259E-3,7.882798E-3,-9.0520615E-3,-2.48077E-4,-6.469098E-3,8.13363E-2,1.66932E-2,9.4442006E-4,8.814182E-3,-2.9157527E-4,-8.98373E-5,6.857592E-4,-2.0303674E-2,3.3538213E-3,1.5308532E-2,7.2863707E-3,-1.862633E-2,-5.567067E-4,1.3757826E-4,-1.9428972E-2,-2.3672185E-3,9.79109E-4,2.4093545E-4,-4.112748E-3,2.4825335E-2,1.0776607E-3,-2.1472583E-2,7.106698E-3,4.1984517E-2,5.300316E-3,-2.6544853E-4,1.4451186E-2,-7.0503103E-3,-4.074207E-2,-6.3265995E-3,1.350994E-2,1.2050309E-4,2.3105046E-2,-3.6776885E-3,-4.2453688E-3,1.274814E-2,-2.2908848E-2,1.20994235E-4,-5.4564053E-4,-1.7262297E-2,-3.4381374E-4,1.4792233E-4,2.2343654E-4,-2.4192248E-2,1.6828796E-2,-4.2631477E-3,1.26408E-4,-1.3542922E-4,6.399837E-4,1.4342483E-4,4.507006E-5,6.9402927E-6,-7.900506E-5,-3.5449772E-4,1.1974586E-4,-2.8286548E-5,6.559246E-4,1.9248469E-4,1.5896122E-4,1.3844393E-5,2.2756115E-4,-2.9765506E-6,1.7181372E-5,3.1142228E-4,-2.8339526E-4,-1.64572E-5,1.984138E-5,-4.9485726E-4,-1.6089252E-4,9.108206E-5,2.4316914E-4,1.47479095E-5,-1.5289844E-4,3.4205685E-5,5.0896814E-4,1.8194018E-4,2.368672E-4,-7.0810966E-5,-6.684235E-5,3.161826E-6,1.6276246E-5,1.5121362E-4,-3.2804044E-5,-2.4725296E-4,-5.7152197E-6,5.594957E-5,-3.1069282E-4,2.9912763E-4,1.5705741E-4,1.2337391E-6,4.1135736E-5,-2.8538058E-4,2.2598717E-4,-4.16726E-5,-3.4153453E-4,-2.661953E-5],"categories":[],"categories_nodes":[],"categories_segments":[],"categories_sizes":[],"default_left":[0,0,0,0,0,0,0,0,0,0,0,0,0,0,0,0,0,0,0,0,0,0,0,0,0,0,0,0,0,0,0,0,0,0,0,0,0,0,0,0,0,0,0,0,0,0,0,0,0,0,0,0,0,0,0,0,0,0,0,0,0,0,0,0,0,0,0,0,0,0,0,0,0,0,0,0,0,0,0,0,0,0,0,0,0,0,0,0,0,0,0,0,0,0,0,0,0,0,0,0,0,0,0,0,0,0,0,0,0,0,0],"id":0,"left_children":[1,3,5,7,9,11,13,15,17,19,21,23,25,27,29,31,33,35,37,-1,39,41,43,45,47,49,51,53,55,57,59,-1,-1,61,63,65,67,69,71,73,75,77,79,81,83,85,87,89,91,93,95,97,-1,99,101,-1,103,-1,105,107,109,-1,-1,-1,-1,-1,-1,-1,-1,-1,-1,-1,-1,-1,-1,-1,-1,-1,-1,-1,-1,-1,-1,-1,-1,-1,-1,-1,-1,-1,-1,-1,-1,-1,-1,-1,-1,-1,-1,-1,-1,-1,-1,-1,-1,-1,-1,-1,-1,-1,-1],"loss_changes":[7.110738E-3,6.062E-3,6.1623747E-3,2.1994445E-2,4.8147202E-3,4.304156E-3,5.4695914E-3,1.1553369E-2,1.1211686E-2,3.3751228E-3,7.311181E-3,4.5897327E-3,2.7950038E-3,3.5711736E-3,7.502706E-3,4.873071E-4,1.0423103E-2,1.465874E-2,1.034954E-2,0E0,2.7900063E-3,4.148517E-3,8.31231E-3,2.855275E-3,7.782343E-3,4.9500645E-4,1.7246029E-3,3.071574E-3,4.76764E-3,7.305676E-3,4.0387204E-3,0E0,0E0,3.0149932E-3,1.7150486E-2,6.4064977E-3,5.221216E-3,8.739425E-3,3.568206E-3,3.8367375E-3,2.1228562E-3,2.9218832E-3,2.8298483E-3,4.581185E-3,3.0095526E-3,2.6954724E-3,3.4595951E-3,4.123969E-3,1.6578443E-3,3.5488487E-5,1.07345404E-4,2.7543167E-4,0E0,2.650299E-3,8.094167E-3,0E0,5.0909626E-3,0E0,3.930755E-3,1.3056304E-3,4.695105E-3,0E0,0E0,0E0,0E0,0E0,0E0,0E0,0E0,0E0,0E0,0E0,0E0,0E0,0E0,0E0,0E0,0E0,0E0,0E0,0E0,0E0,0E0,0E0,0E0,0E0,0E0,0E0,0E0,0E0,0E0,0E0,0E0,0E0,0E0,0E0,0E0,0E0,0E0,0E0,0E0,0E0,0E0,0E0,0E0,0E0,0E0,0E0,0E0,0E0,0E0],"parents":[2147483647,0,0,1,1,2,2,3,3,4,4,5,5,6,6,7,7,8,8,9,9,10,10,11,11,12,12,13,13,14,14,15,15,16,16,17,17,18,18,20,20,21,21,22,22,23,23,24,24,25,25,26,26,27,27,28,28,29,29,30,30,33,33,34,34,35,35,36,36,37,37,38,38,39,39,40,40,41,41,42,42,43,43,44,44,45,45,46,46,47,47,48,48,49,49,50,50,51,51,53,53,54,54,56,56,58,58,59,59,60,60],"right_children":[2,4,6,8,10,12,14,16,18,20,22,24,26,28,30,32,34,36,38,-1,40,42,44,46,48,50,52,54,56,58,60,-1,-1,62,64,66,68,70,72,74,76,78,80,82,84,86,88,90,92,94,96,98,-1,100,102,-1,104,-1,106,108,110,-1,-1,-1,-1,-1,-1,-1,-1,-1,-1,-1,-1,-1,-1,-1,-1,-1,-1,-1,-1,-1,-1,-1,-1,-1,-1,-1,-1,-1,-1,-1,-1,-1,-1,-1,-1,-1,-1,-1,-1,-1,-1,-1,-1,-1,-1,-1,-1,-1,-1],"split_conditions":[-1.5695745E0,2.489432E2,1.6557745E1,-2.4787384E1,5.077992E-2,7.57901E-1,6.2929993E1,-4.249109E1,4.8976652E-2,2.1955328E2,-1.2953339E1,7.8575134E-1,3.1860206E-2,2.2881317E0,3.44531E2,2.0767728E2,-8.197832E0,5.6181423E-2,2.4667302E2,-2.9157527E-4,-4.249109E1,2.7520178E2,2.9731876E2,-7.9589844E-1,1.3588867E0,1.6767327E-2,3.1966858E0,6.898199E-2,2.098E1,2.9825196E-2,3.7187964E2,9.79109E-4,2.4093545E-4,2.8934598E-2,-6.732049E0,-6.0889807E0,9.4569084E1,1.9400919E2,-6.9288025E0,-2.091396E1,2.4020921E2,2.9266034E2,3.08444E2,2.9311197E2,-2.3551422E1,3.5147924E-2,-5.0878143E-1,1.0483494E0,-3.0112424E-1,1.5252554E-2,1.7104273E0,-8.7882996E-1,1.20994235E-4,4.8976652E-2,-1.8182793E0,-3.4381374E-4,2.408E1,2.2343654E-4,1.6729279E0,3.0717682E-2,3.570003E2,1.26408E-4,-1.3542922E-4,6.399837E-4,1.4342483E-4,4.507006E-5,6.9402927E-6,-7.900506E-5,-3.5449772E-4,1.1974586E-4,-2.8286548E-5,6.559246E-4,1.9248469E-4,1.5896122E-4,1.3844393E-5,2.2756115E-4,-2.9765506E-6,1.7181372E-5,3.1142228E-4,-2.8339526E-4,-1.64572E-5,1.984138E-5,-4.9485726E-4,-1.6089252E-4,9.108206E-5,2.4316914E-4,1.47479095E-5,-1.5289844E-4,3.4205685E-5,5.0896814E-4,1.8194018E-4,2.368672E-4,-7.0810966E-5,-6.684235E-5,3.161826E-6,1.6276246E-5,1.5121362E-4,-3.2804044E-5,-2.4725296E-4,-5.7152197E-6,5.594957E-5,-3.1069282E-4,2.9912763E-4,1.5705741E-4,1.2337391E-6,4.1135736E-5,-2.8538058E-4,2.2598717E-4,-4.16726E-5,-3.4153453E-4,-2.661953E-5],"split_indices":[12,6,7,13,9,12,14,13,10,2,13,14,10,14,7,1,12,9,3,0,13,6,1,13,13,9,14,9,1,10,7,0,0,10,12,12,1,6,14,12,1,7,7,8,14,9,13,14,12,9,14,13,0,10,14,0,3,0,13,10,8,0,0,0,0,0,0,0,0,0,0,0,0,0,0,0,0,0,0,0,0,0,0,0,0,0,0,0,0,0,0,0,0,0,0,0,0,0,0,0,0,0,0,0,0,0,0,0,0,0,0],"split_type":[0,0,0,0,0,0,0,0,0,0,0,0,0,0,0,0,0,0,0,0,0,0,0,0,0,0,0,0,0,0,0,0,0,0,0,0,0,0,0,0,0,0,0,0,0,0,0,0,0,0,0,0,0,0,0,0,0,0,0,0,0,0,0,0,0,0,0,0,0,0,0,0,0,0,0,0,0,0,0,0,0,0,0,0,0,0,0,0,0,0,0,0,0,0,0,0,0,0,0,0,0,0,0,0,0,0,0,0,0,0,0],"sum_hessian":[3.8458E4,8.162E3,3.0296E4,5.148E3,3.014E3,1.53E2,3.0143E4,6.2E1,5.086E3,2.948E3,6.6E1,1.37E2,1.6E1,3.0002E4,1.41E2,2E0,6E1,4.899E3,1.87E2,3E0,2.945E3,3.7E1,2.9E1,8.6E1,5.1E1,6E0,1E1,1.6665E4,1.3337E4,3.3E1,1.08E2,1E0,1E0,1.7E1,4.3E1,4.871E3,2.8E1,1.79E2,8E0,9.2E1,2.853E3,1.3E1,2.4E1,1.1E1,1.8E1,2E1,6.6E1,3.6E1,1.5E1,2E0,4E0,9E0,1E0,1.6655E4,1E1,3E0,1.3334E4,3E0,3E1,9E0,9.9E1,6E0,1.1E1,8E0,3.5E1,4.89E2,4.382E3,1.5E1,1.3E1,1.2E2,5.9E1,3E0,5E0,2.4E1,6.8E1,3E0,2.85E3,8E0,5E0,4E0,2E1,2E0,9E0,1.1E1,7E0,1E1,1E1,1.1E1,5.5E1,4E0,3.2E1,1E0,1.4E1,1E0,1E0,1E0,3E0,1E0,8E0,1.6586E4,6.9E1,8E0,2E0,2E1,1.3314E4,4E0,2.6E1,7E0,2E0,4E0,9.5E1],"tree_param":{"num_deleted":"0","num_feature":"16","num_nodes":"111","size_leaf_vector":"1"}},{"base_weights":[1.0671693E-5,2.0498761E-3,-1.350063E-4,1.4401939E-3,8.135333E-3,3.031161E-4,-4.3381564E-4,2.630189E-2,1.3435849E-3,-1.1777876E-2,1.0681109E-2,5.819877E-3,2.1752519E-4,-2.3959628E-3,-2.9994224E-4,3.4459523E-4,-1.499882E-3,5.224454E-3,7.122255E-4,1.6057517E-2,-1.883399E-2,1.50976805E-2,-1.576331E-3,-7.031917E-3,7.854E-3,2.149933E-3,7.600772E-5,-1.5625848E-2,-1.9544894E-3,-3.34103E-4,5.1449547E-3,4.260074E-5,-6.509897E-5,2.915296E-2,4.607989E-3,1.0249877E-3,-6.4562745E-3,4.078737E-4,2.9540728E-3,-7.574009E-4,-9.356375E-3,4.691571E-2,9.680299E-3,-1.2116024E-2,7.961937E-3,3.010486E-4,-9.273306E-3,1.0182108E-2,-8.964011E-3,1.8603528E-2,1.7881478E-3,-2.893776E-4,8.2219293E-4,-2.223022E-2,9.052038E-3,-1.7733648E-2,-1.6865723E-3,-2.4798026E-4,-5.444606E-3,9.287355E-3,-2.1717785E-2,1.05106556E-4,7.9824537E-4,7.104306E-5,1.0177182E-5,2.3237057E-5,-1.0324424E-6,5.5395462E-6,-2.2115784E-4,-4.622367E-5,9.5458214E-5,-2.3247319E-4,1.841532E-5,6.545716E-4,6.2860374E-5,7.2168696E-5,4.2545304E-4,-6.000424E-4,-3.62982E-5,1.4730555E-4,-5.0684535E-5,1.5527738E-4,-1.2604077E-4,6.9799244E-5,2.4315123E-4,-6.458891E-6,-2.551952E-4,3.145742E-4,1.318507E-5,-9.625829E-6,3.228249E-5,-2.028177E-6,-6.97079E-5,3.0971118E-5,4.4302283E-6,-1.77502E-4,-5.2512804E-4,2.8405024E-4,-2.7078696E-4,8.66906E-5,-3.3440127E-4,4.9952094E-5,-2.456764E-5,-2.26966E-6,-6.366649E-5,-1.4990204E-4,-2.6267762E-5,-5.6930992E-5,1.5586933E-4,-4.0781923E-4,1.1342688E-4],"categories":[],"categories_nodes":[],"categories_segments":[],"categories_sizes":[],"default_left":[0,0,0,0,0,0,0,0,0,0,0,0,0,0,0,0,0,0,0,0,0,0,0,0,0,0,0,0,0,0,0,0,0,0,0,0,0,0,0,0,0,0,0,0,0,0,0,0,0,0,0,0,0,0,0,0,0,0,0,0,0,0,0,0,0,0,0,0,0,0,0,0,0,0,0,0,0,0,0,0,0,0,0,0,0,0,0,0,0,0,0,0,0,0,0,0,0,0,0,0,0,0,0,0,0,0,0,0,0,0,0],"id":1,"left_children":[1,3,5,7,9,11,13,15,17,19,21,23,25,27,29,-1,31,33,35,37,39,41,43,45,47,49,51,53,55,57,59,-1,-1,61,63,65,67,-1,69,-1,71,73,75,77,79,-1,81,83,85,87,89,91,93,95,97,99,101,103,105,107,109,-1,-1,-1,-1,-1,-1,-1,-1,-1,-1,-1,-1,-1,-1,-1,-1,-1,-1,-1,-1,-1,-1,-1,-1,-1,-1,-1,-1,-1,-1,-1,-1,-1,-1,-1,-1,-1,-1,-1,-1,-1,-1,-1,-1,-1,-1,-1,-1,-1,-1],"loss_changes":[1.1459346E-2,9.530906E-3,4.7134664E-3,5.582617E-3,1.1988326E-2,6.892158E-3,5.6219324E-3,2.092856E-3,5.70775E-3,5.605489E-3,1.1284059E-2,5.8849235E-3,3.9315065E-3,7.95362E-3,3.7290126E-3,0E0,1.1430504E-4,4.674522E-3,4.504142E-3,1.8237889E-3,1.1156697E-2,2.5918514E-2,5.7261703E-3,2.8595475E-3,7.648021E-3,5.8062994E-3,3.6528646E-3,7.3724333E-3,5.56731E-3,8.76385E-3,1.4111226E-2,0E0,0E0,6.7180707E-3,2.8517926E-3,2.8179258E-3,9.233497E-3,0E0,2.9383428E-4,0E0,3.153801E-3,1.6161859E-2,1.037976E-2,1.0754704E-2,2.7205935E-3,0E0,2.673912E-3,7.523885E-3,3.288575E-3,4.6242992E-3,3.809946E-3,5.200197E-3,3.797435E-3,3.8162153E-3,7.761546E-3,9.413155E-3,6.7178397E-3,2.5169125E-3,8.83692E-3,1.037513E-2,1.1177158E-2,0E0,0E0,0E0,0E0,0E0,0E0,0E0,0E0,0E0,0E0,0E0,0E0,0E0,0E0,0E0,0E0,0E0,0E0,0E0,0E0,0E0,0E0,0E0,0E0,0E0,0E0,0E0,0E0,0E0,0E0,0E0,0E0,0E0,0E0,0E0,0E0,0E0,0E0,0E0,0E0,0E0,0E0,0E0,0E0,0E0,0E0,0E0,0E0,0E0,0E0],"parents":[2147483647,0,0,1,1,2,2,3,3,4,4,5,5,6,6,7,7,8,8,9,9,10,10,11,11,12,12,13,13,14,14,16,16,17,17,18,18,19,19,20,20,21,21,22,22,23,23,24,24,25,25,26,26,27,27,28,28,29,29,30,30,33,33,34,34,35,35,36,36,38,38,40,40,41,41,42,42,43,43,44,44,46,46,47,47,48,48,49,49,50,50,51,51,52,52,53,53,54,54,55,55,56,56,57,57,58,58,59,59,60,60],"right_children":[2,4,6,8,10,12,14,16,18,20,22,24,26,28,30,-1,32,34,36,38,40,42,44,46,48,50,52,54,56,58,60,-1,-1,62,64,66,68,-1,70,-1,72,74,76,78,80,-1,82,84,86,88,90,92,94,96,98,100,102,104,106,108,110,-1,-1,-1,-1,-1,-1,-1,-1,-1,-1,-1,-1,-1,-1,-1,-1,-1,-1,-1,-1,-1,-1,-1,-1,-1,-1,-1,-1,-1,-1,-1,-1,-1,-1,-1,-1,-1,-1,-1,-1,-1,-1,-1,-1,-1,-1,-1,-1,-1,-1],"split_conditions":[2.6335918E1,3.1291623E-2,-7.676091E-2,2.0632E1,1.3957852E1,2.7658007E1,-9.955841E0,5.811566E-1,-7.607211E0,-4.690088E1,2.3529256E2,-1.7344818E0,-4.3017964E0,-1.577179E1,5.2735403E-2,3.4459523E-4,2.5175298E-2,1.5679013E2,2.709741E-2,-4.0812472E-1,-2.4787384E1,-2.240329E1,2.1901333E1,-4.0025635E0,4.5710646E-2,-4.249109E1,4.523987E0,4.3076202E-2,1.08654915E2,3.9757904E-2,2.6249356E2,4.260074E-5,-6.509897E-5,1.5208044E2,4.362301E2,2.119314E1,7.1721375E-2,4.078737E-4,-2.240329E1,-7.574009E-4,-1.8413256E-1,-3.505002E1,6.871706E-1,2.6245908E2,-3.9889984E1,3.010486E-4,-1.473955E0,2.335777E1,-1.780627E-1,5.190192E2,-8.197832E0,3.9757904E-2,-8.628845E-2,-1.083979E1,-1.6595428E1,9.7439804E1,1.6451622E2,2.2786415E1,5.3795013E1,-8.083191E-1,3.168523E2,1.05106556E-4,7.9824537E-4,7.104306E-5,1.0177182E-5,2.3237057E-5,-1.0324424E-6,5.5395462E-6,-2.2115784E-4,-4.622367E-5,9.5458214E-5,-2.3247319E-4,1.841532E-5,6.545716E-4,6.2860374E-5,7.2168696E-5,4.2545304E-4,-6.000424E-4,-3.62982E-5,1.4730555E-4,-5.0684535E-5,1.5527738E-4,-1.2604077E-4,6.9799244E-5,2.4315123E-4,-6.458891E-6,-2.551952E-4,3.145742E-4,1.318507E-5,-9.625829E-6,3.228249E-5,-2.028177E-6,-6.97079E-5,3.0971118E-5,4.4302283E-6,-1.77502E-4,-5.2512804E-4,2.8405024E-4,-2.7078696E-4,8.66906E-5,-3.3440127E-4,4.9952094E-5,-2.456764E-5,-2.26966E-6,-6.366649E-5,-1.4990204E-4,-2.6267762E-5,-5.6930992E-5,1.5586933E-4,-4.0781923E-4,1.1342688E-4],"split_indices":[11,10,15,6,11,3,13,15,12,14,0,14,12,12,10,0,10,1,10,15,13,13,11,13,10,13,14,10,8,10,1,0,0,0,3,11,15,0,13,0,15,14,15,0,14,0,12,8,15,3,12,10,13,13,13,7,6,12,0,14,8,0,0,0,0,0,0,0,0,0,0,0,0,0,0,0,0,0,0,0,0,0,0,0,0,0,0,0,0,0,0,0,0,0,0,0,0,0,0,0,0,0,0,0,0,0,0,0,0,0,0],"split_type":[0,0,0,0,0,0,0,0,0,0,0,0,0,0,0,0,0,0,0,0,0,0,0,0,0,0,0,0,0,0,0,0,0,0,0,0,0,0,0,0,0,0,0,0,0,0,0,0,0,0,0,0,0,0,0,0,0,0,0,0,0,0,0,0,0,0,0,0,0,0,0,0,0,0,0,0,0,0,0,0,0,0,0,0,0,0,0,0,0,0,0,0,0,0,0,0,0,0,0,0,0,0,0,0,0,0,0,0,0,0,0],"sum_hessian":[3.8573E4,2.571E3,3.6002E4,2.338E3,2.33E2,1.4598E4,2.1404E4,8E0,2.33E3,2.6E1,2.07E2,2.22E2,1.4376E4,1.366E3,2.0038E4,6E0,2E0,3.25E2,2.005E3,5E0,2.1E1,1.52E2,5.5E1,3E1,1.92E2,9.8E2,1.3396E4,4.3E1,1.323E3,1.9914E4,1.24E2,1E0,1E0,7E0,3.18E2,1.922E3,8.3E1,1E0,4E0,2E0,1.9E1,2.1E1,1.31E2,2.6E1,2.9E1,1E0,2.9E1,1.69E2,2.3E1,2E1,9.6E2,8.993E3,4.403E3,3.4E1,9E0,2.1E1,1.302E3,1.9585E4,3.29E2,1.08E2,1.6E1,6E0,1E0,1.87E2,1.31E2,8.93E2,1.029E3,5.8E1,2.5E1,2E0,2E0,8E0,1.1E1,1.4E1,7E0,1.23E2,8E0,3E0,2.3E1,1.9E1,1E1,3E0,2.6E1,1.39E2,3E1,1.6E1,7E0,1.1E1,9E0,3.3E2,6.3E2,8.879E3,1.14E2,6.28E2,3.775E3,3.1E1,3E0,6E0,3E0,8E0,1.3E1,1.34E2,1.168E3,1.9519E4,6.6E1,7.4E1,2.55E2,3.2E1,7.6E1,1E1,6E0],"tree_param":{"num_deleted":"0","num_feature":"16","num_nodes":"111","size_leaf_vector":"1"}},{"base_weights":[4.4599187E-7,-1.0200309E-4,3.6426366E-3,-4.242679E-5,-2.2636617E-3,3.1399531E-3,3.0860405E-2,4.0112343E-3,-6.6691005E-5,-7.1131317E-3,-6.909862E-4,4.8345476E-2,2.8296825E-3,-1.4579016E-2,3.7063807E-2,1.3118137E-2,3.6611117E-4,5.8340194E-4,-2.4030582E-4,-5.8774706E-3,-1.0524252E-1,-3.8095044E-5,-7.334554E-3,6.759014E-2,1.5588493E-4,3.0536887E-3,-3.590964E-2,-1.7695482E-5,-2.0098974E-4,-1.545861E-4,4.1312624E-2,3.3260048E-3,2.1622555E-2,1.9528886E-2,-1.5125249E-3,9.563094E-3,4.449183E-4,-6.4068297E-3,-2.178013E-4,1.2400276E-2,-6.876321E-3,-1.3224299E-3,-2.5620783E-4,-4.3637503E-4,6.8384777E-3,-5.446076E-4,-2.2505166E-2,9.709405E-4,3.5940646E-4,2.6238375E-5,-2.39001E-5,1.3051526E-2,2.527593E-3,7.914903E-5,-4.625753E-2,5.3179294E-2,1.8458435E-2,1.440085E-4,-1.7112441E-4,1.6029585E-4,7.220907E-4,9.621684E-5,2.5756576E-4,-1.5704129E-4,3.232015E-5,6.4343086E-4,4.909547E-5,5.102811E-6,-5.6451045E-5,-3.9355506E-5,-1.3047428E-3,-3.4229256E-6,7.0132387E-6,4.0077757E-5,5.6555134E-4,-4.9226743E-5,-1.4262742E-4,-8.436705E-5,-1.0603438E-6,1.3264776E-4,-2.9645913E-4,1.9492346E-4,-2.8091566E-5,-6.177106E-4,-1.2529126E-4,6.405896E-5,6.18261E-4,-1.8385037E-4,2.8735038E-5,-5.126513E-4,-1.3113568E-4,2.98576E-4,7.0529466E-4,2.5950865E-5,2.9707173E-4],"categories":[],"categories_nodes":[],"categories_segments":[],"categories_sizes":[],"default_left":[0,0,0,0,0,0,0,0,0,0,0,0,0,0,0,0,0,0,0,0,0,0,0,0,0,0,0,0,0,0,0,0,0,0,0,0,0,0,0,0,0,0,0,0,0,0,0,0,0,0,0,0,0,0,0,0,0,0,0,0,0,0,0,0,0,0,0,0,0,0,0,0,0,0,0,0,0,0,0,0,0,0,0,0,0,0,0,0,0,0,0,0,0,0,0],"id":2,"left_children":[1,3,5,7,9,11,13,15,17,19,21,23,25,27,29,31,33,35,37,39,41,43,45,47,49,51,53,-1,-1,-1,55,57,59,61,63,65,67,69,71,73,75,-1,-1,77,79,81,83,-1,-1,-1,-1,85,87,-1,89,91,93,-1,-1,-1,-1,-1,-1,-1,-1,-1,-1,-1,-1,-1,-1,-1,-1,-1,-1,-1,-1,-1,-1,-1,-1,-1,-1,-1,-1,-1,-1,-1,-1,-1,-1,-1,-1,-1,-1],"loss_changes":[1.4375182E-2,4.825555E-3,1.4323849E-2,3.5871214E-3,7.6598604E-3,1.4394072E-2,5.896056E-3,7.198681E-3,4.0916367E-3,2.9210085E-2,3.296241E-3,6.4812116E-3,9.047838E-3,1.765571E-4,4.4323225E-3,5.091219E-3,5.6455187E-3,9.497637E-3,3.969086E-3,4.5399107E-3,3.0613057E-3,1.9009734E-3,6.9922637E-3,1.1792947E-3,2.5120442E-5,5.3583262E-3,3.087073E-3,0E0,0E0,0E0,3.3576433E-3,7.037013E-3,8.179175E-3,6.159637E-4,9.679323E-3,2.9254973E-2,2.998688E-3,3.1373464E-2,3.262213E-3,4.590745E-3,3.2776548E-3,0E0,0E0,1.7328047E-3,9.302713E-3,2.232741E-3,7.4521424E-3,0E0,0E0,0E0,0E0,1.6134975E-2,7.105889E-3,0E0,1.575891E-4,1.940513E-3,1.1720059E-3,0E0,0E0,0E0,0E0,0E0,0E0,0E0,0E0,0E0,0E0,0E0,0E0,0E0,0E0,0E0,0E0,0E0,0E0,0E0,0E0,0E0,0E0,0E0,0E0,0E0,0E0,0E0,0E0,0E0,0E0,0E0,0E0,0E0,0E0,0E0,0E0,0E0,0E0],"parents":[2147483647,0,0,1,1,2,2,3,3,4,4,5,5,6,6,7,7,8,8,9,9,10,10,11,11,12,12,13,13,14,14,15,15,16,16,17,17,18,18,19,19,20,20,21,21,22,22,23,23,24,24,25,25,26,26,30,30,31,31,32,32,33,33,34,34,35,35,36,36,37,37,38,38,39,39,40,40,43,43,44,44,45,45,46,46,51,51,52,52,54,54,55,55,56,56],"right_children":[2,4,6,8,10,12,14,16,18,20,22,24,26,28,30,32,34,36,38,40,42,44,46,48,50,52,54,-1,-1,-1,56,58,60,62,64,66,68,70,72,74,76,-1,-1,78,80,82,84,-1,-1,-1,-1,86,88,-1,90,92,94,-1,-1,-1,-1,-1,-1,-1,-1,-1,-1,-1,-1,-1,-1,-1,-1,-1,-1,-1,-1,-1,-1,-1,-1,-1,-1,-1,-1,-1,-1,-1,-1,-1,-1,-1,-1,-1,-1],"split_conditions":[1.270627E8,2.0099976E1,3.1262375E2,2.774193E1,3.1749368E2,-4.249109E1,-4.249109E1,2.0649804E-2,-2.1442465E-1,3.251612E2,7.3909307E-1,3.405548E2,2.9729E2,2.4434885E2,-1.8413256E-1,2.3962606E1,-3.690031E-1,-2.856726E1,2.9682323E1,-4.9696067E-1,3.2941776E2,4.82138E7,5.946849E2,2.0179512E2,3.3426E2,-2.2156921E1,2.1228622E2,-1.7695482E-5,-2.0098974E-4,-1.545861E-4,3.422015E-1,-3.5985184E-1,5.63392E7,-4.648155E-1,-1.8103014E-1,1.8031288E2,7.9532E7,1.028058E8,1.03576355E1,5.19233E7,7.9532E7,-1.3224299E-3,-2.5620783E-4,3.24014E2,4.483683E-2,3.3406E2,8.040756E-1,9.709405E-4,3.5940646E-4,2.6238375E-5,-2.39001E-5,4.38559E8,-1.7730042E1,7.914903E-5,2.8140545E-1,3.3345963E2,2.907431E2,1.440085E-4,-1.7112441E-4,1.6029585E-4,7.220907E-4,9.621684E-5,2.5756576E-4,-1.5704129E-4,3.232015E-5,6.4343086E-4,4.909547E-5,5.102811E-6,-5.6451045E-5,-3.9355506E-5,-1.3047428E-3,-3.4229256E-6,7.0132387E-6,4.0077757E-5,5.6555134E-4,-4.9226743E-5,-1.4262742E-4,-8.436705E-5,-1.0603438E-6,1.3264776E-4,-2.9645913E-4,1.9492346E-4,-2.8091566E-5,-6.177106E-4,-1.2529126E-4,6.405896E-5,6.18261E-4,-1.8385037E-4,2.8735038E-5,-5.126513E-4,-1.3113568E-4,2.98576E-4,7.0529466E-4,2.5950865E-5,2.9707173E-4],"split_indices":[4,13,8,7,2,13,13,9,15,0,15,7,8,0,15,5,15,13,2,15,0,4,0,0,0,14,2,0,0,0,15,14,4,15,15,2,4,4,14,4,4,0,0,7,9,2,15,0,0,0,0,4,13,0,15,8,2,0,0,0,0,0,0,0,0,0,0,0,0,0,0,0,0,0,0,0,0,0,0,0,0,0,0,0,0,0,0,0,0,0,0,0,0,0,0],"split_type":[0,0,0,0,0,0,0,0,0,0,0,0,0,0,0,0,0,0,0,0,0,0,0,0,0,0,0,0,0,0,0,0,0,0,0,0,0,0,0,0,0,0,0,0,0,0,0,0,0,0,0,0,0,0,0,0,0,0,0,0,0,0,0,0,0,0,0,0,0,0,0,0,0,0,0,0,0,0,0,0,0,0,0,0,0,0,0,0,0,0,0,0,0,0,0],"sum_hessian":[3.8523E4,3.747E4,1.053E3,3.6466E4,1.004E3,1.035E3,1.8E1,2.16E2,3.625E4,2.45E2,7.59E2,6E0,1.029E3,2E0,1.6E1,6.1E1,1.55E2,7.64E3,2.861E4,2.43E2,2E0,6.92E2,6.7E1,4E0,2E0,1.024E3,5E0,1E0,1E0,1E0,1.5E1,2.9E1,3.2E1,1.3E1,1.42E2,1.15E2,7.525E3,1.03E2,2.8507E4,1.2E1,2.31E2,1E0,1E0,6.55E2,3.7E1,4.7E1,2E1,1E0,3E0,1E0,1E0,5E1,9.74E2,1E0,4E0,9E0,6E0,1.9E1,1E1,3E1,2E0,6E0,7E0,3.5E1,1.07E2,8E0,1.07E2,7.446E3,7.9E1,1.02E2,1E0,2.5107E4,3.4E3,1.1E1,1E0,1.84E2,4.7E1,2.5E1,6.3E2,3.2E1,5E0,4E0,4.3E1,3E0,1.7E1,4.5E1,5E0,1.5E1,9.59E2,3E0,1E0,5E0,4E0,3E0,3E0],"tree_param":{"num_deleted":"0","num_feature":"16","num_nodes":"95","size_leaf_vector":"1"}},{"base_weights":[-6.4767235E-5,2.061826E-3,-1.6941574E-4,8.93188E-3,1.1803118E-3,4.4653206E-3,-2.0983734E-4,7.5014874E-2,3.695352E-3,1.793689E-3,-2.8660137E-3,3.0543127E-3,2.156411E-2,2.8273737E-4,-4.3362618E-4,1.3496891E-3,2.0048976E-2,-3.2661922E-4,4.449255E-3,3.025781E-3,3.1656145E-5,-1.4158641E-3,-2.4843995E-2,8.185681E-3,3.0799565E-5,-1.6364455E-2,2.9968046E-2,3.8144942E-3,5.4567183E-5,-4.9076683E-4,5.089061E-3,-6.332371E-3,5.460875E-4,6.6803037E-3,-5.156293E-3,4.5270035E-3,-7.197827E-5,-3.0377038E-2,2.9881223E-4,-1.987653E-2,-6.392954E-4,-1.2982191E-3,-5.277343E-3,-2.326255E-3,2.1104913E-2,3.639452E-2,-1.3835164E-3,6.8141865E-3,-3.408828E-4,3.5371825E-2,-4.9002445E-4,1.2900959E-2,2.8473127E-3,1.6644227E-4,-5.0909417E-3,-4.0712242E-4,-4.339703E-3,6.4715794E-3,-3.3572458E-2,2.8251988E-4,-1.8899639E-4,1.8450103E-4,3.6596197E-5,-1.3161107E-4,1.1881503E-5,2.998616E-4,4.2389413E-5,-2.9209114E-4,4.8013408E-6,1.1902415E-4,-4.3922506E-4,1.2705795E-4,-1.4131244E-7,4.3002106E-5,-2.3944664E-4,-7.509092E-5,5.3036283E-6,1.30309E-4,-1.2827967E-4,1.9009091E-4,-6.8823836E-5,2.641357E-4,-9.403658E-5,4.5868324E-4,-1.02241465E-4,-3.9019626E-5,7.8216864E-5,1.4862155E-4,-4.6408757E-5,4.832202E-5,3.6978538E-4,-4.6614394E-5,6.0121103E-5,8.155064E-4,9.481427E-5,1.0173675E-4,1.4130178E-5,-2.6826738E-6,1.0901992E-5,1.5040714E-4,-6.185798E-5,-6.602071E-5,-3.8141209E-6,-2.2561035E-5,-1.0868049E-4,-2.098653E-4,7.8345576E-5,-4.2458205E-4,1.8756771E-4],"categories":[],"categories_nodes":[],"categories_segments":[],"categories_sizes":[],"default_left":[0,0,0,0,0,0,0,0,0,0,0,0,0,0,0,0,0,0,0,0,0,0,0,0,0,0,0,0,0,0,0,0,0,0,0,0,0,0,0,0,0,0,0,0,0,0,0,0,0,0,0,0,0,0,0,0,0,0,0,0,0,0,0,0,0,0,0,0,0,0,0,0,0,0,0,0,0,0,0,0,0,0,0,0,0,0,0,0,0,0,0,0,0,0,0,0,0,0,0,0,0,0,0,0,0,0,0,0,0],"id":3,"left_children":[1,3,5,7,9,11,13,15,17,19,21,23,25,27,29,-1,31,-1,33,35,37,39,41,43,45,47,49,51,53,55,57,59,-1,61,63,65,67,69,71,73,75,-1,77,79,81,83,85,87,-1,89,91,93,95,97,99,101,103,105,107,-1,-1,-1,-1,-1,-1,-1,-1,-1,-1,-1,-1,-1,-1,-1,-1,-1,-1,-1,-1,-1,-1,-1,-1,-1,-1,-1,-1,-1,-1,-1,-1,-1,-1,-1,-1,-1,-1,-1,-1,-1,-1,-1,-1,-1,-1,-1,-1,-1,-1],"loss_changes":[8.559867E-3,1.0914572E-2,6.868759E-3,7.066211E-2,3.9762193E-3,7.582244E-3,4.0063104E-3,4.6725415E-2,5.3806035E-3,3.0175755E-3,6.6896807E-3,4.561087E-3,8.1403935E-3,9.149317E-3,7.888591E-3,0E0,8.551405E-3,0E0,4.0633697E-3,3.804374E-3,4.6640537E-3,2.8401522E-3,2.6017748E-2,1.4851965E-2,9.616294E-3,2.2863548E-3,3.3091065E-3,6.0183797E-3,6.1407755E-3,7.961469E-3,1.3900535E-2,3.1417382E-3,0E0,5.3720647E-3,1.8439365E-3,3.9138244E-3,4.325333E-3,3.386259E-3,2.209427E-3,8.898012E-4,1.5467628E-3,0E0,1.8260241E-3,6.060429E-3,8.184407E-3,3.560556E-3,4.2034257E-3,3.4554338E-4,0E0,6.55476E-4,1.365175E-4,1.4720268E-2,6.542718E-3,4.192642E-3,5.096406E-3,3.8535101E-3,7.1303733E-3,9.445769E-3,4.9812393E-3,0E0,0E0,0E0,0E0,0E0,0E0,0E0,0E0,0E0,0E0,0E0,0E0,0E0,0E0,0E0,0E0,0E0,0E0,0E0,0E0,0E0,0E0,0E0,0E0,0E0,0E0,0E0,0E0,0E0,0E0,0E0,0E0,0E0,0E0,0E0,0E0,0E0,0E0,0E0,0E0,0E0,0E0,0E0,0E0,0E0,0E0,0E0,0E0,0E0,0E0],"parents":[2147483647,0,0,1,1,2,2,3,3,4,4,5,5,6,6,7,7,8,8,9,9,10,10,11,11,12,12,13,13,14,14,16,16,18,18,19,19,20,20,21,21,22,22,23,23,24,24,25,25,26,26,27,27,28,28,29,29,30,30,31,31,33,33,34,34,35,35,36,36,37,37,38,38,39,39,40,40,42,42,43,43,44,44,45,45,46,46,47,47,49,49,50,50,51,51,52,52,53,53,54,54,55,55,56,56,57,57,58,58],"right_children":[2,4,6,8,10,12,14,16,18,20,22,24,26,28,30,-1,32,-1,34,36,38,40,42,44,46,48,50,52,54,56,58,60,-1,62,64,66,68,70,72,74,76,-1,78,80,82,84,86,88,-1,90,92,94,96,98,100,102,104,106,108,-1,-1,-1,-1,-1,-1,-1,-1,-1,-1,-1,-1,-1,-1,-1,-1,-1,-1,-1,-1,-1,-1,-1,-1,-1,-1,-1,-1,-1,-1,-1,-1,-1,-1,-1,-1,-1,-1,-1,-1,-1,-1,-1,-1,-1,-1,-1,-1,-1,-1],"split_conditions":[2.3846657E1,-3.505002E1,2.0632E1,1.7711687E2,-6.1664647E-1,5.340299E-1,-1.3945223E-1,-2.240329E1,2.031844E2,1.7197185E2,2.9374566E-2,-1.3099426E-1,-6.3492584E-1,-4.8569775E0,4.8976652E-2,1.3496891E-3,1.5354254E2,-3.2661922E-4,-7.607211E0,2.119314E1,1.368762E2,-2.9380005E1,-4.8631138E-1,-2.3711441E-1,-1.6087039E0,-1.501606E0,3.434752E-1,1.6048888E2,3.9757904E-2,3.7532423E-2,8.408351E1,1.0305223E2,5.460875E-4,2.8219507E2,-4.4547826E-2,2.3447815E1,-2.5395325E1,1.1062E2,-2.856726E1,2.2457953E2,-5.358721E-1,-1.2982191E-3,2.12106E1,3.7557125E1,7.414656E1,2.0162594E1,1.7104273E0,1.6557745E1,-3.408828E-4,-4.3502808E-1,4.5710646E-2,-1.35E1,-1.886084E1,4.523987E0,-2.2156921E1,-1.577179E1,1.0105957E1,2.335777E1,2.2593613E0,2.8251988E-4,-1.8899639E-4,1.8450103E-4,3.6596197E-5,-1.3161107E-4,1.1881503E-5,2.998616E-4,4.2389413E-5,-2.9209114E-4,4.8013408E-6,1.1902415E-4,-4.3922506E-4,1.2705795E-4,-1.4131244E-7,4.3002106E-5,-2.3944664E-4,-7.509092E-5,5.3036283E-6,1.30309E-4,-1.2827967E-4,1.9009091E-4,-6.8823836E-5,2.641357E-4,-9.403658E-5,4.5868324E-4,-1.02241465E-4,-3.9019626E-5,7.8216864E-5,1.4862155E-4,-4.6408757E-5,4.832202E-5,3.6978538E-4,-4.6614394E-5,6.0121103E-5,8.155064E-4,9.481427E-5,1.0173675E-4,1.4130178E-5,-2.6826738E-6,1.0901992E-5,1.5040714E-4,-6.185798E-5,-6.602071E-5,-3.8141209E-6,-2.2561035E-5,-1.0868049E-4,-2.098653E-4,7.8345576E-5,-4.2458205E-4,1.8756771E-4],"split_indices":[11,14,6,2,12,15,15,13,6,8,10,15,13,12,10,0,3,0,12,11,0,14,12,15,12,13,12,8,10,10,11,0,0,6,15,7,14,0,13,2,12,0,8,11,11,2,14,7,0,13,10,13,13,14,14,12,14,8,15,0,0,0,0,0,0,0,0,0,0,0,0,0,0,0,0,0,0,0,0,0,0,0,0,0,0,0,0,0,0,0,0,0,0,0,0,0,0,0,0,0,0,0,0,0,0,0,0,0,0],"split_type":[0,0,0,0,0,0,0,0,0,0,0,0,0,0,0,0,0,0,0,0,0,0,0,0,0,0,0,0,0,0,0,0,0,0,0,0,0,0,0,0,0,0,0,0,0,0,0,0,0,0,0,0,0,0,0,0,0,0,0,0,0,0,0,0,0,0,0,0,0,0,0,0,0,0,0,0,0,0,0,0,0,0,0,0,0,0,0,0,0,0,0,0,0,0,0,0,0,0,0,0,0,0,0,0,0,0,0,0,0],"sum_hessian":[3.8461E4,1.803E3,3.6658E4,2.04E2,1.599E3,3.16E2,3.6342E4,1.4E1,1.9E2,1.389E3,2.1E2,2.93E2,2.3E1,1.1353E4,2.4989E4,6E0,8E0,3E0,1.87E2,8.17E2,5.72E2,1.98E2,1.2E1,1.08E2,1.85E2,4E0,1.9E1,6.88E2,1.0665E4,2.4734E4,2.55E2,5E0,3E0,1.52E2,3.5E1,5.5E2,2.67E2,4E0,5.68E2,7E0,1.91E2,1E0,1.1E1,6E1,4.8E1,6E0,1.79E2,2E0,2E0,1.6E1,3E0,6.5E1,6.23E2,1.0439E4,2.26E2,2.4209E4,5.25E2,2.47E2,8E0,1E0,4E0,3E1,1.22E2,1.5E1,2E1,5E0,5.45E2,4E0,2.63E2,1E0,3E0,1.3E1,5.55E2,1E0,6E0,2.7E1,1.64E2,3E0,8E0,1E1,5E1,4.1E1,7E0,5E0,1E0,1.41E2,3.8E1,1E0,1E0,1E0,1.5E1,2E0,1E0,2E0,6.3E1,1.01E2,5.22E2,7.099E3,3.34E3,1.1E1,2.15E2,9.9E1,2.411E4,3.99E2,1.26E2,1.1E1,2.36E2,7E0,1E0],"tree_param":{"num_deleted":"0","num_feature":"16","num_nodes":"109","size_leaf_vector":"1"}},{"base_weights":[-2.7907938E-5,4.6650344E-3,-6.5083645E-5,2.1247052E-2,3.4808607E-3,6.0514584E-3,-9.077495E-5,2.6845384E-2,-7.8576235E-3,1.1449211E-2,1.6030608E-3,1.1403472E-3,3.9628427E-3,-3.4475943E-5,-2.0748132E-3,-3.2751737E-4,3.523147E-2,8.0445835E-7,-1.0530462E-4,2.8872464E-2,4.6292613E-3,1.0266428E-2,-4.330628E-4,1.586951E-2,3.1932234E-4,-2.5002885E-4,4.7417337E-4,-2.6676808E-3,6.4014723E-3,-5.9873815E-5,5.441519E-5,5.8273577E-5,3.71962E-2,3.4485083E-2,-5.073038E-3,1.4600707E-2,-1.6566887E-4,-1.3738788E-2,1.5982553E-2,-3.3988288E-4,1.0524337E-3,2.0357069E-2,-2.6242112E-4,-1.7751199E-3,2.3954587E-2,4.922233E-4,-5.1528565E-4,4.3535184E-2,4.5850305E-4,-7.1725645E-3,-1.1048858E-3,1.3343323E-2,-1.9478748E-2,8.729577E-5,3.8990474E-4,3.7569995E-4,1.16787094E-4,-6.743594E-5,-8.6596265E-6,2.6017753E-4,6.635602E-5,-1.4896962E-4,2.9102534E-5,-3.169855E-5,-1.8494944E-4,3.2389796E-4,2.7207241E-5,-3.1963034E-5,6.5786044E-5,2.3939357E-4,-5.2080828E-5,2.5840745E-5,-1.1979839E-4,3.1974606E-4,-5.4169905E-5,1.2035718E-5,-7.538341E-6,-3.5751925E-6,-1.614713E-5,4.7662645E-5,7.992097E-4,-2.6550904E-4,4.9280893E-6,-5.4519114E-5,-5.918607E-4,-4.2440202E-5,-4.5037136E-6,-7.9161626E-5,2.7756198E-4,6.7863984E-5,-2.9646652E-4],"categories":[],"categories_nodes":[],"categories_segments":[],"categories_sizes":[],"default_left":[0,0,0,0,0,0,0,0,0,0,0,0,0,0,0,0,0,0,0,0,0,0,0,0,0,0,0,0,0,0,0,0,0,0,0,0,0,0,0,0,0,0,0,0,0,0,0,0,0,0,0,0,0,0,0,0,0,0,0,0,0,0,0,0,0,0,0,0,0,0,0,0,0,0,0,0,0,0,0,0,0,0,0,0,0,0,0,0,0,0,0],"id":4,"left_children":[1,3,5,7,9,11,13,15,17,19,21,-1,23,25,27,29,31,-1,-1,33,35,37,39,41,43,45,47,49,51,-1,-1,-1,53,55,57,59,61,63,65,-1,67,69,-1,71,73,75,77,79,81,83,85,87,89,-1,-1,-1,-1,-1,-1,-1,-1,-1,-1,-1,-1,-1,-1,-1,-1,-1,-1,-1,-1,-1,-1,-1,-1,-1,-1,-1,-1,-1,-1,-1,-1,-1,-1,-1,-1,-1,-1],"loss_changes":[6.7260447E-3,5.875747E-3,6.0110707E-3,3.4696935E-3,4.2311293E-3,3.563378E-2,4.254558E-3,3.8854033E-3,8.5715845E-5,6.2829303E-3,4.079214E-3,0E0,6.8493173E-3,4.061215E-3,5.2986834E-3,1.9584027E-4,5.3426623E-4,0E0,0E0,3.0327905E-3,1.9149142E-3,6.2571205E-3,9.406852E-3,7.5264117E-3,6.081851E-3,5.122477E-3,7.419484E-3,6.9126016E-3,1.2656219E-2,0E0,0E0,0E0,2.7255528E-4,4.7585554E-4,1.5244761E-5,1.0095504E-3,1.3120986E-3,3.937811E-4,7.745119E-3,0E0,4.2707715E-3,3.2384582E-3,0E0,5.057689E-3,2.5288123E-3,6.072617E-3,3.3239918E-3,5.261625E-3,1.0225859E-2,2.232011E-2,1.5000077E-3,1.707229E-2,4.207117E-3,0E0,0E0,0E0,0E0,0E0,0E0,0E0,0E0,0E0,0E0,0E0,0E0,0E0,0E0,0E0,0E0,0E0,0E0,0E0,0E0,0E0,0E0,0E0,0E0,0E0,0E0,0E0,0E0,0E0,0E0,0E0,0E0,0E0,0E0,0E0,0E0,0E0,0E0],"parents":[2147483647,0,0,1,1,2,2,3,3,4,4,5,5,6,6,7,7,8,8,9,9,10,10,12,12,13,13,14,14,15,15,16,16,19,19,20,20,21,21,22,22,23,23,24,24,25,25,26,26,27,27,28,28,32,32,33,33,34,34,35,35,36,36,37,37,38,38,40,40,41,41,43,43,44,44,45,45,46,46,47,47,48,48,49,49,50,50,51,51,52,52],"right_children":[2,4,6,8,10,12,14,16,18,20,22,-1,24,26,28,30,32,-1,-1,34,36,38,40,42,44,46,48,50,52,-1,-1,-1,54,56,58,60,62,64,66,-1,68,70,-1,72,74,76,78,80,82,84,86,88,90,-1,-1,-1,-1,-1,-1,-1,-1,-1,-1,-1,-1,-1,-1,-1,-1,-1,-1,-1,-1,-1,-1,-1,-1,-1,-1,-1,-1,-1,-1,-1,-1,-1,-1,-1,-1,-1,-1],"split_conditions":[2.0632E1,-2.5353394E0,-4.249109E1,-3.6907032E-1,2.3749879E-2,2.0767728E2,2.0099976E1,1.485737E8,4.38559E8,-3.5985184E-1,1.124255E8,1.1403472E-3,-2.091396E1,3.8922577E0,1.124255E8,-7.9589844E-1,-3.1006622E0,8.0445835E-7,-1.0530462E-4,2.08415E1,1.7531725E1,-1.4135094E0,-1.4294776E0,9.59283E7,9.59283E7,-1.5695745E0,2.3464815E1,3.2871E2,6.2929993E1,-5.9873815E-5,5.441519E-5,5.8273577E-5,-3.9458923E0,3.2348824E-1,2.098E1,2.1666463E-2,1.7842442E-2,-6.3492584E-1,-5.810547E-2,-3.3988288E-4,7.8575134E-1,-4.690088E1,-2.6242112E-4,2.9374566E-2,3.5091638E2,2.3465738E2,2.1840757E-2,2.4517809E1,2.8042072E1,3.0875125E2,1.3057077E-2,3.0600433E1,2.679605E2,8.729577E-5,3.8990474E-4,3.7569995E-4,1.16787094E-4,-6.743594E-5,-8.6596265E-6,2.6017753E-4,6.635602E-5,-1.4896962E-4,2.9102534E-5,-3.169855E-5,-1.8494944E-4,3.2389796E-4,2.7207241E-5,-3.1963034E-5,6.5786044E-5,2.3939357E-4,-5.2080828E-5,2.5840745E-5,-1.1979839E-4,3.1974606E-4,-5.4169905E-5,1.2035718E-5,-7.538341E-6,-3.5751925E-6,-1.614713E-5,4.7662645E-5,7.992097E-4,-2.6550904E-4,4.9280893E-6,-5.4519114E-5,-5.918607E-4,-4.2440202E-5,-4.5037136E-6,-7.9161626E-5,2.7756198E-4,6.7863984E-5,-2.9646652E-4],"split_indices":[6,14,13,12,10,1,13,4,4,14,4,0,12,14,4,13,13,0,0,7,1,14,12,4,4,12,2,1,14,0,0,0,14,13,1,10,10,13,14,0,14,14,0,10,8,6,10,1,1,8,10,14,1,0,0,0,0,0,0,0,0,0,0,0,0,0,0,0,0,0,0,0,0,0,0,0,0,0,0,0,0,0,0,0,0,0,0,0,0,0,0],"split_type":[0,0,0,0,0,0,0,0,0,0,0,0,0,0,0,0,0,0,0,0,0,0,0,0,0,0,0,0,0,0,0,0,0,0,0,0,0,0,0,0,0,0,0,0,0,0,0,0,0,0,0,0,0,0,0,0,0,0,0,0,0,0,0,0,0,0,0,0,0,0,0,0,0,0,0,0,0,0,0,0,0,0,0,0,0,0,0,0,0,0,0],"sum_hessian":[3.855E4,3.02E2,3.8248E4,1.9E1,2.83E2,1.59E2,3.8089E4,1.6E1,3E0,5.3E1,2.3E2,2E0,1.57E2,3.7039E4,1.05E3,4E0,1.2E1,1E0,2E0,1.4E1,3.9E1,4.3E1,1.87E2,3.6E1,1.21E2,2.6015E4,1.1024E4,9.82E2,6.8E1,2E0,2E0,1E0,1.1E1,1.2E1,2E0,1.2E1,2.7E1,8E0,3.5E1,7E0,1.8E2,3.3E1,3E0,1.12E2,9E0,6.849E3,1.9166E4,3E0,1.1021E4,2.52E2,7.3E2,5.4E1,1.4E1,1E0,1E1,1E1,2E0,1E0,1E0,4E0,8E0,4E0,2.3E1,3E0,5E0,1.5E1,2E1,1.02E2,7.8E1,2.9E1,4E0,7.9E1,3.3E1,7E0,2E0,4.36E3,2.489E3,1.6762E4,2.404E3,2E0,1E0,1.3E1,1.1008E4,2.45E2,7E0,1.25E2,6.05E2,2.2E1,3.2E1,4E0,1E1],"tree_param":{"num_deleted":"0","num_feature":"16","num_nodes":"91","size_leaf_vector":"1"}},{"base_weights":[-9.259687E-6,2.1349464E-3,-1.5198505E-4,1.7824804E-3,1.2230025E-2,7.6099373E-3,-1.8194382E-4,1.8325659E-2,1.6527447E-3,1.9159133E-2,-1.9535325E-2,1.5398083E-2,3.3326943E-3,-1.6139942E-4,-4.67116E-3,2.9259278E-2,1.0012246E-3,-1.08194435E-2,1.8606189E-3,4.042748E-2,9.898172E-3,-5.8772783E-3,-5.5625636E-2,-4.2812102E-3,2.339212E-2,-1.1558775E-3,1.8349642E-2,-1.9725543E-4,3.1415902E-3,-2.5457127E-2,-2.252021E-3,3.4146864E-4,1.2169285E-2,1.2961242E-4,-8.767035E-3,2.7996164E-3,-4.9232773E-2,4.918619E-3,1.2689105E-3,5.9072305E-2,5.0762054E-3,5.3967694E-3,4.0508527E-2,9.585052E-4,-1.5639076E-2,-1.4924156E-4,-8.886503E-4,-8.547194E-3,2.7721285E-4,3.0426951E-2,7.373118E-3,-3.2318665E-3,2.689355E-2,-2.847009E-3,2.5151534E-2,1.8343874E-4,-4.635458E-4,-9.220876E-3,4.365364E-3,8.8703335E-4,-3.3631258E-2,1.6048946E-3,-1.1115737E-2,1.6772946E-4,5.043748E-5,-1.6436422E-4,1.8246972E-5,-2.4306823E-5,1.9584937E-4,-2.5999808E-4,-1.2916472E-3,2.8759066E-4,2.0051342E-5,1.0813861E-5,1.8041031E-4,8.49948E-4,1.466359E-4,1.022132E-4,-1.5469799E-4,-3.694005E-4,7.284314E-5,6.335591E-4,1.3245858E-4,-9.974643E-5,6.2653286E-5,-1.8288169E-5,-1.8634436E-4,7.3056435E-5,-1.5618894E-4,1.9216347E-4,4.697614E-4,-9.689594E-5,1.413731E-4,-1.4515092E-4,2.6069343E-5,3.1645162E-4,3.9435512E-5,-1.4571537E-4,1.3734699E-4,3.408878E-4,1.1953188E-4,5.8429472E-5,1.250604E-6,-4.344826E-5,-4.1092576E-6,4.8428068E-5,-2.0010778E-4,3.0352536E-4,3.5142664E-5,1.2632436E-4,-1.1154048E-4,-4.6860188E-4,-1.559786E-4,-5.99851E-5,5.2233576E-5,-2.6722648E-4,-6.471713E-5],"categories":[],"categories_nodes":[],"categories_segments":[],"categories_sizes":[],"default_left":[0,0,0,0,0,0,0,0,0,0,0,0,0,0,0,0,0,0,0,0,0,0,0,0,0,0,0,0,0,0,0,0,0,0,0,0,0,0,0,0,0,0,0,0,0,0,0,0,0,0,0,0,0,0,0,0,0,0,0,0,0,0,0,0,0,0,0,0,0,0,0,0,0,0,0,0,0,0,0,0,0,0,0,0,0,0,0,0,0,0,0,0,0,0,0,0,0,0,0,0,0,0,0,0,0,0,0,0,0,0,0,0,0,0,0,0,0],"id":5,"left_children":[1,3,5,7,9,11,13,15,17,19,21,23,25,27,29,31,33,35,37,39,41,43,45,47,49,51,53,55,57,59,61,-1,63,-1,65,67,69,71,73,75,77,79,81,83,85,-1,-1,87,-1,89,91,93,95,97,99,101,103,105,107,109,111,113,115,-1,-1,-1,-1,-1,-1,-1,-1,-1,-1,-1,-1,-1,-1,-1,-1,-1,-1,-1,-1,-1,-1,-1,-1,-1,-1,-1,-1,-1,-1,-1,-1,-1,-1,-1,-1,-1,-1,-1,-1,-1,-1,-1,-1,-1,-1,-1,-1,-1,-1,-1,-1,-1,-1],"loss_changes":[1.1798187E-2,8.539164E-3,8.406688E-3,4.9618683E-3,1.8202828E-2,4.5790216E-3,3.3201985E-3,3.3802427E-3,6.006553E-3,1.2796519E-2,7.066919E-3,7.8086816E-3,6.155033E-3,4.245814E-3,8.189269E-3,5.032746E-4,1.0482601E-3,2.0017665E-2,4.1048173E-3,1.2882501E-2,6.3952818E-3,8.157446E-4,4.085336E-3,2.2847713E-3,3.7198402E-3,4.221268E-3,3.0993302E-3,3.594951E-3,5.864865E-3,3.6906227E-3,5.077458E-3,0E0,4.661578E-5,0E0,4.3615198E-4,2.59358E-3,1.5212303E-2,2.550317E-2,5.9720622E-3,1.3719074E-2,1.0038143E-3,3.7053265E-3,2.8980812E-3,5.2665675E-4,1.7275452E-4,0E0,0E0,1.6835973E-3,0E0,3.549926E-3,1.5219704E-3,4.4518337E-3,4.2045326E-4,1.3666119E-3,1.4798418E-3,4.8216814E-3,4.25974E-3,5.40801E-3,7.656619E-3,8.4803964E-4,2.3703948E-3,2.8926467E-3,3.0886075E-3,0E0,0E0,0E0,0E0,0E0,0E0,0E0,0E0,0E0,0E0,0E0,0E0,0E0,0E0,0E0,0E0,0E0,0E0,0E0,0E0,0E0,0E0,0E0,0E0,0E0,0E0,0E0,0E0,0E0,0E0,0E0,0E0,0E0,0E0,0E0,0E0,0E0,0E0,0E0,0E0,0E0,0E0,0E0,0E0,0E0,0E0,0E0,0E0,0E0,0E0,0E0,0E0,0E0,0E0],"parents":[2147483647,0,0,1,1,2,2,3,3,4,4,5,5,6,6,7,7,8,8,9,9,10,10,11,11,12,12,13,13,14,14,15,15,16,16,17,17,18,18,19,19,20,20,21,21,22,22,23,23,24,24,25,25,26,26,27,27,28,28,29,29,30,30,32,32,34,34,35,35,36,36,37,37,38,38,39,39,40,40,41,41,42,42,43,43,44,44,47,47,49,49,50,50,51,51,52,52,53,53,54,54,55,55,56,56,57,57,58,58,59,59,60,60,61,61,62,62],"right_children":[2,4,6,8,10,12,14,16,18,20,22,24,26,28,30,32,34,36,38,40,42,44,46,48,50,52,54,56,58,60,62,-1,64,-1,66,68,70,72,74,76,78,80,82,84,86,-1,-1,88,-1,90,92,94,96,98,100,102,104,106,108,110,112,114,116,-1,-1,-1,-1,-1,-1,-1,-1,-1,-1,-1,-1,-1,-1,-1,-1,-1,-1,-1,-1,-1,-1,-1,-1,-1,-1,-1,-1,-1,-1,-1,-1,-1,-1,-1,-1,-1,-1,-1,-1,-1,-1,-1,-1,-1,-1,-1,-1,-1,-1,-1,-1,-1,-1],"split_conditions":[2.5869287E1,3.9757904E-2,1.7531725E1,2.0632E1,2.7732E2,-1.508442E-1,6.2929993E1,3.549683E-2,3.1620857E1,-2.240329E1,2.2517289E-1,-2.692473E-1,2.757387E-1,4.8976652E-2,2.5508261E2,2.9369175E-1,-1.0545311E0,2.9374566E-2,-2.7418213E1,2.1901333E1,-3.8392105E0,-1.7730042E1,3.251612E2,2.1465454E0,6.025696E-1,4.5710646E-2,-1.3443985E0,-7.3815465E-2,2.335777E1,7.286524E1,1.1022185E-1,3.4146864E-4,2.2614145E1,1.2961242E-4,2.3260368E1,3.0031109E1,2.77086E1,1.9793694E2,3.549683E-2,5.2735403E-2,3.570003E2,2.3447815E1,2.3447815E1,-4.5016053E-1,3.157346E2,-1.4924156E-4,-8.886503E-4,2.3749879E-2,2.7721285E-4,5.918017E1,6.429596E-1,4.023478E1,-7.9589844E-1,3.889182E1,5.860262E1,2.7249916E1,-2.9380005E1,3.2348824E-1,3.4798244E1,2.94074E2,-7.929548E-2,3.4299988E1,3.570003E2,1.6772946E-4,5.043748E-5,-1.6436422E-4,1.8246972E-5,-2.4306823E-5,1.9584937E-4,-2.5999808E-4,-1.2916472E-3,2.8759066E-4,2.0051342E-5,1.0813861E-5,1.8041031E-4,8.49948E-4,1.466359E-4,1.022132E-4,-1.5469799E-4,-3.694005E-4,7.284314E-5,6.335591E-4,1.3245858E-4,-9.974643E-5,6.2653286E-5,-1.8288169E-5,-1.8634436E-4,7.3056435E-5,-1.5618894E-4,1.9216347E-4,4.697614E-4,-9.689594E-5,1.413731E-4,-1.4515092E-4,2.6069343E-5,3.1645162E-4,3.9435512E-5,-1.4571537E-4,1.3734699E-4,3.408878E-4,1.1953188E-4,5.8429472E-5,1.250604E-6,-4.344826E-5,-4.1092576E-6,4.8428068E-5,-2.0010778E-4,3.0352536E-4,3.5142664E-5,1.2632436E-4,-1.1154048E-4,-4.6860188E-4,-1.559786E-4,-5.99851E-5,5.2233576E-5,-2.6722648E-4,-6.471713E-5],"split_indices":[11,10,1,6,2,15,14,10,8,13,15,15,15,10,7,15,13,10,14,11,14,13,0,14,13,10,14,15,8,11,15,0,11,0,11,7,0,6,10,10,8,7,7,15,6,0,0,10,0,11,13,11,13,11,11,2,14,13,5,5,15,13,8,0,0,0,0,0,0,0,0,0,0,0,0,0,0,0,0,0,0,0,0,0,0,0,0,0,0,0,0,0,0,0,0,0,0,0,0,0,0,0,0,0,0,0,0,0,0,0,0,0,0,0,0,0,0],"split_type":[0,0,0,0,0,0,0,0,0,0,0,0,0,0,0,0,0,0,0,0,0,0,0,0,0,0,0,0,0,0,0,0,0,0,0,0,0,0,0,0,0,0,0,0,0,0,0,0,0,0,0,0,0,0,0,0,0,0,0,0,0,0,0,0,0,0,0,0,0,0,0,0,0,0,0,0,0,0,0,0,0,0,0,0,0,0,0,0,0,0,0,0,0,0,0,0,0,0,0,0,0,0,0,0,0,0,0,0,0,0,0,0,0,0,0,0,0],"sum_hessian":[3.855E4,2.405E3,3.6145E4,2.325E3,8E1,1.38E2,3.6007E4,1.7E1,2.308E3,6.6E1,1.4E1,4.8E1,9E1,3.5844E4,1.63E2,1E1,7E0,3.7E1,2.271E3,1.9E1,4.7E1,1.1E1,3E0,1.4E1,3.4E1,7E1,2E1,3.546E4,3.84E2,1.6E1,1.47E2,7E0,3E0,3E0,4E0,2.8E1,9E0,3.67E2,1.904E3,1.2E1,7E0,4.2E1,5E0,7E0,4E0,2E0,1E0,1.3E1,1E0,2.3E1,1.1E1,6.6E1,4E0,5E0,1.5E1,1.4595E4,2.0865E4,3.4E1,3.5E2,4E0,1.2E1,1.03E2,4.4E1,1E0,2E0,2E0,2E0,2.2E1,6E0,8E0,1E0,3.9E1,3.28E2,1.884E3,2E1,7E0,5E0,6E0,1E0,1E0,4.1E1,2E0,3E0,2E0,5E0,1E0,3E0,4E0,9E0,1.5E1,8E0,3E0,8E0,2.2E1,4.4E1,3E0,1E0,3E0,2E0,8E0,7E0,1.48E2,1.4447E4,2.78E2,2.0587E4,1.5E1,1.9E1,1E1,3.4E2,2E0,2E0,6E0,6E0,3.3E1,7E1,9E0,3.5E1],"tree_param":{"num_deleted":"0","num_feature":"16","num_nodes":"117","size_leaf_vector":"1"}},{"base_weights":[-3.9573995E-5,2.573658E-3,-1.6787353E-4,1.7996653E-3,9.871127E-3,2.9034258E-3,-2.1552888E-4,2.2920778E-3,-7.261044E-3,1.3631369E-2,-7.0059146E-3,3.476734E-3,-3.251838E-2,-2.3206334E-4,1.0601626E-2,1.3379363E-3,6.663835E-3,-4.0381723E-3,-4.8485346E-2,3.393339E-2,5.8118524E-3,-1.0177231E-3,-3.9138604E-2,8.28425E-3,1.2731006E-3,7.1497016E-5,-3.83706E-2,1.936708E-4,-5.2419084E-4,6.845043E-3,5.678679E-2,-6.5891555E-4,2.2365882E-3,1.1610102E-2,3.6518376E-3,1.9248003E-2,-7.3070806E-3,8.616244E-3,-1.0845902E-1,1.1785279E-1,2.097538E-2,1.07756825E-2,-5.0440202E-3,-1.33601455E-2,5.531853E-3,-6.252523E-2,-2.705777E-5,6.6273557E-3,4.1629292E-2,1.9093083E-3,-2.8469697E-2,-5.203226E-5,-4.236548E-2,2.9059032E-3,-2.9088214E-5,-5.6891394E-4,4.3264814E-3,9.304517E-3,-2.4994774E-2,1.215547E-3,-5.3207427E-3,-2.878158E-6,-2.9472914E-4,7.8440335E-6,4.0451363E-5,2.4127364E-4,4.3374745E-5,-2.37598E-6,9.1111506E-5,2.4135424E-4,-1.2369387E-4,1.0745228E-4,-1.0854888E-4,1.1106655E-4,5.7250495E-6,-1.2851891E-3,-3.416962E-4,1.3328184E-3,2.806829E-4,9.0344733E-4,1.4033457E-4,2.7952966E-4,6.443654E-5,-3.1327433E-4,1.1466856E-4,8.828605E-6,-1.9590413E-4,1.58318E-4,-1.7957658E-5,-5.367138E-5,-8.84207E-4,-3.29108E-5,9.1130656E-5,1.5229113E-4,1.1321526E-3,1.4843386E-5,3.2805215E-4,-3.971543E-5,-6.7976105E-4,-4.5422057E-4,-1.20130055E-4,2.7419503E-5,9.244679E-4,-7.106701E-5,1.9372706E-7,-4.629304E-6,-4.298235E-5,1.4233614E-4,-2.6892076E-5,-1.5316322E-4,1.2450438E-4,-3.2818338E-4,-7.620364E-6,1.21357625E-4,-2.0116876E-4],"categories":[],"categories_nodes":[],"categories_segments":[],"categories_sizes":[],"default_left":[0,0,0,0,0,0,0,0,0,0,0,0,0,0,0,0,0,0,0,0,0,0,0,0,0,0,0,0,0,0,0,0,0,0,0,0,0,0,0,0,0,0,0,0,0,0,0,0,0,0,0,0,0,0,0,0,0,0,0,0,0,0,0,0,0,0,0,0,0,0,0,0,0,0,0,0,0,0,0,0,0,0,0,0,0,0,0,0,0,0,0,0,0,0,0,0,0,0,0,0,0,0,0,0,0,0,0,0,0,0,0,0,0,0,0],"id":6,"left_children":[1,3,5,7,9,11,13,15,17,19,21,23,25,27,29,31,33,35,37,39,41,43,45,47,49,-1,51,53,55,57,59,61,63,65,67,69,71,73,75,77,79,81,83,85,87,89,-1,91,93,95,97,-1,99,101,103,105,107,109,111,-1,113,-1,-1,-1,-1,-1,-1,-1,-1,-1,-1,-1,-1,-1,-1,-1,-1,-1,-1,-1,-1,-1,-1,-1,-1,-1,-1,-1,-1,-1,-1,-1,-1,-1,-1,-1,-1,-1,-1,-1,-1,-1,-1,-1,-1,-1,-1,-1,-1,-1,-1,-1,-1,-1,-1],"loss_changes":[1.2867001E-2,1.0126381E-2,5.354761E-3,7.266752E-3,1.1010924E-2,1.1465011E-2,6.4453823E-3,6.4231893E-3,1.0964502E-2,2.218682E-2,6.1175018E-3,5.82675E-3,2.3636576E-3,4.4735176E-3,9.153703E-3,2.2750732E-3,4.0694894E-3,6.1541563E-3,2.1482062E-2,3.99377E-2,5.6046834E-3,2.33736E-3,4.0910244E-3,9.282226E-3,7.2260224E-3,0E0,8.395603E-4,8.843986E-3,4.6301642E-3,4.304643E-3,1.6737059E-2,4.204507E-3,2.2922535E-3,9.362821E-3,3.675586E-3,1.8438145E-3,4.5998655E-3,7.3770265E-5,7.927045E-5,3.1854585E-3,1.5586634E-2,5.103167E-3,1.46799795E-2,9.04673E-4,1.4624379E-3,3.9658416E-3,0E0,4.1226144E-3,1.33948885E-2,4.8356005E-3,7.472703E-3,0E0,1.037661E-4,1.6056538E-2,4.640074E-3,8.352734E-3,1.3591823E-2,3.986E-3,7.333369E-4,0E0,1.019E-3,0E0,0E0,0E0,0E0,0E0,0E0,0E0,0E0,0E0,0E0,0E0,0E0,0E0,0E0,0E0,0E0,0E0,0E0,0E0,0E0,0E0,0E0,0E0,0E0,0E0,0E0,0E0,0E0,0E0,0E0,0E0,0E0,0E0,0E0,0E0,0E0,0E0,0E0,0E0,0E0,0E0,0E0,0E0,0E0,0E0,0E0,0E0,0E0,0E0,0E0,0E0,0E0,0E0,0E0],"parents":[2147483647,0,0,1,1,2,2,3,3,4,4,5,5,6,6,7,7,8,8,9,9,10,10,11,11,12,12,13,13,14,14,15,15,16,16,17,17,18,18,19,19,20,20,21,21,22,22,23,23,24,24,26,26,27,27,28,28,29,29,30,30,31,31,32,32,33,33,34,34,35,35,36,36,37,37,38,38,39,39,40,40,41,41,42,42,43,43,44,44,45,45,47,47,48,48,49,49,50,50,52,52,53,53,54,54,55,55,56,56,57,57,58,58,60,60],"right_children":[2,4,6,8,10,12,14,16,18,20,22,24,26,28,30,32,34,36,38,40,42,44,46,48,50,-1,52,54,56,58,60,62,64,66,68,70,72,74,76,78,80,82,84,86,88,90,-1,92,94,96,98,-1,100,102,104,106,108,110,112,-1,114,-1,-1,-1,-1,-1,-1,-1,-1,-1,-1,-1,-1,-1,-1,-1,-1,-1,-1,-1,-1,-1,-1,-1,-1,-1,-1,-1,-1,-1,-1,-1,-1,-1,-1,-1,-1,-1,-1,-1,-1,-1,-1,-1,-1,-1,-1,-1,-1,-1,-1,-1,-1,-1,-1],"split_conditions":[2.3846657E1,3.1291623E-2,2.77086E1,6.80394E7,2.8014383E2,4.4098816E0,5.44514E8,2.0394156E-2,8.4488237E-1,-3.505002E1,4.5710646E-2,2.5175298E-2,-4.648155E-1,-7.676091E-2,9.8355454E-1,4.4348E6,-4.67999E0,2.0629654E1,2.6863279E-2,1.708078E2,1.028058E8,3.0318823E2,3.7641406E2,2.4961263E-2,1.3463289E0,7.1497016E-5,2.3941017E1,-4.3017964E0,4.8976652E-2,1.1412022E2,3.1530437E1,2.005049E-2,7.1721375E-2,1.8442197E2,2.41955E7,-5.104656E-1,-3.1874512E1,3.0036577E1,3.1530437E1,7.11966E7,-4.0812472E-1,-7.607211E0,-8.485757E-2,2.119314E1,5.260205E-2,3.3426E2,-2.705777E-5,-2.2070633E-1,2.3941017E1,1.0441653E0,4.139217E-2,-5.203226E-5,1.3604507E0,4.38559E8,2.4854702E1,3.479776E-2,1.6872519E2,3.0033213E1,1.1321912E2,1.215547E-3,3.9596325E1,-2.878158E-6,-2.9472914E-4,7.8440335E-6,4.0451363E-5,2.4127364E-4,4.3374745E-5,-2.37598E-6,9.1111506E-5,2.4135424E-4,-1.2369387E-4,1.0745228E-4,-1.0854888E-4,1.1106655E-4,5.7250495E-6,-1.2851891E-3,-3.416962E-4,1.3328184E-3,2.806829E-4,9.0344733E-4,1.4033457E-4,2.7952966E-4,6.443654E-5,-3.1327433E-4,1.1466856E-4,8.828605E-6,-1.9590413E-4,1.58318E-4,-1.7957658E-5,-5.367138E-5,-8.84207E-4,-3.29108E-5,9.1130656E-5,1.5229113E-4,1.1321526E-3,1.4843386E-5,3.2805215E-4,-3.971543E-5,-6.7976105E-4,-4.5422057E-4,-1.20130055E-4,2.7419503E-5,9.244679E-4,-7.106701E-5,1.9372706E-7,-4.629304E-6,-4.298235E-5,1.4233614E-4,-2.6892076E-5,-1.5316322E-4,1.2450438E-4,-3.2818338E-4,-7.620364E-6,1.21357625E-4,-2.0116876E-4],"split_indices":[11,10,0,4,0,14,4,10,15,14,10,10,15,15,15,4,12,3,10,8,4,3,0,10,15,0,0,12,10,3,0,10,15,0,4,12,14,0,0,4,15,12,15,11,15,0,0,15,0,15,10,0,12,4,11,10,3,5,0,0,0,0,0,0,0,0,0,0,0,0,0,0,0,0,0,0,0,0,0,0,0,0,0,0,0,0,0,0,0,0,0,0,0,0,0,0,0,0,0,0,0,0,0,0,0,0,0,0,0,0,0,0,0,0,0],"split_type":[0,0,0,0,0,0,0,0,0,0,0,0,0,0,0,0,0,0,0,0,0,0,0,0,0,0,0,0,0,0,0,0,0,0,0,0,0,0,0,0,0,0,0,0,0,0,0,0,0,0,0,0,0,0,0,0,0,0,0,0,0,0,0,0,0,0,0,0,0,0,0,0,0,0,0,0,0,0,0,0,0,0,0,0,0,0,0,0,0,0,0,0,0,0,0,0,0,0,0,0,0,0,0,0,0,0,0,0,0,0,0,0,0,0,0],"sum_hessian":[3.8375E4,1.795E3,3.658E4,1.624E3,1.71E2,5.58E2,3.6022E4,1.541E3,8.3E1,1.4E2,3.1E1,5.5E2,8E0,3.5968E4,5.4E1,1.266E3,2.75E2,7.8E1,5E0,3.8E1,1.02E2,2.7E1,4E0,1.72E2,3.78E2,1E0,7E0,1.4637E4,2.1331E4,5.1E1,3E0,3.93E2,8.73E2,1.03E2,1.72E2,9E0,6.9E1,3E0,2E0,4E0,3.4E1,7E1,3.2E1,9E0,1.8E1,2E0,2E0,1.65E2,7E0,3.71E2,7E0,1E0,6E0,1.11E3,1.3527E4,2.1137E4,1.94E2,4.8E1,3E0,1E0,2E0,3.89E2,4E0,4.85E2,3.88E2,3.7E1,6.6E1,1.01E2,7.1E1,8E0,1E0,1.1E1,5.8E1,2E0,1E0,1E0,1E0,3E0,1E0,2E0,3.2E1,1.3E1,5.7E1,1.2E1,2E1,3E0,6E0,7E0,1.1E1,1E0,1E0,3.3E1,1.32E2,6E0,1E0,3.67E2,4E0,5E0,2E0,5E0,1E0,1.109E3,1E0,9.1E1,1.3436E4,2.0554E4,5.83E2,8E1,1.14E2,5E0,4.3E1,2E0,1E0,1E0,1E0],"tree_param":{"num_deleted":"0","num_feature":"16","num_nodes":"115","size_leaf_vector":"1"}},{"base_weights":[-2.5772462E-5,6.1172E-3,-7.508777E-5,2.576322E-2,4.658372E-3,1.5579417E-3,-1.8999376E-4,3.1872924E-2,-1.624263E-4,-2.6652971E-2,5.536345E-3,7.8185955E-3,8.4158964E-4,-2.1004252E-4,8.859729E-3,-1.0623228E-4,3.5192885E-2,-6.648412E-5,6.377701E-5,-2.8385876E-3,-3.4118E-2,3.964112E-3,2.2141656E-2,5.2468006E-2,2.5886272E-3,1.3094961E-3,-9.704821E-3,-1.8607092E-4,-5.8443574E-3,2.6189515E-2,4.38885E-3,5.41112E-4,2.666472E-2,3.338184E-5,-7.596065E-5,-4.4263454E-4,-1.7979408E-4,2.0108687E-2,2.7367517E-3,2.721866E-2,-1.0048036E-2,9.734802E-2,3.5009526E-2,4.702582E-3,-3.6896241E-3,6.3906534E-4,5.652326E-3,-1.1329966E-2,7.234195E-4,-4.4432658E-4,3.3797036E-4,-3.8342297E-2,-1.9780973E-3,8.164866E-4,1.7048994E-2,1.1932879E-3,4.1857827E-2,1.3737787E-4,3.945651E-4,2.8734194E-4,1.0334861E-4,5.5777535E-5,-4.9979117E-5,-4.5362536E-5,2.903322E-4,-8.7677034E-7,-1.9964557E-4,2.037452E-4,1.0678119E-3,7.949007E-4,1.6141226E-4,7.734356E-5,-1.8239112E-5,-2.102053E-4,5.0680694E-5,7.954904E-6,-6.741331E-5,-1.5907217E-4,6.725446E-5,-3.5181982E-4,-4.0857172E-5,-3.0078052E-6,-1.9789359E-5,2.864699E-6,1.5001079E-4,-4.6500115E-4,-1.1095064E-4,1.1643712E-5,-1.107963E-4,2.69269E-4,-8.0921935E-5,-2.3037675E-4,4.3122407E-5,1.2094692E-3,-8.151178E-5],"categories":[],"categories_nodes":[],"categories_segments":[],"categories_sizes":[],"default_left":[0,0,0,0,0,0,0,0,0,0,0,0,0,0,0,0,0,0,0,0,0,0,0,0,0,0,0,0,0,0,0,0,0,0,0,0,0,0,0,0,0,0,0,0,0,0,0,0,0,0,0,0,0,0,0,0,0,0,0,0,0,0,0,0,0,0,0,0,0,0,0,0,0,0,0,0,0,0,0,0,0,0,0,0,0,0,0,0,0,0,0,0,0,0,0],"id":7,"left_children":[1,3,5,7,9,11,13,15,17,19,21,23,25,27,29,-1,31,-1,-1,33,35,37,39,41,43,45,47,49,51,53,55,-1,57,-1,-1,-1,-1,59,61,63,65,67,69,71,73,75,77,79,-1,81,83,85,87,-1,89,91,93,-1,-1,-1,-1,-1,-1,-1,-1,-1,-1,-1,-1,-1,-1,-1,-1,-1,-1,-1,-1,-1,-1,-1,-1,-1,-1,-1,-1,-1,-1,-1,-1,-1,-1,-1,-1,-1,-1],"loss_changes":[1.1677987E-2,8.678654E-3,7.176023E-3,3.3315364E-3,8.037335E-3,1.126829E-2,6.4841956E-3,2.7723182E-3,2.5449746E-4,1.325354E-3,7.222303E-3,6.0111057E-2,1.1150404E-2,4.8139263E-3,6.0059302E-3,0E0,1.1385567E-3,0E0,0E0,1.13514616E-4,1.8656952E-4,5.0374772E-3,4.195747E-3,1.7747387E-2,3.0964413E-3,6.291195E-3,1.3620065E-2,4.8046E-3,1.8896624E-2,6.71878E-3,7.6130554E-3,0E0,1.6076174E-3,0E0,0E0,0E0,0E0,1.2205117E-3,5.3016837E-3,1.3417462E-3,3.9333798E-4,2.9071048E-3,1.634165E-2,3.4570184E-3,9.06148E-3,2.168856E-3,6.793284E-3,1.62713E-2,0E0,5.2380534E-3,8.846141E-3,3.040526E-3,3.9026754E-3,0E0,3.9430317E-3,4.6338574E-3,2.0761695E-2,0E0,0E0,0E0,0E0,0E0,0E0,0E0,0E0,0E0,0E0,0E0,0E0,0E0,0E0,0E0,0E0,0E0,0E0,0E0,0E0,0E0,0E0,0E0,0E0,0E0,0E0,0E0,0E0,0E0,0E0,0E0,0E0,0E0,0E0,0E0,0E0,0E0,0E0],"parents":[2147483647,0,0,1,1,2,2,3,3,4,4,5,5,6,6,7,7,8,8,9,9,10,10,11,11,12,12,13,13,14,14,16,16,19,19,20,20,21,21,22,22,23,23,24,24,25,25,26,26,27,27,28,28,29,29,30,30,32,32,37,37,38,38,39,39,40,40,41,41,42,42,43,43,44,44,45,45,46,46,47,47,49,49,50,50,51,51,52,52,54,54,55,55,56,56],"right_children":[2,4,6,8,10,12,14,16,18,20,22,24,26,28,30,-1,32,-1,-1,34,36,38,40,42,44,46,48,50,52,54,56,-1,58,-1,-1,-1,-1,60,62,64,66,68,70,72,74,76,78,80,-1,82,84,86,88,-1,90,92,94,-1,-1,-1,-1,-1,-1,-1,-1,-1,-1,-1,-1,-1,-1,-1,-1,-1,-1,-1,-1,-1,-1,-1,-1,-1,-1,-1,-1,-1,-1,-1,-1,-1,-1,-1,-1,-1,-1],"split_conditions":[2.0632E1,-2.5353394E0,2.6335918E1,1.5600133E-1,-2.2938232E0,-3.505002E1,5.44514E8,-3.48785E-1,3.448935E-2,2.4343855E1,5.340299E-1,1.8899E2,8.94181E7,6.2929993E1,-7.476578E-1,-1.0623228E-4,-1.6087039E0,-6.648412E-5,6.377701E-5,3.5862267E-2,3.0279947E1,3.1561317E1,4.7498754E-1,-2.4051768E-1,2.5815785E-1,3.07187E7,-2.912075E0,3.8922577E0,2.5402744E2,2.5341766E-2,9.8355454E-1,5.41112E-4,-3.010128E0,3.338184E-5,-7.596065E-5,-4.4263454E-4,-1.7979408E-4,-5.8363266E-2,3.8617376E-2,-1.8182793E0,1.6708204E1,1.10594635E1,1.5817456E2,-9.58275E0,3.739238E-1,2.8383E7,-3.267309E-1,4.127428E1,7.234195E-4,2.7977882E-2,6.898199E-2,9.06189E1,1.293164E-1,8.164866E-4,4.0669277E1,-2.520574E-1,2.2219272E-2,1.3737787E-4,3.945651E-4,2.8734194E-4,1.0334861E-4,5.5777535E-5,-4.9979117E-5,-4.5362536E-5,2.903322E-4,-8.7677034E-7,-1.9964557E-4,2.037452E-4,1.0678119E-3,7.949007E-4,1.6141226E-4,7.734356E-5,-1.8239112E-5,-2.102053E-4,5.0680694E-5,7.954904E-6,-6.741331E-5,-1.5907217E-4,6.725446E-5,-3.5181982E-4,-4.0857172E-5,-3.0078052E-6,-1.9789359E-5,2.864699E-6,1.5001079E-4,-4.6500115E-4,-1.1095064E-4,1.1643712E-5,-1.107963E-4,2.69269E-4,-8.0921935E-5,-2.3037675E-4,4.3122407E-5,1.2094692E-3,-8.151178E-5],"split_indices":[6,14,11,15,14,14,4,15,9,11,15,3,4,14,14,0,12,0,0,9,11,11,12,15,15,4,14,14,8,9,15,0,14,0,0,0,0,15,10,14,8,11,8,12,15,4,15,0,0,9,9,11,15,0,11,12,9,0,0,0,0,0,0,0,0,0,0,0,0,0,0,0,0,0,0,0,0,0,0,0,0,0,0,0,0,0,0,0,0,0,0,0,0,0,0],"split_type":[0,0,0,0,0,0,0,0,0,0,0,0,0,0,0,0,0,0,0,0,0,0,0,0,0,0,0,0,0,0,0,0,0,0,0,0,0,0,0,0,0,0,0,0,0,0,0,0,0,0,0,0,0,0,0,0,0,0,0,0,0,0,0,0,0,0,0,0,0,0,0,0,0,0,0,0,0,0,0,0,0,0,0,0,0,0,0,0,0,0,0,0,0,0,0],"sum_hessian":[3.8546E4,3.06E2,3.824E4,2E1,2.86E2,2.513E3,3.5727E4,1.6E1,4E0,7E0,2.79E2,2.57E2,2.256E3,3.5649E4,7.8E1,1E0,1.5E1,2E0,2E0,2E0,5E0,2.56E2,2.3E1,2.6E1,2.31E2,2.161E3,9.5E1,3.5499E4,1.5E2,1.5E1,6.3E1,3E0,1.2E1,1E0,1E0,2E0,3E0,1.7E1,2.39E2,2E1,3E0,6E0,2E1,1.73E2,5.8E1,1.873E3,2.88E2,9.4E1,1E0,2.378E4,1.1719E4,1.5E1,1.35E2,1E0,1.4E1,5.9E1,4E0,7E0,5E0,8E0,9E0,1.75E2,6.4E1,1E0,1.9E1,2E0,1E0,1E0,5E0,5E0,1.5E1,1.18E2,5.5E1,1.9E1,3.9E1,1.835E3,3.8E1,1.3E1,2.75E2,2.1E1,7.3E1,2.1747E4,2.033E3,1.1679E4,4E1,1.1E1,4E0,1.01E2,3.4E1,1E1,4E0,6E0,5.3E1,1E0,3E0],"tree_param":{"num_deleted":"0","num_feature":"16","num_nodes":"95","size_leaf_vector":"1"}},{"base_weights":[1.2608837E-5,2.135373E-3,-1.2886993E-4,1.5006218E-3,8.254361E-3,-2.0103857E-4,2.1345988E-3,5.2550505E-3,8.877524E-4,1.33231245E-2,-1.727051E-3,2.943428E-4,-4.6277008E-4,2.3586352E-3,-2.9189276E-2,7.0290156E-2,4.379158E-3,1.1824092E-3,-1.0128882E-2,2.510641E-2,1.2050867E-3,1.7709797E-2,-6.715156E-3,2.5509382E-3,1.4733333E-4,-7.883026E-3,-4.2399234E-4,3.1039603E-2,2.1220436E-3,-2.3214947E-3,-4.4845644E-4,1.9997872E-4,8.038829E-4,7.817946E-4,9.358324E-3,2.3398452E-2,1.0474126E-3,-2.5681609E-3,-3.9358877E-2,3.9458577E-2,8.063486E-3,1.721009E-2,-1.1780038E-2,4.184566E-2,8.921086E-3,5.5351516E-4,-3.4155034E-2,6.342726E-3,2.5557066E-4,1.8862757E-4,-6.1537046E-3,2.5849627E-2,-9.589279E-3,5.9304945E-3,-4.539569E-4,1.400761E-2,6.0434383E-4,8.188314E-3,1.2729551E-3,1.6865179E-5,-4.2196712E-5,-4.392105E-5,4.8096183E-5,2.3884421E-4,7.9126374E-5,2.790961E-4,-1.0856571E-4,1.2817469E-5,-5.6139917E-5,2.5076323E-4,-5.4873435E-5,-5.165406E-4,-8.0025915E-5,7.01573E-4,1.9049419E-4,-4.3194115E-5,2.381207E-4,5.683665E-4,8.41804E-5,-1.863979E-4,9.246518E-5,8.733099E-5,4.9972144E-4,1.2599234E-4,-2.5045576E-5,5.0345636E-5,-1.1328792E-4,-3.899754E-4,1.19775286E-4,2.0763338E-4,4.521916E-5,8.287935E-6,-3.237843E-4,-1.4923172E-5,2.939952E-6,-1.2668737E-4,7.0372625E-6,3.2747496E-4,8.03593E-5,-4.4004293E-5,-1.3719928E-4,9.4010014E-5,-7.153141E-5,-3.870768E-6,-2.9923222E-5,-1.4270841E-5,1.6817906E-4,4.585136E-5,2.648713E-4,-1.3750975E-4,1.8185017E-5],"categories":[],"categories_nodes":[],"categories_segments":[],"categories_sizes":[],"default_left":[0,0,0,0,0,0,0,0,0,0,0,0,0,0,0,0,0,0,0,0,0,0,0,0,0,0,0,0,0,0,0,0,0,0,0,0,0,0,0,0,0,0,0,0,0,0,0,0,0,0,0,0,0,0,0,0,0,0,0,0,0,0,0,0,0,0,0,0,0,0,0,0,0,0,0,0,0,0,0,0,0,0,0,0,0,0,0,0,0,0,0,0,0,0,0,0,0,0,0,0,0,0,0,0,0,0,0,0,0,0,0],"id":8,"left_children":[1,3,5,7,9,11,13,15,17,19,21,23,25,27,29,31,33,35,37,39,41,43,45,47,49,51,53,55,57,59,-1,-1,-1,61,63,65,67,69,71,73,75,77,79,81,83,85,87,89,91,93,95,97,99,101,103,105,-1,107,109,-1,-1,-1,-1,-1,-1,-1,-1,-1,-1,-1,-1,-1,-1,-1,-1,-1,-1,-1,-1,-1,-1,-1,-1,-1,-1,-1,-1,-1,-1,-1,-1,-1,-1,-1,-1,-1,-1,-1,-1,-1,-1,-1,-1,-1,-1,-1,-1,-1,-1,-1,-1],"loss_changes":[1.1569134E-2,9.336485E-3,5.899866E-3,5.0160605E-3,1.145712E-2,4.538129E-3,7.900587E-3,1.7123103E-2,6.104956E-3,2.1388289E-2,7.584308E-3,4.0136892E-3,6.586208E-3,7.4594473E-3,3.261106E-3,4.2383932E-4,5.419981E-3,5.460829E-3,1.0727913E-2,1.8271651E-2,1.5789757E-2,3.0206619E-3,1.2384896E-2,6.4390036E-3,2.9572546E-3,7.0970976E-3,4.340788E-3,3.6593257E-3,5.660608E-3,3.7548216E-5,0E0,0E0,0E0,3.7097263E-3,2.478036E-3,2.002831E-3,2.8466466E-3,3.3655746E-3,3.4419456E-3,2.4351478E-2,7.123326E-3,1.1367103E-2,6.230307E-3,6.399434E-4,5.778832E-4,2.7192957E-3,3.3712592E-3,7.231866E-3,8.669265E-3,1.999738E-3,3.314968E-3,4.741028E-4,2.3830235E-3,4.92578E-3,3.8486272E-3,3.27633E-4,0E0,8.779627E-3,7.950786E-3,0E0,0E0,0E0,0E0,0E0,0E0,0E0,0E0,0E0,0E0,0E0,0E0,0E0,0E0,0E0,0E0,0E0,0E0,0E0,0E0,0E0,0E0,0E0,0E0,0E0,0E0,0E0,0E0,0E0,0E0,0E0,0E0,0E0,0E0,0E0,0E0,0E0,0E0,0E0,0E0,0E0,0E0,0E0,0E0,0E0,0E0,0E0,0E0,0E0,0E0,0E0,0E0],"parents":[2147483647,0,0,1,1,2,2,3,3,4,4,5,5,6,6,7,7,8,8,9,9,10,10,11,11,12,12,13,13,14,14,15,15,16,16,17,17,18,18,19,19,20,20,21,21,22,22,23,23,24,24,25,25,26,26,27,27,28,28,29,29,33,33,34,34,35,35,36,36,37,37,38,38,39,39,40,40,41,41,42,42,43,43,44,44,45,45,46,46,47,47,48,48,49,49,50,50,51,51,52,52,53,53,54,54,55,55,57,57,58,58],"right_children":[2,4,6,8,10,12,14,16,18,20,22,24,26,28,30,32,34,36,38,40,42,44,46,48,50,52,54,56,58,60,-1,-1,-1,62,64,66,68,70,72,74,76,78,80,82,84,86,88,90,92,94,96,98,100,102,104,106,-1,108,110,-1,-1,-1,-1,-1,-1,-1,-1,-1,-1,-1,-1,-1,-1,-1,-1,-1,-1,-1,-1,-1,-1,-1,-1,-1,-1,-1,-1,-1,-1,-1,-1,-1,-1,-1,-1,-1,-1,-1,-1,-1,-1,-1,-1,-1,-1,-1,-1,-1,-1,-1,-1],"split_conditions":[2.5869287E1,3.2457773E-2,1.124255E8,-7.607211E0,-6.7424927E0,-1.1827095E-1,9.315199E1,1.3227368E2,2.9686177E-2,1.7570644E2,2.0632E1,-4.67999E0,-1.577179E1,-4.8003924E-1,1.5572663E-2,8.4268E6,1.8337838E-2,2.0162594E1,4.320999E-1,-4.8569775E0,-3.32193E1,-2.2365417E0,1.270627E8,2.5775677E2,8.94181E7,2.748809E2,2.774193E1,4.5505936E1,3.6801147E1,6.4772095E1,-4.4845644E-4,1.9997872E-4,8.038829E-4,-1.1548109E1,1.71994E2,2.8769737E-2,6.80394E7,-2.856726E1,-2.8988574E0,-1.3945223E-1,-9.2261046E-2,2.211848E2,-1.5678543E1,1.7269852E1,5.44514E8,5.42219E7,2.3260368E1,-1.1860001E1,7.9532E7,3.2123802E1,1.6729279E0,1.9661505E2,4.9384393E-2,1.0199203E0,2.0099976E1,2.43964E8,6.0434383E-4,-1.8886566E-2,3.8212013E1,1.6865179E-5,-4.2196712E-5,-4.392105E-5,4.8096183E-5,2.3884421E-4,7.9126374E-5,2.790961E-4,-1.0856571E-4,1.2817469E-5,-5.6139917E-5,2.5076323E-4,-5.4873435E-5,-5.165406E-4,-8.0025915E-5,7.01573E-4,1.9049419E-4,-4.3194115E-5,2.381207E-4,5.683665E-4,8.41804E-5,-1.863979E-4,9.246518E-5,8.733099E-5,4.9972144E-4,1.2599234E-4,-2.5045576E-5,5.0345636E-5,-1.1328792E-4,-3.899754E-4,1.19775286E-4,2.0763338E-4,4.521916E-5,8.287935E-6,-3.237843E-4,-1.4923172E-5,2.939952E-6,-1.2668737E-4,7.0372625E-6,3.2747496E-4,8.03593E-5,-4.4004293E-5,-1.3719928E-4,9.4010014E-5,-7.153141E-5,-3.870768E-6,-2.9923222E-5,-1.4270841E-5,1.6817906E-4,4.585136E-5,2.648713E-4,-1.3750975E-4,1.8185017E-5],"split_indices":[11,9,4,12,13,15,11,1,9,2,6,12,12,15,9,4,9,2,15,12,13,13,4,7,4,8,7,1,11,1,0,0,0,12,5,9,4,13,12,15,15,2,13,11,4,4,11,13,4,11,13,1,15,13,13,4,0,13,11,0,0,0,0,0,0,0,0,0,0,0,0,0,0,0,0,0,0,0,0,0,0,0,0,0,0,0,0,0,0,0,0,0,0,0,0,0,0,0,0,0,0,0,0,0,0,0,0,0,0,0,0],"split_type":[0,0,0,0,0,0,0,0,0,0,0,0,0,0,0,0,0,0,0,0,0,0,0,0,0,0,0,0,0,0,0,0,0,0,0,0,0,0,0,0,0,0,0,0,0,0,0,0,0,0,0,0,0,0,0,0,0,0,0,0,0,0,0,0,0,0,0,0,0,0,0,0,0,0,0,0,0,0,0,0,0,0,0,0,0,0,0,0,0,0,0,0,0,0,0,0,0,0,0,0,0,0,0,0,0,0,0,0,0,0,0],"sum_hessian":[3.852E4,2.406E3,3.6114E4,2.181E3,2.25E2,3.4999E4,1.115E3,3.05E2,1.876E3,1.49E2,7.6E1,1.2099E4,2.29E4,1.108E3,7E0,3E0,3.02E2,1.828E3,4.8E1,7.5E1,7.4E1,1.5E1,6.1E1,7.39E2,1.136E4,1.18E2,2.2782E4,8E0,1.1E3,3E0,4E0,1E0,2E0,1.76E2,1.26E2,1E1,1.818E3,3.9E1,9E0,4E1,3.5E1,3.3E1,4.1E1,3E0,1.2E1,4.9E1,1.2E1,2.78E2,4.61E2,1.1287E4,7.3E1,5E0,1.13E2,1.06E2,2.2676E4,6E0,2E0,1.34E2,9.66E2,1E0,2E0,7.7E1,9.9E1,1E1,1.16E2,9E0,1E0,1.757E3,6.1E1,3E0,3.6E1,6E0,3E0,1.5E1,2.5E1,2E1,1.5E1,5E0,2.8E1,3.1E1,1E1,1E0,2E0,9E0,3E0,3.6E1,1.3E1,1.1E1,1E0,3E1,2.48E2,4.54E2,7E0,6.65E2,1.0622E4,3.7E1,3.6E1,3E0,2E0,5.1E1,6.2E1,8.4E1,2.2E1,2.2095E4,5.81E2,1E0,5E0,1.13E2,2.1E1,3.3E1,9.33E2],"tree_param":{"num_deleted":"0","num_feature":"16","num_nodes":"111","size_leaf_vector":"1"}},{"base_weights":[-6.1968225E-5,4.7511673E-3,-1.00634934E-4,3.342067E-2,3.673337E-3,1.3668915E-3,-2.0463589E-4,-5.4611214E-3,4.266786E-2,7.7600023E-3,-2.5047006E-3,-1.0388602E-2,1.5840356E-3,-1.4387924E-4,-2.228453E-3,5.681145E-5,-1.3872827E-4,8.689433E-5,4.5828983E-2,-8.036472E-3,1.0496897E-2,-8.468718E-3,3.9138133E-3,-4.1310056E-3,-7.5060606E-2,1.1073416E-3,6.8500633E-3,-4.0082066E-4,4.337526E-4,-1.7672116E-2,-1.8773404E-3,8.751149E-5,4.987565E-2,1.4661068E-4,-1.0438718E-2,1.823253E-2,7.1048965E-3,3.330052E-3,-2.2009734E-2,4.4294025E-4,1.680698E-3,7.6677017E-3,-1.6856685E-2,-1.0651725E-1,9.654659E-5,2.030554E-3,2.755277E-4,1.2082851E-2,-5.4983916E-3,5.1153773E-3,-4.406537E-4,-4.3900928E-4,4.420252E-4,-4.299022E-3,-2.5962032E-2,2.314362E-2,-2.1485242E-3,5.3331297E-4,1.4570892E-4,-1.2983964E-4,1.255441E-4,-6.129645E-5,2.0698679E-4,3.4389952E-5,1.5703942E-4,-8.872406E-5,1.4669594E-4,-1.0395604E-4,-3.5504386E-4,2.7150827E-4,-2.7328708E-6,2.2725557E-4,-8.02913E-5,9.213692E-5,-3.0549994E-4,-3.210354E-4,-1.2767232E-3,4.481783E-5,-2.5359054E-6,-1.3682252E-5,1.8782743E-5,1.1150137E-3,9.912652E-5,-2.0388032E-4,2.62528E-5,6.2443265E-5,-4.3861583E-4,-7.819372E-5,-4.092019E-6,1.0183993E-6,1.2213444E-5,-1.1618053E-4,9.5840376E-5,5.656689E-5,-2.882937E-4,2.5732655E-4,-1.3733784E-5,-6.7315545E-5,-1.0409933E-5],"categories":[],"categories_nodes":[],"categories_segments":[],"categories_sizes":[],"default_left":[0,0,0,0,0,0,0,0,0,0,0,0,0,0,0,0,0,0,0,0,0,0,0,0,0,0,0,0,0,0,0,0,0,0,0,0,0,0,0,0,0,0,0,0,0,0,0,0,0,0,0,0,0,0,0,0,0,0,0,0,0,0,0,0,0,0,0,0,0,0,0,0,0,0,0,0,0,0,0,0,0,0,0,0,0,0,0,0,0,0,0,0,0,0,0,0,0,0,0],"id":9,"left_children":[1,3,5,7,9,11,13,15,17,19,21,23,25,27,29,-1,-1,-1,31,33,35,37,39,41,43,45,47,49,51,53,55,-1,57,-1,59,61,63,65,67,-1,69,71,73,75,-1,77,79,81,83,85,87,-1,89,91,93,95,97,-1,-1,-1,-1,-1,-1,-1,-1,-1,-1,-1,-1,-1,-1,-1,-1,-1,-1,-1,-1,-1,-1,-1,-1,-1,-1,-1,-1,-1,-1,-1,-1,-1,-1,-1,-1,-1,-1,-1,-1,-1,-1],"loss_changes":[7.1691754E-3,9.363802E-3,5.8325063E-3,4.1880356E-3,7.517964E-3,6.4720702E-3,4.3875184E-3,3.5998994E-4,5.684607E-4,7.823115E-3,4.5884806E-3,1.8305723E-2,6.2279603E-3,5.1422473E-3,5.6061884E-3,0E0,0E0,0E0,7.638652E-4,1.6252196E-3,3.885068E-3,9.97887E-3,5.1556276E-3,6.5855538E-3,1.1687819E-2,1.7495777E-3,1.3377504E-2,5.271308E-3,3.93167E-3,2.4382104E-3,6.9571375E-3,0E0,7.6919794E-5,0E0,1.6260855E-3,2.8905924E-3,3.3505056E-3,4.8347446E-3,4.176042E-3,0E0,2.7944422E-3,5.6187613E-3,7.7782627E-3,6.239489E-4,0E0,6.048015E-3,3.163993E-3,3.0179624E-2,7.5529553E-3,9.784197E-3,5.522254E-3,0E0,2.8275705E-3,1.1274533E-3,1.4323425E-3,7.335702E-4,5.1094466E-3,0E0,0E0,0E0,0E0,0E0,0E0,0E0,0E0,0E0,0E0,0E0,0E0,0E0,0E0,0E0,0E0,0E0,0E0,0E0,0E0,0E0,0E0,0E0,0E0,0E0,0E0,0E0,0E0,0E0,0E0,0E0,0E0,0E0,0E0,0E0,0E0,0E0,0E0,0E0,0E0,0E0,0E0],"parents":[2147483647,0,0,1,1,2,2,3,3,4,4,5,5,6,6,7,7,8,8,9,9,10,10,11,11,12,12,13,13,14,14,18,18,19,19,20,20,21,21,22,22,23,23,24,24,25,25,26,26,27,27,28,28,29,29,30,30,32,32,34,34,35,35,36,36,37,37,38,38,40,40,41,41,42,42,43,43,45,45,46,46,47,47,48,48,49,49,50,50,52,52,53,53,54,54,55,55,56,56],"right_children":[2,4,6,8,10,12,14,16,18,20,22,24,26,28,30,-1,-1,-1,32,34,36,38,40,42,44,46,48,50,52,54,56,-1,58,-1,60,62,64,66,68,-1,70,72,74,76,-1,78,80,82,84,86,88,-1,90,92,94,96,98,-1,-1,-1,-1,-1,-1,-1,-1,-1,-1,-1,-1,-1,-1,-1,-1,-1,-1,-1,-1,-1,-1,-1,-1,-1,-1,-1,-1,-1,-1,-1,-1,-1,-1,-1,-1,-1,-1,-1,-1,-1,-1],"split_conditions":[2.0632E1,-2.2365417E0,2.6335918E1,-3.1006622E0,3.448935E-2,3.1620857E1,2.0099976E1,1.6993528E1,1.7269852E1,1.8082025E-2,4.4540405E-2,3.1544554E1,3.2457773E-2,6.2824028E1,1.397217E2,5.681145E-5,-1.3872827E-4,8.689433E-5,-3.9458923E0,2.9956755E1,4.514149E1,-7.5500077E-1,1.8800354E-1,2.8769737E-2,2.9682323E1,2.119314E1,2.232501E2,2.7249916E1,2.0562E1,6.442179E0,1.4931522E2,8.751149E-5,-2.7200012E0,1.4661068E-4,1.7766266E0,1.9774012E-2,1.7104273E0,-1.3420174E0,1.6708204E1,4.4294025E-4,-9.6961975E-1,-2.8225098E0,-4.6609955E0,2.3941017E1,9.654659E-5,1.6013376E2,1.6118114E2,-4.249109E1,4.1115385E-2,3.6243744E0,3.0033213E1,-4.3900928E-4,1.5749788E-2,1.4448958E2,2.0786291E-2,1.5598192E2,2.7803232E2,5.3331297E-4,1.4570892E-4,-1.2983964E-4,1.255441E-4,-6.129645E-5,2.0698679E-4,3.4389952E-5,1.5703942E-4,-8.872406E-5,1.4669594E-4,-1.0395604E-4,-3.5504386E-4,2.7150827E-4,-2.7328708E-6,2.2725557E-4,-8.02913E-5,9.213692E-5,-3.0549994E-4,-3.210354E-4,-1.2767232E-3,4.481783E-5,-2.5359054E-6,-1.3682252E-5,1.8782743E-5,1.1150137E-3,9.912652E-5,-2.0388032E-4,2.62528E-5,6.2443265E-5,-4.3861583E-4,-7.819372E-5,-4.092019E-6,1.0183993E-6,1.2213444E-5,-1.1618053E-4,9.5840376E-5,5.656689E-5,-2.882937E-4,2.5732655E-4,-1.3733784E-5,-6.7315545E-5,-1.0409933E-5],"split_indices":[6,13,11,13,9,8,13,0,11,9,14,7,9,11,8,0,0,0,14,11,11,12,14,9,2,11,6,2,5,12,7,0,14,0,14,9,14,12,8,0,13,14,14,0,0,7,8,13,9,14,5,0,9,0,9,8,5,0,0,0,0,0,0,0,0,0,0,0,0,0,0,0,0,0,0,0,0,0,0,0,0,0,0,0,0,0,0,0,0,0,0,0,0,0,0,0,0,0,0],"split_type":[0,0,0,0,0,0,0,0,0,0,0,0,0,0,0,0,0,0,0,0,0,0,0,0,0,0,0,0,0,0,0,0,0,0,0,0,0,0,0,0,0,0,0,0,0,0,0,0,0,0,0,0,0,0,0,0,0,0,0,0,0,0,0,0,0,0,0,0,0,0,0,0,0,0,0,0,0,0,0,0,0,0,0,0,0,0,0,0,0,0,0,0,0,0,0,0,0,0,0],"sum_hessian":[3.8518E4,3.06E2,3.8212E4,1E1,2.96E2,2.528E3,3.5684E4,2E0,8E0,1.78E2,1.18E2,4.5E1,2.483E3,3.4645E4,1.039E3,1E0,1E0,1E0,7E0,2.6E1,1.52E2,6.1E1,5.7E1,4.2E1,3E0,2.278E3,2.05E2,2.3979E4,1.0666E4,2.2E1,1.017E3,1E0,6E0,2E0,2.4E1,4.5E1,1.07E2,3.3E1,2.8E1,2E0,5.5E1,2.2E1,2E1,2E0,1E0,1.079E3,1.199E3,1.44E2,6.1E1,1.71E2,2.3808E4,1E0,1.0665E4,9E0,1.3E1,1E1,1.007E3,5E0,1E0,2.2E1,2E0,4E0,4.1E1,7.6E1,3.1E1,1.6E1,1.7E1,1.6E1,1.2E1,3E0,5.2E1,1.1E1,1.1E1,7E0,1.3E1,1E0,1E0,5.2E2,5.59E2,5.92E2,6.07E2,2E0,1.42E2,2.1E1,4E1,1.68E2,3E0,1E2,2.3708E4,7.425E3,3.24E3,6E0,3E0,1E0,1.2E1,9E0,1E0,1.95E2,8.12E2],"tree_param":{"num_deleted":"0","num_feature":"16","num_nodes":"99","size_leaf_vector":"1"}},{"base_weights":[-4.6786165E-5,-1.01590034E-4,4.592728E-3,2.1270681E-3,-1.9888183E-4,2.7462529E-2,2.4722298E-3,1.4691006E-3,9.630811E-3,-1.3286335E-4,-2.4270676E-3,5.975118E-2,1.8244086E-2,1.7727367E-3,3.0414578E-2,1.9296458E-3,-6.2114038E-3,1.772274E-2,-2.9339192E-3,-1.799069E-4,4.8179855E-3,-6.102066E-3,-1.0923253E-3,7.4758E-2,9.820484E-5,5.084026E-3,4.170928E-2,4.678422E-3,-5.456661E-3,3.976957E-4,-4.6702656E-3,1.2450591E-3,6.671319E-3,-8.9128886E-4,-3.4789614E-2,7.163263E-2,4.8106923E-3,-7.576449E-3,2.2966735E-2,-4.3834833E-4,4.0453143E-4,-5.9287664E-3,6.474684E-3,-4.852221E-3,-6.2161326E-2,-1.2084844E-3,1.692172E-2,2.5284936E-4,9.3173294E-4,1.4750879E-2,-2.880008E-2,5.89734E-2,9.197654E-3,-1.1576858E-4,9.677442E-3,1.1633662E-2,-8.924184E-3,-6.210412E-5,-7.949866E-6,1.3058938E-4,1.0250503E-5,9.393264E-5,-6.6948064E-6,2.970029E-5,-1.834717E-4,-1.0460197E-4,-1.1240095E-3,9.61045E-4,3.4679906E-5,9.9878554E-5,-2.1041807E-4,-1.4139478E-4,6.0547063E-5,4.2423492E-4,-2.3602361E-4,5.2131913E-5,-4.6496966E-6,3.0372234E-4,3.87752E-6,2.795295E-4,-9.014435E-5,1.2373328E-4,2.2728489E-5,-3.197185E-5,-3.321603E-4,-6.867314E-5,-1.1516623E-3,-1.4683973E-5,4.7991543E-5,2.0142492E-4,2.0193127E-5,2.2138491E-4,-1.4793483E-4,-5.0324935E-4,-1.0837632E-4,2.2734389E-4,6.892213E-4,1.4345175E-4,9.842481E-6,2.817102E-5,-1.9026996E-4,5.196242E-4,7.7407705E-5,-3.2820678E-4,2.1409173E-4,-2.6594862E-4,-2.7503333E-5],"categories":[],"categories_nodes":[],"categories_segments":[],"categories_sizes":[],"default_left":[0,0,0,0,0,0,0,0,0,0,0,0,0,0,0,0,0,0,0,0,0,0,0,0,0,0,0,0,0,0,0,0,0,0,0,0,0,0,0,0,0,0,0,0,0,0,0,0,0,0,0,0,0,0,0,0,0,0,0,0,0,0,0,0,0,0,0,0,0,0,0,0,0,0,0,0,0,0,0,0,0,0,0,0,0,0,0,0,0,0,0,0,0,0,0,0,0,0,0,0,0,0,0,0,0,0,0],"id":10,"left_children":[1,3,5,7,9,11,13,15,17,19,21,23,25,27,29,31,33,35,37,39,41,43,45,47,-1,49,51,53,55,-1,57,59,61,63,65,67,69,71,73,75,77,79,81,83,85,87,89,-1,-1,91,93,95,97,99,101,103,105,-1,-1,-1,-1,-1,-1,-1,-1,-1,-1,-1,-1,-1,-1,-1,-1,-1,-1,-1,-1,-1,-1,-1,-1,-1,-1,-1,-1,-1,-1,-1,-1,-1,-1,-1,-1,-1,-1,-1,-1,-1,-1,-1,-1,-1,-1,-1,-1,-1,-1],"loss_changes":[9.778925E-3,8.242138E-3,2.1706525E-2,7.836028E-3,5.357259E-3,1.0220638E-2,7.99882E-3,5.1869373E-3,1.3066129E-2,8.239665E-3,5.133959E-3,5.260244E-3,9.360854E-3,8.49109E-3,3.4679193E-3,4.4745393E-3,1.258826E-2,5.395019E-2,6.3064788E-3,5.293029E-3,5.9671616E-3,1.924663E-2,1.6316713E-3,3.110487E-3,0E0,7.303433E-3,5.631715E-3,6.9034016E-3,6.9781085E-3,0E0,1.2968296E-5,3.1263954E-3,3.4830268E-3,4.840084E-3,2.3371369E-2,2.4688452E-2,8.77609E-3,4.021924E-3,8.249965E-3,3.6580958E-3,5.3912387E-3,4.956629E-3,7.1347794E-3,1.2756217E-2,1.679424E-2,1.2031276E-3,1.9931246E-4,0E0,0E0,4.0379646E-3,1.3877922E-3,9.568203E-4,1.972742E-4,8.2623E-3,1.1144559E-2,9.393943E-3,1.050918E-2,0E0,0E0,0E0,0E0,0E0,0E0,0E0,0E0,0E0,0E0,0E0,0E0,0E0,0E0,0E0,0E0,0E0,0E0,0E0,0E0,0E0,0E0,0E0,0E0,0E0,0E0,0E0,0E0,0E0,0E0,0E0,0E0,0E0,0E0,0E0,0E0,0E0,0E0,0E0,0E0,0E0,0E0,0E0,0E0,0E0,0E0,0E0,0E0,0E0,0E0],"parents":[2147483647,0,0,1,1,2,2,3,3,4,4,5,5,6,6,7,7,8,8,9,9,10,10,11,11,12,12,13,13,14,14,15,15,16,16,17,17,18,18,19,19,20,20,21,21,22,22,23,23,25,25,26,26,27,27,28,28,30,30,31,31,32,32,33,33,34,34,35,35,36,36,37,37,38,38,39,39,40,40,41,41,42,42,43,43,44,44,45,45,46,46,49,49,50,50,51,51,52,52,53,53,54,54,55,55,56,56],"right_children":[2,4,6,8,10,12,14,16,18,20,22,24,26,28,30,32,34,36,38,40,42,44,46,48,-1,50,52,54,56,-1,58,60,62,64,66,68,70,72,74,76,78,80,82,84,86,88,90,-1,-1,92,94,96,98,100,102,104,106,-1,-1,-1,-1,-1,-1,-1,-1,-1,-1,-1,-1,-1,-1,-1,-1,-1,-1,-1,-1,-1,-1,-1,-1,-1,-1,-1,-1,-1,-1,-1,-1,-1,-1,-1,-1,-1,-1,-1,-1,-1,-1,-1,-1,-1,-1,-1,-1,-1,-1],"split_conditions":[3.449419E8,2.3260368E1,-3.8099976E0,3.311772E-2,2.0099976E1,2.8803402E1,1.325E1,2.8144915E-2,1.8435663E2,4.8976652E-2,3.091325E2,-7.189987E0,-4.7231293E0,3.9757904E-2,2.1820007E1,3.07187E7,8.94181E7,-3.505002E1,1.124255E8,3.8922577E0,-3.1874512E1,3.0522714E2,4.8976652E-2,1.0065276E2,9.820484E-5,-2.7200012E0,8.503E1,8.448181E-1,-2.2100067E0,3.976957E-4,1.23389336E2,-4.249109E1,1.7488954E2,3.6265E2,-2.2365417E0,1.270627E8,1.028058E8,3.7187964E2,2.2842E2,2.0632E1,2.408E1,2.3870976E2,4.797576E1,6.2929993E1,2.77547E7,8.44571E7,5.4111444E2,2.5284936E-4,9.3173294E-4,1.30557E2,3.845038E1,-7.137802E0,9.131766E1,1.4001465E-1,1.0483494E0,3.448935E-2,5.1781048E1,-6.210412E-5,-7.949866E-6,1.3058938E-4,1.0250503E-5,9.393264E-5,-6.6948064E-6,2.970029E-5,-1.834717E-4,-1.0460197E-4,-1.1240095E-3,9.61045E-4,3.4679906E-5,9.9878554E-5,-2.1041807E-4,-1.4139478E-4,6.0547063E-5,4.2423492E-4,-2.3602361E-4,5.2131913E-5,-4.6496966E-6,3.0372234E-4,3.87752E-6,2.795295E-4,-9.014435E-5,1.2373328E-4,2.2728489E-5,-3.197185E-5,-3.321603E-4,-6.867314E-5,-1.1516623E-3,-1.4683973E-5,4.7991543E-5,2.0142492E-4,2.0193127E-5,2.2138491E-4,-1.4793483E-4,-5.0324935E-4,-1.0837632E-4,2.2734389E-4,6.892213E-4,1.4345175E-4,9.842481E-6,2.817102E-5,-1.9026996E-4,5.196242E-4,7.7407705E-5,-3.2820678E-4,2.1409173E-4,-2.6594862E-4,-2.7503333E-5],"split_indices":[4,11,13,9,13,11,14,10,3,10,5,13,13,10,14,4,4,14,4,14,14,6,10,1,0,14,1,14,14,0,1,13,5,1,13,4,4,7,2,6,3,7,11,14,4,4,1,0,0,7,11,14,1,14,14,9,11,0,0,0,0,0,0,0,0,0,0,0,0,0,0,0,0,0,0,0,0,0,0,0,0,0,0,0,0,0,0,0,0,0,0,0,0,0,0,0,0,0,0,0,0,0,0,0,0,0,0],"split_type":[0,0,0,0,0,0,0,0,0,0,0,0,0,0,0,0,0,0,0,0,0,0,0,0,0,0,0,0,0,0,0,0,0,0,0,0,0,0,0,0,0,0,0,0,0,0,0,0,0,0,0,0,0,0,0,0,0,0,0,0,0,0,0,0,0,0,0,0,0,0,0,0,0,0,0,0,0,0,0,0,0,0,0,0,0,0,0,0,0,0,0,0,0,0,0,0,0,0,0,0,0,0,0,0,0,0,0],"sum_hessian":[3.8457E4,3.8009E4,4.48E2,1.589E3,3.642E4,3.7E1,4.11E2,1.462E3,1.27E2,3.5373E4,1.047E3,7E0,3E1,4.02E2,9E0,1.38E3,8.2E1,7.7E1,5E1,3.5041E4,3.32E2,2.78E2,7.69E2,5E0,2E0,2E1,1E1,2.87E2,1.15E2,7E0,2E0,1.207E3,1.73E2,7E1,1.2E1,1.4E1,6.3E1,4.3E1,7E0,2.4297E4,1.0744E4,4.4E1,2.88E2,2.73E2,5E0,7.65E2,4E0,2E0,3E0,1.6E1,4E0,6E0,4E0,1.47E2,1.4E2,1.9E1,9.6E1,1E0,1E0,2.1E1,1.186E3,1.26E2,4.7E1,5.8E1,1.2E1,1E1,2E0,1E1,4E0,5.3E1,1E1,2.9E1,1.4E1,5E0,2E0,1.13E2,2.4184E4,5E0,1.0739E4,3E0,4.1E1,1.19E2,1.69E2,2.59E2,1.4E1,3E0,2E0,7.34E2,3.1E1,3E0,1E0,1.3E1,3E0,1E0,3E0,2E0,4E0,2E0,2E0,1.28E2,1.9E1,5E0,1.35E2,3E0,1.6E1,2.4E1,7.2E1],"tree_param":{"num_deleted":"0","num_feature":"16","num_nodes":"107","size_leaf_vector":"1"}},{"base_weights":[-2.5159525E-5,2.1849324E-3,-1.3340947E-4,8.872838E-3,1.332828E-3,3.6224592E-3,-1.7699038E-4,7.165782E-2,1.9626056E-3,1.984772E-2,1.0600467E-3,1.8763455E-2,2.2794118E-3,-1.0992993E-4,-2.4425322E-3,9.991909E-2,2.601414E-2,1.477577E-4,1.967537E-2,1.4137617E-2,7.2735E-4,1.699973E-3,-1.2848207E-2,5.206674E-3,2.5921397E-2,-1.0709536E-2,3.5240147E-3,-1.2591665E-4,7.662694E-3,-5.9937355E-3,-1.0378391E-3,1.1482307E-2,1.16458215E-1,3.299426E-2,-1.4913408E-4,4.093344E-3,-1.1325405E-2,-3.0016984E-4,2.4657203E-2,2.4919186E-2,-1.2921828E-3,9.7844E-4,6.5162755E-3,1.367944E-2,-1.7055344E-2,-7.5632786E-5,1.1722572E-2,1.96341E-2,4.9305707E-2,2.6835084E-3,-2.2763548E-2,1.5560053E-2,2.4794347E-3,-1.5950695E-4,3.5148254E-3,5.0130324E-3,6.693389E-2,-4.6841935E-3,-8.0748424E-2,-4.9851055E-4,-6.868372E-3,-2.6123025E-5,1.9835762E-4,3.6143395E-4,1.3201899E-3,3.884364E-5,4.9683324E-4,7.090744E-5,-4.839437E-5,5.300539E-6,-2.4985685E-4,-9.0621295E-5,2.7509299E-4,3.8416663E-4,1.1681177E-4,-1.2358557E-4,1.8397017E-4,-5.3324684E-6,2.2876013E-5,6.384486E-4,5.5913948E-5,2.7418675E-4,-4.9830106E-7,-3.5886802E-5,-2.7247833E-4,-2.454791E-5,1.6123931E-4,2.3825455E-4,-2.7905143E-4,6.0216547E-4,8.286592E-5,-6.402854E-5,1.657872E-4,6.934323E-5,-3.174396E-4,6.510898E-5,3.7369077E-4,-8.910904E-5,4.103646E-5,-1.131456E-6,-3.9138504E-5,-2.5627756E-4,4.4405842E-5,1.228756E-4,-7.027422E-5,1.2028828E-3,-1.9887449E-4,-3.49805E-5,-2.7818297E-4,-2.0182246E-4,-1.1439846E-3,-8.371365E-6,8.4476094E-5,1.9416323E-6,-2.206253E-4],"categories":[],"categories_nodes":[],"categories_segments":[],"categories_sizes":[],"default_left":[0,0,0,0,0,0,0,0,0,0,0,0,0,0,0,0,0,0,0,0,0,0,0,0,0,0,0,0,0,0,0,0,0,0,0,0,0,0,0,0,0,0,0,0,0,0,0,0,0,0,0,0,0,0,0,0,0,0,0,0,0,0,0,0,0,0,0,0,0,0,0,0,0,0,0,0,0,0,0,0,0,0,0,0,0,0,0,0,0,0,0,0,0,0,0,0,0,0,0,0,0,0,0,0,0,0,0,0,0,0,0,0,0,0,0],"id":11,"left_children":[1,3,5,7,9,11,13,15,17,19,21,23,25,27,29,31,33,35,37,39,-1,41,43,45,47,49,51,53,55,57,59,61,63,65,-1,67,69,-1,71,73,75,77,79,81,83,-1,85,87,89,91,93,95,97,99,101,103,105,107,109,111,113,-1,-1,-1,-1,-1,-1,-1,-1,-1,-1,-1,-1,-1,-1,-1,-1,-1,-1,-1,-1,-1,-1,-1,-1,-1,-1,-1,-1,-1,-1,-1,-1,-1,-1,-1,-1,-1,-1,-1,-1,-1,-1,-1,-1,-1,-1,-1,-1,-1,-1,-1,-1,-1,-1],"loss_changes":[9.166382E-3,1.0183318E-2,5.9792046E-3,8.7498836E-2,7.999178E-3,8.477628E-3,5.485404E-3,2.3199655E-2,5.8798054E-3,5.9175137E-3,1.3959643E-2,3.1643491E-3,6.277848E-3,4.3587172E-3,5.1716883E-3,1.6214795E-2,3.0631693E-3,7.606173E-3,4.948639E-3,3.692064E-3,0E0,5.199355E-3,7.934083E-3,1.1703615E-3,2.2664564E-3,5.5500427E-3,4.399549E-3,4.2807143E-3,1.0971958E-2,2.8402718E-2,2.3392828E-3,4.050331E-4,7.7260137E-3,3.693548E-3,0E0,3.3812055E-3,6.977047E-3,0E0,1.7880257E-3,1.8740855E-3,2.4062414E-3,2.5818907E-3,9.98233E-3,1.8876633E-3,8.137746E-3,0E0,6.0117804E-4,4.4506756E-3,1.2912229E-3,2.2525194E-3,5.0207097E-3,5.282585E-3,6.067671E-3,6.0358336E-3,8.747083E-3,6.2175537E-3,1.6289126E-2,7.860394E-3,7.881455E-3,2.076144E-3,6.7647686E-3,0E0,0E0,0E0,0E0,0E0,0E0,0E0,0E0,0E0,0E0,0E0,0E0,0E0,0E0,0E0,0E0,0E0,0E0,0E0,0E0,0E0,0E0,0E0,0E0,0E0,0E0,0E0,0E0,0E0,0E0,0E0,0E0,0E0,0E0,0E0,0E0,0E0,0E0,0E0,0E0,0E0,0E0,0E0,0E0,0E0,0E0,0E0,0E0,0E0,0E0,0E0,0E0,0E0,0E0],"parents":[2147483647,0,0,1,1,2,2,3,3,4,4,5,5,6,6,7,7,8,8,9,9,10,10,11,11,12,12,13,13,14,14,15,15,16,16,17,17,18,18,19,19,21,21,22,22,23,23,24,24,25,25,26,26,27,27,28,28,29,29,30,30,31,31,32,32,33,33,35,35,36,36,38,38,39,39,40,40,41,41,42,42,43,43,44,44,46,46,47,47,48,48,49,49,50,50,51,51,52,52,53,53,54,54,55,55,56,56,57,57,58,58,59,59,60,60],"right_children":[2,4,6,8,10,12,14,16,18,20,22,24,26,28,30,32,34,36,38,40,-1,42,44,46,48,50,52,54,56,58,60,62,64,66,-1,68,70,-1,72,74,76,78,80,82,84,-1,86,88,90,92,94,96,98,100,102,104,106,108,110,112,114,-1,-1,-1,-1,-1,-1,-1,-1,-1,-1,-1,-1,-1,-1,-1,-1,-1,-1,-1,-1,-1,-1,-1,-1,-1,-1,-1,-1,-1,-1,-1,-1,-1,-1,-1,-1,-1,-1,-1,-1,-1,-1,-1,-1,-1,-1,-1,-1,-1,-1,-1,-1,-1,-1],"split_conditions":[2.3846657E1,-3.505002E1,2.3941017E1,1.8899E2,2.0562E1,-1.7794151E0,2.0099976E1,-2.240329E1,1.028058E8,2.059E1,8.44571E7,1.485737E8,-1.1012917E0,5.44514E8,3.091325E2,1.10594635E1,5.2735403E-2,2.8508397E-2,1.8031288E2,2.8283352E-3,7.2735E-4,3.07187E7,1.6225096E-2,-2.4051768E-1,4.75881E1,3.1291623E-2,3.3632317E1,4.8976652E-2,9.8355454E-1,3.0522714E2,7.3909307E-1,1.461187E2,2.9374566E-2,4.46492E7,-1.4913408E-4,-3.9889984E1,-3.32193E1,-3.0016984E-4,2.1840757E-2,3.7532423E-2,-1.4808655E0,6.5635E6,-3.1874512E1,-1.2699394E1,-1.0399994E1,-7.5632786E-5,-3.8392105E0,4.5330475E1,5.44514E8,2.43964E8,9.59283E7,1.8588744E-1,-1.039999E0,3.9757904E-2,2.7699844E1,4.3076202E-2,3.1530437E1,6.2929993E1,2.77547E7,5.811566E-1,5.946849E2,-2.6123025E-5,1.9835762E-4,3.6143395E-4,1.3201899E-3,3.884364E-5,4.9683324E-4,7.090744E-5,-4.839437E-5,5.300539E-6,-2.4985685E-4,-9.0621295E-5,2.7509299E-4,3.8416663E-4,1.1681177E-4,-1.2358557E-4,1.8397017E-4,-5.3324684E-6,2.2876013E-5,6.384486E-4,5.5913948E-5,2.7418675E-4,-4.9830106E-7,-3.5886802E-5,-2.7247833E-4,-2.454791E-5,1.6123931E-4,2.3825455E-4,-2.7905143E-4,6.0216547E-4,8.286592E-5,-6.402854E-5,1.657872E-4,6.934323E-5,-3.174396E-4,6.510898E-5,3.7369077E-4,-8.910904E-5,4.103646E-5,-1.131456E-6,-3.9138504E-5,-2.5627756E-4,4.4405842E-5,1.228756E-4,-7.027422E-5,1.2028828E-3,-1.9887449E-4,-3.49805E-5,-2.7818297E-4,-2.0182246E-4,-1.1439846E-3,-8.371365E-6,8.4476094E-5,1.9416323E-6,-2.206253E-4],"split_indices":[11,14,0,3,5,13,13,13,4,0,4,4,13,4,5,11,10,10,2,15,0,4,10,15,11,10,11,10,15,6,15,0,10,4,0,14,13,0,10,10,14,4,14,14,13,0,14,11,4,4,4,15,14,10,5,10,0,14,4,15,0,0,0,0,0,0,0,0,0,0,0,0,0,0,0,0,0,0,0,0,0,0,0,0,0,0,0,0,0,0,0,0,0,0,0,0,0,0,0,0,0,0,0,0,0,0,0,0,0,0,0,0,0,0,0],"split_type":[0,0,0,0,0,0,0,0,0,0,0,0,0,0,0,0,0,0,0,0,0,0,0,0,0,0,0,0,0,0,0,0,0,0,0,0,0,0,0,0,0,0,0,0,0,0,0,0,0,0,0,0,0,0,0,0,0,0,0,0,0,0,0,0,0,0,0,0,0,0,0,0,0,0,0,0,0,0,0,0,0,0,0,0,0,0,0,0,0,0,0,0,0,0,0,0,0,0,0,0,0,0,0,0,0,0,0,0,0,0,0,0,0,0,0],"sum_hessian":[3.8312E4,1.788E3,3.6524E4,2.01E2,1.587E3,4.18E2,3.6106E4,1.9E1,1.82E2,2.2E1,1.565E3,3.3E1,3.85E2,3.5069E4,1.037E3,1.1E1,8E0,1.66E2,1.6E1,2.1E1,1E0,1.497E3,6.8E1,1.2E1,2.1E1,3.3E1,3.52E2,3.4998E4,7.1E1,2.93E2,7.44E2,2E0,9E0,7E0,1E0,1.24E2,4.2E1,1E0,1.5E1,1.2E1,9E0,1.303E3,1.94E2,9E0,5.9E1,4E0,8E0,1.8E1,3E0,1.6E1,1.7E1,2.7E1,3.25E2,3.4679E4,3.19E2,6.9E1,2E0,2.89E2,4E0,6.82E2,6.2E1,1E0,1E0,2E0,7E0,3E0,4E0,9.3E1,3.1E1,2.3E1,1.9E1,1E0,1.4E1,5E0,7E0,6E0,3E0,6.05E2,6.98E2,2E0,1.92E2,4E0,5E0,2.6E1,3.3E1,2E0,6E0,1.7E1,1E0,2E0,1E0,1E1,6E0,4E0,1.3E1,2E1,7E0,4E1,2.85E2,3.4257E4,4.22E2,9E0,3.1E2,4.3E1,2.6E1,1E0,1E0,2.76E2,1.3E1,2E0,2E0,6.58E2,2.4E1,4.3E1,1.9E1],"tree_param":{"num_deleted":"0","num_feature":"16","num_nodes":"115","size_leaf_vector":"1"}},{"base_weights":[6.730111E-6,2.1667406E-3,-1.002613E-4,3.627935E-3,-8.427868E-4,-7.277799E-5,-6.7525594E-3,3.252501E-2,2.7999512E-3,1.9394118E-5,-1.0668461E-2,-1.0299106E-4,2.5974524E-3,-2.5814155E-2,-3.9787027E-3,6.1970126E-2,1.1346124E-2,1.9418806E-2,2.4995278E-3,8.30129E-3,-1.131864E-3,3.4115608E-3,-2.4890631E-2,-6.471329E-5,-5.2077817E-3,3.0206419E-3,-4.100564E-4,-1.0422264E-3,-3.458683E-2,-2.3882557E-3,-2.1401094E-2,1.0019555E-1,2.0776616E-2,-3.5464333E-3,2.281108E-2,1.1570252E-2,6.265338E-4,-5.7211067E-3,2.8789684E-3,1.4121245E-2,4.2661666E-3,-2.276618E-3,4.736649E-3,3.3322524E-2,-5.732306E-3,-8.041225E-2,-6.047457E-3,4.397285E-3,-1.2036682E-4,2.864871E-2,-6.625595E-3,1.9413315E-3,3.1025242E-2,1.3036601E-4,-1.134079E-4,-1.7241731E-2,-5.484E-4,-9.870169E-3,-5.68714E-4,-5.592474E-4,-7.515312E-3,1.1463936E-3,4.272401E-4,7.503882E-4,-9.817255E-5,-1.5588437E-4,3.841345E-5,-4.519947E-5,2.872928E-4,2.1629698E-4,-2.0102108E-5,2.9027026E-6,-7.79302E-4,3.0776435E-5,-1.4275742E-4,-4.5652985E-5,1.7569569E-4,-8.8876055E-5,1.069069E-4,-2.0920977E-4,-1.8951785E-5,6.8676585E-5,-7.733793E-5,-4.4195716E-5,5.329847E-4,1.8033109E-4,-1.2800729E-4,-3.8368767E-4,-1.0966613E-3,-8.229733E-5,1.6616758E-4,1.0555618E-5,9.636877E-5,-8.537652E-7,-2.6156436E-5,3.4963305E-4,-1.7248622E-4,-5.891475E-5,-6.7306706E-4,5.325908E-5,-9.279881E-6,7.716868E-5,5.045546E-4,-4.512434E-4,4.220297E-5,1.7353833E-4,-1.4585684E-4,-3.6733927E-5,3.632218E-5,3.1547625E-5,-1.10145855E-4],"categories":[],"categories_nodes":[],"categories_segments":[],"categories_sizes":[],"default_left":[0,0,0,0,0,0,0,0,0,0,0,0,0,0,0,0,0,0,0,0,0,0,0,0,0,0,0,0,0,0,0,0,0,0,0,0,0,0,0,0,0,0,0,0,0,0,0,0,0,0,0,0,0,0,0,0,0,0,0,0,0,0,0,0,0,0,0,0,0,0,0,0,0,0,0,0,0,0,0,0,0,0,0,0,0,0,0,0,0,0,0,0,0,0,0,0,0,0,0,0,0,0,0,0,0,0,0,0,0,0,0],"id":12,"left_children":[1,3,5,7,9,11,13,15,17,19,21,23,25,27,29,31,33,35,37,39,41,43,45,47,49,51,-1,53,55,57,59,61,63,65,67,69,-1,71,73,75,77,79,81,83,85,87,89,91,93,95,97,99,101,-1,-1,103,-1,105,107,-1,109,-1,-1,-1,-1,-1,-1,-1,-1,-1,-1,-1,-1,-1,-1,-1,-1,-1,-1,-1,-1,-1,-1,-1,-1,-1,-1,-1,-1,-1,-1,-1,-1,-1,-1,-1,-1,-1,-1,-1,-1,-1,-1,-1,-1,-1,-1,-1,-1,-1,-1],"loss_changes":[8.902288E-3,7.997721E-3,6.7098136E-3,2.9194733E-2,5.040754E-3,2.949212E-3,7.881287E-3,2.0499784E-2,5.8977613E-3,5.234357E-3,9.696843E-3,7.0623974E-3,7.670882E-3,4.092957E-3,3.6342375E-3,1.9963227E-2,3.66649E-3,6.400992E-3,3.6691036E-3,1.5132003E-3,3.2488615E-3,7.028561E-3,2.462259E-2,8.909722E-3,1.3102403E-2,1.2211384E-2,0E0,1.0177956E-3,3.9725695E-3,1.668866E-3,4.8529743E-3,9.128973E-4,1.4017405E-2,9.4951707E-4,2.07086E-3,2.6391067E-3,0E0,2.2594579E-2,3.8611395E-3,1.8200167E-3,3.5597896E-3,2.8334758E-3,2.152509E-3,4.7591594E-3,3.590517E-3,3.1718574E-3,1.0764834E-3,7.728925E-3,3.0937116E-3,3.7911227E-3,1.1141198E-2,3.8118237E-3,6.4039454E-3,0E0,0E0,5.5761947E-3,0E0,3.334123E-3,1.317597E-3,0E0,3.7078589E-4,0E0,0E0,0E0,0E0,0E0,0E0,0E0,0E0,0E0,0E0,0E0,0E0,0E0,0E0,0E0,0E0,0E0,0E0,0E0,0E0,0E0,0E0,0E0,0E0,0E0,0E0,0E0,0E0,0E0,0E0,0E0,0E0,0E0,0E0,0E0,0E0,0E0,0E0,0E0,0E0,0E0,0E0,0E0,0E0,0E0,0E0,0E0,0E0,0E0,0E0],"parents":[2147483647,0,0,1,1,2,2,3,3,4,4,5,5,6,6,7,7,8,8,9,9,10,10,11,11,12,12,13,13,14,14,15,15,16,16,17,17,18,18,19,19,20,20,21,21,22,22,23,23,24,24,25,25,27,27,28,28,29,29,30,30,31,31,32,32,33,33,34,34,35,35,37,37,38,38,39,39,40,40,41,41,42,42,43,43,44,44,45,45,46,46,47,47,48,48,49,49,50,50,51,51,52,52,55,55,57,57,58,58,60,60],"right_children":[2,4,6,8,10,12,14,16,18,20,22,24,26,28,30,32,34,36,38,40,42,44,46,48,50,52,-1,54,56,58,60,62,64,66,68,70,-1,72,74,76,78,80,82,84,86,88,90,92,94,96,98,100,102,-1,-1,104,-1,106,108,-1,110,-1,-1,-1,-1,-1,-1,-1,-1,-1,-1,-1,-1,-1,-1,-1,-1,-1,-1,-1,-1,-1,-1,-1,-1,-1,-1,-1,-1,-1,-1,-1,-1,-1,-1,-1,-1,-1,-1,-1,-1,-1,-1,-1,-1,-1,-1,-1,-1,-1,-1],"split_conditions":[2.3846657E1,2.0966055E2,6.2929993E1,-3.1874512E1,3.415346E-2,4.8976652E-2,2.7789926E2,-1.3945223E-1,2.0562E1,-1.2985686E1,-3.32193E1,4.3076202E-2,8.781518E1,7.286524E1,6.624564E-1,1.8442197E2,1.5868249E1,-3.6907032E-1,3.165327E1,4.75593E2,2.2614145E1,1.5868249E1,-2.4787384E1,2.77086E1,-3.32193E1,7.994307E1,-4.100564E-4,2.61518E2,2.5141185E2,2.1450012E1,8.040756E-1,-1.2369415E1,-1.2985686E1,-2.0337341E1,-3.9620463E-2,2.8283352E-3,6.265338E-4,8.4488237E-1,4.7544215E-2,-3.8297006E-1,4.98382E2,2.111553E2,-1.4426956E0,5.6181423E-2,2.620608E2,2.4915253E2,-1.4228027E1,7.8575134E-1,3.7532423E-2,4.9800366E2,1.215874E0,4.854084E1,2.5290009E1,1.3036601E-4,-1.134079E-4,2.1486894E2,-5.484E-4,6.5779106E1,2.9374566E-2,-5.592474E-4,8.8373643E-1,1.1463936E-3,4.272401E-4,7.503882E-4,-9.817255E-5,-1.5588437E-4,3.841345E-5,-4.519947E-5,2.872928E-4,2.1629698E-4,-2.0102108E-5,2.9027026E-6,-7.79302E-4,3.0776435E-5,-1.4275742E-4,-4.5652985E-5,1.7569569E-4,-8.8876055E-5,1.069069E-4,-2.0920977E-4,-1.8951785E-5,6.8676585E-5,-7.733793E-5,-4.4195716E-5,5.329847E-4,1.8033109E-4,-1.2800729E-4,-3.8368767E-4,-1.0966613E-3,-8.229733E-5,1.6616758E-4,1.0555618E-5,9.636877E-5,-8.537652E-7,-2.6156436E-5,3.4963305E-4,-1.7248622E-4,-5.891475E-5,-6.7306706E-4,5.325908E-5,-9.279881E-6,7.716868E-5,5.045546E-4,-4.512434E-4,4.220297E-5,1.7353833E-4,-1.4585684E-4,-3.6733927E-5,3.632218E-5,3.1547625E-5,-1.10145855E-4],"split_indices":[11,5,14,14,10,10,6,15,5,12,13,10,11,11,15,0,11,12,6,6,11,11,13,0,13,11,0,6,0,13,15,13,12,13,15,15,0,15,9,15,5,5,13,9,5,0,14,14,10,0,15,11,14,0,0,5,0,11,10,0,15,0,0,0,0,0,0,0,0,0,0,0,0,0,0,0,0,0,0,0,0,0,0,0,0,0,0,0,0,0,0,0,0,0,0,0,0,0,0,0,0,0,0,0,0,0,0,0,0,0,0],"split_type":[0,0,0,0,0,0,0,0,0,0,0,0,0,0,0,0,0,0,0,0,0,0,0,0,0,0,0,0,0,0,0,0,0,0,0,0,0,0,0,0,0,0,0,0,0,0,0,0,0,0,0,0,0,0,0,0,0,0,0,0,0,0,0,0,0,0,0,0,0,0,0,0,0,0,0,0,0,0,0,0,0,0,0,0,0,0,0,0,0,0,0,0,0,0,0,0,0,0,0,0,0,0,0,0,0,0,0,0,0,0,0],"sum_hessian":[3.8519E4,1.817E3,3.6702E4,1.223E3,5.94E2,3.6552E4,1.5E2,3.3E1,1.19E3,5.47E2,4.7E1,3.6144E4,4.08E2,1.8E1,1.32E2,1.3E1,2E1,2E1,1.17E3,6.6E1,4.81E2,2.4E1,2.3E1,3.5876E4,2.68E2,4.05E2,3E0,5E0,1.3E1,1.22E2,1E1,6E0,7E0,9E0,1.1E1,1.8E1,2E0,5.1E1,1.119E3,2.6E1,4E1,4.03E2,7.8E1,5E0,1.9E1,5E0,1.8E1,4.41E2,3.5435E4,1E1,2.58E2,3.91E2,1.4E1,2E0,3E0,8E0,5E0,2.3E1,9.9E1,2E0,8E0,4E0,2E0,2E0,5E0,3E0,6E0,2E0,9E0,1E1,8E0,4.8E1,3E0,1.107E3,1.2E1,4E0,2.2E1,1.3E1,2.7E1,7E0,3.96E2,6.7E1,1.1E1,2E0,3E0,4E0,1.5E1,3E0,2E0,1.7E1,1E0,2.7E2,1.71E2,3.4946E4,4.89E2,9E0,1E0,2.56E2,2E0,1.79E2,2.12E2,7E0,7E0,3E0,5E0,3E0,2E1,5.7E1,4.2E1,2E0,6E0],"tree_param":{"num_deleted":"0","num_feature":"16","num_nodes":"111","size_leaf_vector":"1"}},{"base_weights":[6.3132075E-6,-9.65943E-5,3.2031522E-3,1.5924134E-3,-2.0675473E-4,1.6123187E-2,2.2251774E-3,1.7881991E-3,-1.9507065E-2,-1.402759E-4,-2.4519826E-3,3.1159515E-2,2.39927E-3,2.5870593E-3,-1.9933037E-2,7.2172373E-3,1.2851799E-3,-7.887811E-3,-1.2594607E-3,-4.7081962E-4,3.6752678E-4,-8.3157895E-3,-6.3689234E-4,1.0029529E-3,2.2843229E-2,-4.757238E-2,7.1013495E-3,2.1178522E-3,2.5396632E-2,-7.7987504E-3,-4.2901818E-2,7.015958E-2,3.3521382E-3,1.1552916E-3,2.3410631E-2,-8.1913115E-4,-2.8930022E-4,5.343312E-3,-5.144689E-4,1.7511753E-4,1.4883662E-3,-7.071746E-3,-1.0299392E-1,1.9875231E-4,-5.144066E-3,2.8742502E-2,-3.3011395E-2,-1.30905E-4,-5.470284E-4,2.865814E-2,-1.4722907E-3,3.0895243E-3,-5.3591626E-3,-3.1810114E-4,2.963553E-2,-3.356897E-2,3.2892125E-3,-5.446583E-4,-1.3182529E-4,1.1910807E-3,9.5178104E-5,-1.4592421E-5,1.1757713E-4,1.32599935E-5,-2.8003982E-4,4.1372862E-4,-1.4470733E-5,-9.315725E-5,1.9736521E-4,6.280707E-5,-3.1144844E-4,-3.2250068E-6,-1.7055489E-5,2.3973867E-6,-1.9736246E-5,8.318611E-6,6.615413E-5,-6.1944804E-5,-3.9521625E-4,-1.3010965E-3,-2.4381233E-4,-5.150094E-7,1.7972456E-4,-1.8442437E-5,-1.2792423E-4,6.1930076E-4,2.3533055E-4,-5.0614815E-4,9.8994315E-5,-1.0729209E-4,3.3214194E-4,-1.311457E-4,1.56566E-4,2.916658E-5,5.680065E-4,-1.2039141E-4,8.969769E-5,3.1066998E-6,3.8780132E-4,-4.659965E-4,2.7615419E-5,1.4567154E-4,-1.090216E-4],"categories":[],"categories_nodes":[],"categories_segments":[],"categories_sizes":[],"default_left":[0,0,0,0,0,0,0,0,0,0,0,0,0,0,0,0,0,0,0,0,0,0,0,0,0,0,0,0,0,0,0,0,0,0,0,0,0,0,0,0,0,0,0,0,0,0,0,0,0,0,0,0,0,0,0,0,0,0,0,0,0,0,0,0,0,0,0,0,0,0,0,0,0,0,0,0,0,0,0,0,0,0,0,0,0,0,0,0,0,0,0,0,0,0,0,0,0,0,0,0,0,0,0],"id":13,"left_children":[1,3,5,7,9,11,13,15,17,19,21,23,25,27,29,31,33,35,-1,37,39,41,43,-1,45,47,49,51,53,55,57,59,61,63,65,67,-1,69,71,73,75,77,79,81,83,85,87,-1,-1,89,91,93,95,-1,97,99,101,-1,-1,-1,-1,-1,-1,-1,-1,-1,-1,-1,-1,-1,-1,-1,-1,-1,-1,-1,-1,-1,-1,-1,-1,-1,-1,-1,-1,-1,-1,-1,-1,-1,-1,-1,-1,-1,-1,-1,-1,-1,-1,-1,-1,-1,-1],"loss_changes":[1.2616316E-2,6.91327E-3,1.5076146E-2,9.43285E-3,5.2058506E-3,1.7259255E-2,8.976335E-3,6.1489274E-3,2.4978142E-2,5.6866286E-3,1.0669973E-2,2.0707045E-2,1.09115075E-2,1.167606E-2,4.682196E-3,4.6230987E-2,5.9074294E-3,2.9511158E-3,0E0,5.2106176E-3,2.8805234E-3,2.718639E-2,2.8898478E-3,0E0,1.314039E-2,2.6739854E-4,7.8046396E-3,7.826654E-3,6.2775696E-3,3.8250259E-3,1.3440484E-3,3.151791E-2,7.3372354E-3,1.026136E-2,5.417867E-3,2.9783086E-3,0E0,5.428799E-3,4.6568117E-3,1.5836885E-3,6.581625E-3,6.4449674E-3,3.222689E-3,2.8831826E-3,3.0049933E-3,4.420817E-3,3.5225675E-3,0E0,0E0,2.5097718E-3,6.3873297E-3,8.673498E-3,1.1976891E-2,0E0,5.6193992E-3,2.0223325E-3,1.7593082E-3,0E0,0E0,0E0,0E0,0E0,0E0,0E0,0E0,0E0,0E0,0E0,0E0,0E0,0E0,0E0,0E0,0E0,0E0,0E0,0E0,0E0,0E0,0E0,0E0,0E0,0E0,0E0,0E0,0E0,0E0,0E0,0E0,0E0,0E0,0E0,0E0,0E0,0E0,0E0,0E0,0E0,0E0,0E0,0E0,0E0,0E0],"parents":[2147483647,0,0,1,1,2,2,3,3,4,4,5,5,6,6,7,7,8,8,9,9,10,10,11,11,12,12,13,13,14,14,15,15,16,16,17,17,19,19,20,20,21,21,22,22,24,24,25,25,26,26,27,27,28,28,29,29,30,30,31,31,32,32,33,33,34,34,35,35,37,37,38,38,39,39,40,40,41,41,42,42,43,43,44,44,45,45,46,46,49,49,50,50,51,51,52,52,54,54,55,55,56,56],"right_children":[2,4,6,8,10,12,14,16,18,20,22,24,26,28,30,32,34,36,-1,38,40,42,44,-1,46,48,50,52,54,56,58,60,62,64,66,68,-1,70,72,74,76,78,80,82,84,86,88,-1,-1,90,92,94,96,-1,98,100,102,-1,-1,-1,-1,-1,-1,-1,-1,-1,-1,-1,-1,-1,-1,-1,-1,-1,-1,-1,-1,-1,-1,-1,-1,-1,-1,-1,-1,-1,-1,-1,-1,-1,-1,-1,-1,-1,-1,-1,-1,-1,-1,-1,-1,-1,-1],"split_conditions":[1.124255E8,2.5869287E1,-2.2156921E1,1.028058E8,2.0099976E1,1.9235632E2,6.2929993E1,-2.240329E1,7.122549E-1,2.3535767E0,3.1749368E2,-4.690088E1,2.3194275E2,2.888031E1,1.4018925E-1,1.4130467E2,9.59283E7,2.4343855E1,-1.2594607E-3,2.7249916E1,2.47226E7,3.251612E2,4.6765935E-1,1.0029529E-3,-2.3099976E0,1.9661505E2,2.119314E1,8.950958E0,1.627057E2,-1.9269535E-1,9.06189E1,-3.505002E1,2.2614145E1,8.94181E7,1.6383766E2,2.2614145E1,-2.8930022E-4,1.028058E8,3.9215666E-1,2.11169E7,5.811566E-1,6.2929993E1,3.2941776E2,4.320999E-1,5.946849E2,-2.1769424E-1,1.19969E2,-1.30905E-4,-5.470284E-4,-2.1442465E-1,2.960054E1,3.2687384E2,7.778943E1,-3.1810114E-4,5.5654934E1,3.3807E2,3.4228677E2,-5.446583E-4,-1.3182529E-4,1.1910807E-3,9.5178104E-5,-1.4592421E-5,1.1757713E-4,1.32599935E-5,-2.8003982E-4,4.1372862E-4,-1.4470733E-5,-9.315725E-5,1.9736521E-4,6.280707E-5,-3.1144844E-4,-3.2250068E-6,-1.7055489E-5,2.3973867E-6,-1.9736246E-5,8.318611E-6,6.615413E-5,-6.1944804E-5,-3.9521625E-4,-1.3010965E-3,-2.4381233E-4,-5.150094E-7,1.7972456E-4,-1.8442437E-5,-1.2792423E-4,6.1930076E-4,2.3533055E-4,-5.0614815E-4,9.8994315E-5,-1.0729209E-4,3.3214194E-4,-1.311457E-4,1.56566E-4,2.916658E-5,5.680065E-4,-1.2039141E-4,8.969769E-5,3.1066998E-6,3.8780132E-4,-4.659965E-4,2.7615419E-5,1.4567154E-4,-1.090216E-4],"split_indices":[4,11,14,4,13,3,14,13,15,14,2,14,7,13,15,2,4,11,0,2,4,0,15,0,13,1,11,13,0,15,11,14,11,4,0,11,0,4,15,4,15,14,0,15,0,15,0,0,0,15,11,8,11,0,11,0,0,0,0,0,0,0,0,0,0,0,0,0,0,0,0,0,0,0,0,0,0,0,0,0,0,0,0,0,0,0,0,0,0,0,0,0,0,0,0,0,0,0,0,0,0,0,0],"split_type":[0,0,0,0,0,0,0,0,0,0,0,0,0,0,0,0,0,0,0,0,0,0,0,0,0,0,0,0,0,0,0,0,0,0,0,0,0,0,0,0,0,0,0,0,0,0,0,0,0,0,0,0,0,0,0,0,0,0,0,0,0,0,0,0,0,0,0,0,0,0,0,0,0,0,0,0,0,0,0,0,0,0,0,0,0,0,0,0,0,0,0,0,0,0,0,0,0,0,0,0,0,0,0],"sum_hessian":[3.8348E4,3.7153E4,1.195E3,2.274E3,3.4879E4,8.3E1,1.112E3,2.254E3,2E1,3.3877E4,1.002E3,3.9E1,4.4E1,1.095E3,1.7E1,1.9E2,2.064E3,1.9E1,1E0,2.052E4,1.3357E4,2.36E2,7.66E2,3E0,3.6E1,3E0,4.1E1,1.074E3,2.1E1,1.2E1,5E0,1E1,1.8E2,2.053E3,1.1E1,1.5E1,4E0,1.52E2,2.0368E4,1.1401E4,1.956E3,2.34E2,2E0,6.47E2,1.19E2,3.3E1,3E0,1E0,2E0,1.1E1,3E1,9.51E2,1.23E2,1E0,2E1,3E0,9E0,3E0,2E0,5E0,5E0,1.15E2,6.5E1,2.042E3,1.1E1,6E0,5E0,1.1E1,4E0,1.49E2,3E0,1.7542E4,2.826E3,1.1069E4,3.32E2,1.735E3,2.21E2,2.29E2,5E0,1E0,1E0,6.39E2,8E0,8.4E1,3.5E1,3E0,3E1,2E0,1E0,1E0,1E1,1.8E1,1.2E1,9.49E2,2E0,8.4E1,3.9E1,5E0,1.5E1,2E0,1E0,5E0,4E0],"tree_param":{"num_deleted":"0","num_feature":"16","num_nodes":"103","size_leaf_vector":"1"}},{"base_weights":[5.0378647E-5,4.893351E-3,1.0512787E-5,2.9046368E-2,4.0880456E-3,1.5401707E-3,-9.772771E-5,-5.5555347E-3,3.8391285E-2,1.9957232E-3,1.22901555E-2,8.307434E-3,9.6178136E-4,-1.15447314E-4,7.425198E-3,5.4414402E-5,-1.3774743E-4,2.0613636E-4,5.101552E-4,3.5811495E-3,-1.4237514E-2,2.579359E-2,2.4690903E-3,4.7142334E-2,3.2141565E-3,1.1682265E-3,-5.096603E-3,-3.6122514E-5,-1.3061936E-3,4.651298E-3,6.1740376E-2,-2.644358E-4,4.1083796E-3,2.424497E-3,-3.1119933E-2,4.4160857E-4,1.5176978E-2,-1.7510181E-2,1.6887238E-2,7.7165425E-2,1.3190712E-2,-5.373706E-3,5.7607857E-3,1.0705693E-3,2.2985222E-2,1.5396089E-2,-1.2557128E-2,-4.048785E-4,2.1494484E-4,-1.646494E-2,-1.1474828E-3,2.6995782E-2,1.123965E-3,1.1967268E-3,2.538709E-3,2.1325993E-4,3.0177698E-5,-1.08976616E-4,1.3497133E-4,-1.1856423E-4,-4.5196785E-4,2.0901767E-4,2.4377327E-6,-3.7971274E-6,-5.512127E-4,-3.2335306E-6,2.6744956E-4,2.8456515E-4,1.0789229E-3,-2.3970088E-4,2.301988E-4,-9.5017785E-5,1.2842315E-4,2.1995581E-4,3.5844125E-5,1.1769349E-5,-1.4828003E-4,5.485295E-4,1.4914886E-5,-8.863657E-6,8.481811E-4,-7.546338E-5,-4.2304923E-4,1.8819916E-4,-4.105284E-6,3.2571763E-6,-1.0179389E-5,-1.4740147E-5,-3.2684676E-4,-8.259014E-6,-5.118393E-5,8.0805016E-4,1.3534355E-4,-1.6571836E-4,6.57314E-5,-8.352598E-5,1.21606616E-4],"categories":[],"categories_nodes":[],"categories_segments":[],"categories_sizes":[],"default_left":[0,0,0,0,0,0,0,0,0,0,0,0,0,0,0,0,0,0,0,0,0,0,0,0,0,0,0,0,0,0,0,0,0,0,0,0,0,0,0,0,0,0,0,0,0,0,0,0,0,0,0,0,0,0,0,0,0,0,0,0,0,0,0,0,0,0,0,0,0,0,0,0,0,0,0,0,0,0,0,0,0,0,0,0,0,0,0,0,0,0,0,0,0,0,0,0,0],"id":14,"left_children":[1,3,5,7,9,11,13,15,17,19,21,23,25,27,29,-1,-1,-1,-1,31,33,35,37,39,41,43,45,47,49,51,53,-1,55,57,59,-1,61,63,65,67,69,71,73,75,77,79,81,83,85,87,89,91,93,-1,95,-1,-1,-1,-1,-1,-1,-1,-1,-1,-1,-1,-1,-1,-1,-1,-1,-1,-1,-1,-1,-1,-1,-1,-1,-1,-1,-1,-1,-1,-1,-1,-1,-1,-1,-1,-1,-1,-1,-1,-1,-1,-1],"loss_changes":[7.4489457E-3,6.0081845E-3,6.336219E-3,3.4468034E-3,5.2268784E-3,9.890801E-3,4.765116E-3,3.4611372E-4,7.4381847E-4,6.356454E-3,8.158635E-3,3.9210066E-2,2.9213924E-3,3.3679602E-3,1.2368677E-2,0E0,0E0,0E0,0E0,3.654545E-3,6.263941E-3,4.3997243E-3,1.0954069E-2,2.2426784E-2,3.9019652E-3,4.7798688E-3,1.1965571E-2,3.0952154E-3,5.3389505E-3,6.353788E-3,1.3414942E-2,0E0,4.085513E-3,1.917224E-3,2.4469933E-3,0E0,1.533715E-3,1.0287799E-2,3.7411065E-3,1.4889829E-2,4.934906E-3,3.2051045E-3,4.761776E-3,3.8155753E-3,6.767752E-3,2.381276E-2,8.1771705E-3,1.4786394E-3,2.716709E-3,5.544246E-3,2.8114938E-3,6.8741953E-3,6.955283E-3,0E0,4.1596004E-4,0E0,0E0,0E0,0E0,0E0,0E0,0E0,0E0,0E0,0E0,0E0,0E0,0E0,0E0,0E0,0E0,0E0,0E0,0E0,0E0,0E0,0E0,0E0,0E0,0E0,0E0,0E0,0E0,0E0,0E0,0E0,0E0,0E0,0E0,0E0,0E0,0E0,0E0,0E0,0E0,0E0,0E0],"parents":[2147483647,0,0,1,1,2,2,3,3,4,4,5,5,6,6,7,7,8,8,9,9,10,10,11,11,12,12,13,13,14,14,19,19,20,20,21,21,22,22,23,23,24,24,25,25,26,26,27,27,28,28,29,29,30,30,32,32,33,33,34,34,36,36,37,37,38,38,39,39,40,40,41,41,42,42,43,43,44,44,45,45,46,46,47,47,48,48,49,49,50,50,51,51,52,52,54,54],"right_children":[2,4,6,8,10,12,14,16,18,20,22,24,26,28,30,-1,-1,-1,-1,32,34,36,38,40,42,44,46,48,50,52,54,-1,56,58,60,-1,62,64,66,68,70,72,74,76,78,80,82,84,86,88,90,92,94,-1,96,-1,-1,-1,-1,-1,-1,-1,-1,-1,-1,-1,-1,-1,-1,-1,-1,-1,-1,-1,-1,-1,-1,-1,-1,-1,-1,-1,-1,-1,-1,-1,-1,-1,-1,-1,-1,-1,-1,-1,-1,-1,-1],"split_conditions":[2.0632E1,-2.2365417E0,2.6335918E1,-3.1006622E0,2.308263E-1,-2.4787384E1,5.44514E8,1.6993528E1,-3.13988E-2,1.7220558E-1,2.6734812E-2,1.868468E2,1.028058E8,4.9556583E2,9.8355454E-1,5.4414402E-5,-1.3774743E-4,2.0613636E-4,5.101552E-4,1.7842442E-2,3.185659E-2,4.3193573E1,3.2991905E-2,-1.6395132E-1,3.1636E6,9.59283E7,-1.35E1,1.2889147E-2,4.715E2,-4.0025635E0,2.2219272E-2,-2.644358E-4,2.1666463E-2,2.0649804E-2,1.7531725E1,4.4160857E-4,7.7406746E1,3.1291623E-2,4.0456398E1,3.2457773E-2,-3.13988E-2,2.0166516E-2,1.3957852E1,8.94181E7,-7.929548E-2,2.43964E8,5.340299E-1,2.774193E1,1.2297577E1,-1.854894E-2,6.871706E-1,2.5341766E-2,-1.5785217E-1,1.1967268E-3,2.3941017E1,2.1325993E-4,3.0177698E-5,-1.08976616E-4,1.3497133E-4,-1.1856423E-4,-4.5196785E-4,2.0901767E-4,2.4377327E-6,-3.7971274E-6,-5.512127E-4,-3.2335306E-6,2.6744956E-4,2.8456515E-4,1.0789229E-3,-2.3970088E-4,2.301988E-4,-9.5017785E-5,1.2842315E-4,2.1995581E-4,3.5844125E-5,1.1769349E-5,-1.4828003E-4,5.485295E-4,1.4914886E-5,-8.863657E-6,8.481811E-4,-7.546338E-5,-4.2304923E-4,1.8819916E-4,-4.105284E-6,3.2571763E-6,-1.0179389E-5,-1.4740147E-5,-3.2684676E-4,-8.259014E-6,-5.118393E-5,8.0805016E-4,1.3534355E-4,-1.6571836E-4,6.57314E-5,-8.352598E-5,1.21606616E-4],"split_indices":[6,13,11,13,15,13,4,0,15,15,9,2,4,7,15,0,0,0,0,10,9,11,10,15,4,4,13,10,2,13,9,0,10,9,1,0,11,10,11,9,15,10,11,4,15,4,15,7,13,15,15,9,13,0,0,0,0,0,0,0,0,0,0,0,0,0,0,0,0,0,0,0,0,0,0,0,0,0,0,0,0,0,0,0,0,0,0,0,0,0,0,0,0,0,0,0,0],"split_type":[0,0,0,0,0,0,0,0,0,0,0,0,0,0,0,0,0,0,0,0,0,0,0,0,0,0,0,0,0,0,0,0,0,0,0,0,0,0,0,0,0,0,0,0,0,0,0,0,0,0,0,0,0,0,0,0,0,0,0,0,0,0,0,0,0,0,0,0,0,0,0,0,0,0,0,0,0,0,0,0,0,0,0,0,0,0,0,0,0,0,0,0,0,0,0,0,0],"sum_hessian":[3.8581E4,3.14E2,3.8267E4,9E0,3.05E2,2.528E3,3.5739E4,2E0,7E0,2.44E2,6.1E1,1.98E2,2.33E3,3.5656E4,8.3E1,1E0,1E0,4E0,3E0,2.23E2,2.1E1,2.5E1,3.6E1,2.2E1,1.76E2,2.254E3,7.6E1,3.343E4,2.226E3,8E1,3E0,3E0,2.2E2,1.1E1,1E1,8E0,1.7E1,1.5E1,2.1E1,1.1E1,1.1E1,4E1,1.36E2,2.245E3,9E0,2E1,5.6E1,1.3541E4,1.9889E4,2.2E1,2.204E3,1E1,7E1,1E0,2E0,1.2E1,2.08E2,5E0,6E0,5E0,5E0,1.2E1,5E0,1.1E1,4E0,8E0,1.3E1,5E0,6E0,2E0,9E0,3.3E1,7E0,1.5E1,1.21E2,2.231E3,1.4E1,3E0,6E0,1.7E1,3E0,4.9E1,7E0,3E0,1.3538E4,1.825E4,1.639E3,1.2E1,1E1,2.04E3,1.64E2,1E0,9E0,1.6E1,5.4E1,1E0,1E0],"tree_param":{"num_deleted":"0","num_feature":"16","num_nodes":"97","size_leaf_vector":"1"}},{"base_weights":[-2.6991742E-5,2.1503922E-3,-1.3461722E-4,1.6472413E-3,1.1339457E-2,-1.8491325E-4,2.3825404E-3,2.815995E-3,-8.462613E-4,1.4864897E-2,-9.867696E-3,-4.532587E-3,-1.6622043E-4,2.0881908E-2,1.6305681E-3,2.4856756E-2,2.055496E-3,-2.1508883E-4,-3.175416E-2,3.2396924E-2,5.9879944E-3,9.106974E-3,-1.5870513E-2,-3.3559932E-3,-2.8761629E-2,-1.490397E-4,-4.4226632E-3,3.1453925E-3,4.1105166E-2,-1.1533584E-3,5.83081E-3,1.1632522E-3,1.676859E-2,1.8745232E-3,4.2544246E-2,3.2731026E-4,-1.1890307E-2,-6.656747E-2,-1.6621478E-2,6.5515496E-2,9.06156E-3,1.5139025E-2,-1.0783259E-2,-5.537197E-5,1.5834096E-4,1.0578439E-5,-1.7669132E-2,1.5387315E-2,-4.5369486E-3,-4.2439517E-4,3.6220595E-3,-1.8171789E-4,3.1890995E-3,-9.387164E-4,-1.9485E-2,1.42598E-2,-9.751489E-3,1.051667E-3,1.9897E-2,3.8274804E-5,-1.7097909E-2,5.9582137E-2,5.0218864E-3,2.5260772E-4,-1.2458288E-4,2.550556E-5,-1.3417516E-4,5.797773E-4,-9.594849E-5,-1.1910943E-5,3.5450877E-5,-1.6897233E-4,2.8790586E-4,-8.718796E-4,-1.2663251E-4,3.8280846E-6,-7.632788E-4,7.501937E-4,-1.4761656E-4,-8.927036E-5,4.352849E-4,1.046305E-4,3.6775056E-4,-5.6400127E-6,-5.1519286E-4,-2.0436787E-4,-4.3990094E-5,6.2005286E-4,-6.790004E-5,-5.2384017E-5,2.924221E-4,1.3091124E-4,-7.6580356E-5,-1.5188152E-6,-5.3710162E-5,1.9082026E-5,1.8251986E-4,9.8306555E-5,-3.104865E-5,-2.9402896E-4,3.6177793E-5,2.0768194E-4,9.322594E-6,-2.6822335E-4,5.8554844E-5,3.2578825E-4,-1.0440901E-4,2.7537717E-5,-5.7188852E-5,-8.5070735E-4,-1.1632067E-4,2.584219E-4,8.0400985E-4,1.5342815E-4,2.80761E-5],"categories":[],"categories_nodes":[],"categories_segments":[],"categories_sizes":[],"default_left":[0,0,0,0,0,0,0,0,0,0,0,0,0,0,0,0,0,0,0,0,0,0,0,0,0,0,0,0,0,0,0,0,0,0,0,0,0,0,0,0,0,0,0,0,0,0,0,0,0,0,0,0,0,0,0,0,0,0,0,0,0,0,0,0,0,0,0,0,0,0,0,0,0,0,0,0,0,0,0,0,0,0,0,0,0,0,0,0,0,0,0,0,0,0,0,0,0,0,0,0,0,0,0,0,0,0,0,0,0,0,0,0,0,0,0],"id":15,"left_children":[1,3,5,7,9,11,13,15,17,19,21,23,25,27,29,31,33,35,37,39,41,43,45,47,49,51,53,55,57,59,61,-1,63,65,67,69,71,73,75,77,79,81,83,-1,-1,-1,85,87,89,-1,91,93,95,97,99,101,103,-1,105,107,109,111,113,-1,-1,-1,-1,-1,-1,-1,-1,-1,-1,-1,-1,-1,-1,-1,-1,-1,-1,-1,-1,-1,-1,-1,-1,-1,-1,-1,-1,-1,-1,-1,-1,-1,-1,-1,-1,-1,-1,-1,-1,-1,-1,-1,-1,-1,-1,-1,-1,-1,-1,-1,-1],"loss_changes":[9.025267E-3,8.368321E-3,4.646646E-3,5.0178766E-3,7.1745496E-3,2.9234337E-3,9.967968E-3,1.9593937E-2,1.0722686E-2,1.2412049E-2,1.7391526E-3,4.2936676E-3,2.619398E-3,9.914033E-3,8.098395E-3,2.6902063E-2,8.229479E-3,3.4235106E-3,4.6885563E-3,2.0272844E-2,8.604331E-3,4.8172908E-4,3.5361573E-4,3.3457938E-3,3.2543014E-3,3.8932543E-3,7.5383075E-3,2.4325135E-3,1.5569659E-2,7.9236785E-3,1.1701462E-2,0E0,9.498105E-3,1.17160715E-2,4.5797275E-3,2.5302267E-3,5.3749513E-3,2.23051E-3,9.166602E-3,9.499803E-3,1.092878E-2,3.257323E-3,8.296782E-3,0E0,0E0,0E0,2.7736952E-4,9.725772E-3,3.4704115E-3,0E0,4.2068816E-4,5.4708696E-3,6.6408967E-3,2.783234E-3,6.2929085E-3,7.613066E-4,2.2884517E-3,0E0,4.572293E-3,6.0972003E-3,9.784784E-3,7.3196925E-4,6.1958996E-3,0E0,0E0,0E0,0E0,0E0,0E0,0E0,0E0,0E0,0E0,0E0,0E0,0E0,0E0,0E0,0E0,0E0,0E0,0E0,0E0,0E0,0E0,0E0,0E0,0E0,0E0,0E0,0E0,0E0,0E0,0E0,0E0,0E0,0E0,0E0,0E0,0E0,0E0,0E0,0E0,0E0,0E0,0E0,0E0,0E0,0E0,0E0,0E0,0E0,0E0,0E0,0E0],"parents":[2147483647,0,0,1,1,2,2,3,3,4,4,5,5,6,6,7,7,8,8,9,9,10,10,11,11,12,12,13,13,14,14,15,15,16,16,17,17,18,18,19,19,20,20,21,21,22,22,23,23,24,24,25,25,26,26,27,27,28,28,29,29,30,30,32,32,33,33,34,34,35,35,36,36,37,37,38,38,39,39,40,40,41,41,42,42,46,46,47,47,48,48,50,50,51,51,52,52,53,53,54,54,55,55,56,56,58,58,59,59,60,60,61,61,62,62],"right_children":[2,4,6,8,10,12,14,16,18,20,22,24,26,28,30,32,34,36,38,40,42,44,46,48,50,52,54,56,58,60,62,-1,64,66,68,70,72,74,76,78,80,82,84,-1,-1,-1,86,88,90,-1,92,94,96,98,100,102,104,-1,106,108,110,112,114,-1,-1,-1,-1,-1,-1,-1,-1,-1,-1,-1,-1,-1,-1,-1,-1,-1,-1,-1,-1,-1,-1,-1,-1,-1,-1,-1,-1,-1,-1,-1,-1,-1,-1,-1,-1,-1,-1,-1,-1,-1,-1,-1,-1,-1,-1,-1,-1,-1,-1,-1,-1],"split_conditions":[2.3846657E1,3.8764942E-2,1.834538E8,2.1640282E2,2.7516E2,2.4343855E1,2.9956755E1,-2.7418213E1,3.6340687E-2,-3.505002E1,5.1353E6,8.44571E7,6.2929993E1,3.677348E-2,6.2824028E1,9.006936E1,5.2735403E-2,6.18373E7,1.3301821E-2,2.5098705E2,4.7544215E-2,2.8305508E2,2.9104953E2,-3.9889984E1,3.3573814E-2,4.8976652E-2,8.94181E7,2.098E1,3.8764942E-2,1.4180186E2,-5.216522E-1,1.1632522E-3,3.24101E-2,8.94181E7,2.0601E2,1.731741E-2,1.270627E8,3.8913962E2,3.677348E-2,6.898199E-2,3.215703E2,4.483683E-2,1.11840805E2,-5.537197E-5,1.5834096E-4,1.0578439E-5,4.5710646E-2,3.8044E2,7.51136E7,-4.2439517E-4,8.31E1,4.3076202E-2,3.316031E1,6.5779106E1,1.485737E8,4.38559E8,2.8042072E1,1.051667E-3,1.1535644E2,3.771939E-2,1.3947243E2,5.44514E8,2.43964E8,2.5260772E-4,-1.2458288E-4,2.550556E-5,-1.3417516E-4,5.797773E-4,-9.594849E-5,-1.1910943E-5,3.5450877E-5,-1.6897233E-4,2.8790586E-4,-8.718796E-4,-1.2663251E-4,3.8280846E-6,-7.632788E-4,7.501937E-4,-1.4761656E-4,-8.927036E-5,4.352849E-4,1.046305E-4,3.6775056E-4,-5.6400127E-6,-5.1519286E-4,-2.0436787E-4,-4.3990094E-5,6.2005286E-4,-6.790004E-5,-5.2384017E-5,2.924221E-4,1.3091124E-4,-7.6580356E-5,-1.5188152E-6,-5.3710162E-5,1.9082026E-5,1.8251986E-4,9.8306555E-5,-3.104865E-5,-2.9402896E-4,3.6177793E-5,2.0768194E-4,9.322594E-6,-2.6822335E-4,5.8554844E-5,3.2578825E-4,-1.0440901E-4,2.7537717E-5,-5.7188852E-5,-8.5070735E-4,-1.1632067E-4,2.584219E-4,8.0400985E-4,1.5342815E-4,2.80761E-5],"split_indices":[11,9,4,6,2,11,11,14,10,14,4,4,14,9,11,1,10,4,9,6,9,1,1,14,10,10,4,1,9,5,14,0,10,4,1,10,4,1,9,9,8,9,1,0,0,0,10,1,4,0,1,10,14,11,4,4,1,0,1,9,6,4,4,0,0,0,0,0,0,0,0,0,0,0,0,0,0,0,0,0,0,0,0,0,0,0,0,0,0,0,0,0,0,0,0,0,0,0,0,0,0,0,0,0,0,0,0,0,0,0,0,0,0,0,0],"split_type":[0,0,0,0,0,0,0,0,0,0,0,0,0,0,0,0,0,0,0,0,0,0,0,0,0,0,0,0,0,0,0,0,0,0,0,0,0,0,0,0,0,0,0,0,0,0,0,0,0,0,0,0,0,0,0,0,0,0,0,0,0,0,0,0,0,0,0,0,